50 256
27 0.07056546 -0.14991283 -0.12493676 -0.052108042 0.07273157 0.04222773 0.0071746297 0.14774376 0.05881408 -0.07288111 0.07234756 0.065437414 -0.064257786 0.005563231 0.032298945 -0.09363196 -0.021236 -0.028899023 -0.056362152 0.0019909102 0.20977163 -0.010932649 0.12213214 0.09417094 -0.048528265 -0.08307137 -0.23651485 -0.03779806 -0.1123065 -0.05112983 0.013613072 -0.05713585 -0.040486876 0.06344649 -0.030205159 -0.057791512 -0.052336674 -0.04661689 -0.09706247 -0.08790549 -0.17166772 0.1067464 0.0523585 0.0949844 -0.00025048913 0.15914339 0.022380175 -0.076129235 0.016469246 -0.0016998653 -0.046167888 0.043190677 0.05283905 0.09164415 -0.13707377 -0.08710238 0.041690983 0.037125506 0.021409588 0.005035412 -0.026126249 0.15773425 -0.065866426 -0.013632783 -0.032661997 0.03120382 -0.12715021 -0.013061352 0.011154776 -0.013514699 -0.12906714 0.01225491 0.16456448 -0.15723838 -0.08461755 -0.06218991 0.04489782 -0.10841882 -0.08516287 -0.03245504 -0.10792729 -0.038303066 -0.068003066 0.08306012 -0.14943062 0.015874067 0.054450195 -0.13709216 -0.1295131 0.044619173 0.034092218 -0.036026962 0.02638387 -0.07109419 -0.075432494 0.07860246 -0.028080799 -0.18538727 0.087048545 0.05245665 -0.0006430049 -0.092869006 0.05451806 -0.1214303 0.083194844 0.009393288 0.26833534 0.07057788 -0.1576482 0.05442834 0.024552848 -0.050709505 0.0334006 -0.101441704 -0.025361445 -0.08477122 0.04519426 0.0062909056 -0.14051533 -0.061542884 -0.025805496 0.08626584 0.0034664124 -0.12291981 -0.041840382 -0.023276353 0.07670405 -0.049097996 0.013080045 0.071694955 0.10632858 0.046348106 0.057437595 -0.097973846 -0.041350212 -0.032464795 -0.05591982 0.0042031794 0.04285434 -0.06404204 0.05577904 0.07352032 0.21582817 0.013726563 0.04155572 0.13608292 0.015555784 0.006259705 0.044889603 0.13308303 0.15644482 0.08493833 0.06431251 -0.07820299 -0.09555206 -0.053332 -0.10635503 -0.13398796 -0.010937254 0.030547554 0.047334466 0.09999474 0.12406669 0.032674003 0.014776397 -0.1448585 0.07075109 -0.026582045 -0.024898972 -0.004302345 0.100759014 0.009318903 -0.02324 0.21001476 0.015297466 0.048033968 -0.023202488 0.14875865 -0.06151642 0.08380342 0.04984755 0.00784228 -0.061527684 -0.09285537 0.094990805 0.035121486 0.012524121 0.13054281 -0.057315543 0.10139399 0.11268584 0.0968082 0.009451757 -0.040980738 0.014131956 -0.15279406 0.07732954 0.22029947 0.06290255 0.113832355 0.045695476 0.0074854624 -0.097846255 -0.018835219 0.028805317 0.06855489 -0.027199639 -0.049963947 0.08081152 0.08580609 0.099575065 -0.07985072 0.032523975 -0.1985239 -0.13754964 0.23705906 -0.077909514 -0.21787995 0.047051374 -0.0115174195 0.0772744 0.001037384 -0.1576983 0.011753192 0.021055836 -0.10154364 0.08919205 -0.09606714 -0.07757114 0.121597365 -0.047444623 0.096975476 0.052269645 0.027701069 -0.037983228 -0.08040389 -0.0821335 -0.05145511 -0.0028875947 0.07854046 0.19370326 0.08683521 -0.005708116 -0.120519035 0.026481891 -0.1242477 0.1433686 0.08827281 0.018979322 0.09691348 -0.04083522 -0.006447174 0.03884895 0.03631345 0.06554288 0.080985606
40 0.055402957 -0.15181755 -0.12162658 -0.048023175 0.076914705 0.042526923 0.015095049 0.1517462 0.0558067 -0.082129195 0.07310938 0.06618044 -0.07554706 -0.0013279156 0.034863267 -0.10823872 -0.025435712 -0.044624537 -0.07058721 -0.0047335587 0.21313998 -0.009769099 0.13241783 0.102835596 -0.044946644 -0.09058697 -0.24477509 -0.03822234 -0.11803141 -0.055010438 0.005329682 -0.053449776 -0.046841055 0.06632137 -0.036997207 -0.06171699 -0.03892044 -0.04258965 -0.10092222 -0.0966814 -0.18334974 0.111997664 0.06613976 0.106303744 -0.005992305 0.16064744 0.031034172 -0.076630324 0.0020380986 0.009063985 -0.037664212 0.045043606 0.04885897 0.08880177 -0.14060149 -0.10194092 0.036496148 0.039763127 0.009988299 0.0016031843 -0.020749763 0.15126786 -0.068902984 -0.008159301 -0.030236414 0.024163889 -0.12964708 -0.0048746835 0.01371038 -0.024087453 -0.11975294 0.005845849 0.16754626 -0.15988787 -0.07382038 -0.069582574 0.0583115 -0.112034 -0.08779319 -0.030405186 -0.09975445 -0.042100564 -0.07066063 0.07044753 -0.14435427 0.03489094 0.055525556 -0.13481008 -0.13357732 0.045808643 0.028951824 -0.027225079 0.021284591 -0.07117057 -0.08141717 0.09393778 -0.029323129 -0.18822156 0.09187086 0.051062893 0.0063449047 -0.090427235 0.05360031 -0.13176237 0.08623494 0.008301582 0.28085524 0.07332144 -0.14832765 0.05288259 0.020555053 -0.050917692 0.022213396 -0.10198436 -0.026762864 -0.07971946 0.03783506 0.015735682 -0.13380517 -0.07155583 -0.027267642 0.077004716 -0.0039651906 -0.13377501 -0.04058421 -0.019113185 0.07797355 -0.040632058 0.008266473 0.072781935 0.10845345 0.042742893 0.07242365 -0.097632155 -0.03577389 -0.03649216 -0.055443402 0.014214069 0.04165579 -0.06204659 0.07217157 0.071901605 0.23192696 0.016133314 0.040660456 0.14117327 -0.0019339904 0.010799163 0.056926675 0.1471342 0.17503048 0.076468416 0.05404583 -0.07087625 -0.10840075 -0.050273437 -0.12070521 -0.13655706 -0.010365012 0.030954503 0.047363117 0.08918418 0.12941651 0.02457254 0.014158876 -0.15295011 0.06679495 -0.04098159 -0.00850051 0.003136414 0.08917629 0.017432446 -0.021585817 0.2162604 0.0094507 0.044248115 -0.024524748 0.15280287 -0.054789666 0.088913776 0.058626026 0.01177033 -0.06527272 -0.09574654 0.08795793 0.016168235 0.0050298567 0.12444047 -0.056964975 0.0984862 0.116204016 0.092957094 0.001412811 -0.03361075 0.015866203 -0.14201203 0.0753878 0.22688998 0.06739949 0.107394576 0.04988955 0.007645932 -0.09756088 -0.030611217 0.022356527 0.07250986 -0.039048433 -0.03736756 0.08491258 0.09378176 0.09638571 -0.1008285 0.039992485 -0.20034286 -0.13577911 0.231507 -0.07039182 -0.2240188 0.038265858 -0.016085835 0.08208418 -0.0072940355 -0.16571112 0.008947561 0.01273502 -0.102865234 0.08882144 -0.09915065 -0.0755578 0.110953026 -0.039893456 0.1051394 0.053850852 0.03534694 -0.02797029 -0.089398906 -0.071916535 -0.059268463 -0.003836054 0.09018384 0.19403903 0.07850029 -0.008501429 -0.107235454 0.024008187 -0.11896528 0.14988816 0.091132514 0.011203229 0.09675298 -0.034717984 -0.0064273793 0.03308497 0.021657621 0.055502333 0.100128815
33 0.051405173 -0.15567388 -0.121133365 -0.046151765 0.07900638 0.04093227 0.022189558 0.15524952 0.05623936 -0.08444337 0.07114476 0.06852688 -0.08227157 -0.0020087566 0.041263424 -0.113161534 -0.027809875 -0.051210213 -0.07897512 -0.008515446 0.21621217 -0.008766985 0.13737358 0.106320806 -0.042034216 -0.09613496 -0.24985681 -0.034733698 -0.11899369 -0.054723475 0.0006870006 -0.051046256 -0.05008837 0.06577569 -0.04224404 -0.063580774 -0.029844033 -0.044942357 -0.10756919 -0.10284376 -0.19008434 0.116578646 0.07474189 0.10972203 -0.006888909 0.16607627 0.038149565 -0.075322255 -0.008429332 0.014418317 -0.031050097 0.05153697 0.049847994 0.08949558 -0.148307 -0.10766377 0.03400414 0.04314311 0.005491014 0.001482703 -0.017094428 0.14508402 -0.07144124 -0.0040620016 -0.027336545 0.019467246 -0.12952724 0.0016457447 0.012979576 -0.03188779 -0.11184129 0.0019599167 0.17148477 -0.16036266 -0.07057688 -0.07150402 0.06716464 -0.11641539 -0.08756764 -0.028144427 -0.09557048 -0.045855362 -0.07285319 0.06705711 -0.14603102 0.044182993 0.05477186 -0.13114998 -0.13507058 0.044457 0.029818976 -0.019409616 0.018396324 -0.071309544 -0.085839696 0.101702206 -0.031345 -0.19226234 0.09478151 0.049827386 0.0059796236 -0.08911696 0.05142842 -0.1381518 0.08692667 0.0065268213 0.28733224 0.07600218 -0.14300784 0.05398759 0.019903652 -0.04878966 0.017241433 -0.1040672 -0.026844906 -0.07645995 0.032173682 0.021319157 -0.13471001 -0.077499256 -0.03040731 0.07250046 -0.005163192 -0.13830554 -0.03746657 -0.020329462 0.077478565 -0.03435064 0.006417397 0.07439152 0.107986376 0.04104463 0.082245655 -0.09666043 -0.03476321 -0.035986885 -0.059695635 0.021951055 0.039976787 -0.0652203 0.082095906 0.07024492 0.2412523 0.022988426 0.03914831 0.14951324 -0.0080995485 0.015187156 0.062306345 0.15773737 0.18475986 0.075056754 0.053894732 -0.07247233 -0.112077884 -0.050838377 -0.12725148 -0.13715684 -0.011458822 0.033440024 0.04719686 0.082116164 0.13219814 0.022648903 0.016396437 -0.15752248 0.06251986 -0.04812651 0.004110056 0.0044092927 0.083611086 0.023249226 -0.022983037 0.22067042 0.0032097446 0.04604372 -0.024065956 0.15496098 -0.05498072 0.08959351 0.06093055 0.013888094 -0.06762155 -0.09932346 0.08541909 0.008466076 0.0016114141 0.12649998 -0.0550234 0.10071192 0.11648008 0.09571283 -0.001498884 -0.031139815 0.018118765 -0.13586572 0.07208918 0.23384069 0.069928005 0.10630005 0.05034774 0.0034453252 -0.095953085 -0.037779234 0.023437554 0.07179924 -0.04648862 -0.035641033 0.08581845 0.100143455 0.09825573 -0.11102331 0.045807123 -0.19797643 -0.13975017 0.23326738 -0.068517536 -0.2272584 0.034520116 -0.018183518 0.08434667 -0.015180669 -0.17083514 0.0060587805 0.012364356 -0.10475566 0.08571705 -0.10033501 -0.0792472 0.11014607 -0.036650993 0.1106764 0.058001418 0.03562806 -0.022712579 -0.100136325 -0.06589869 -0.0617721 -0.00399244 0.095775835 0.19235235 0.07259319 -0.00837918 -0.10541635 0.023836533 -0.11800248 0.15119871 0.09330136 0.0020346628 0.09421535 -0.027158353 -0.0051303483 0.029752752 0.01238165 0.050403483 0.1071422
49 0.056731932 -0.14607398 -0.11436868 -0.04585037 0.07240571 0.03953691 0.015890561 0.14247644 0.054471567 -0.077479996 0.069240406 0.06553989 -0.07376563 0.0008030057 0.035253204 -0.103472404 -0.025667734 -0.042263947 -0.06620947 -0.0031625093 0.20263635 -0.009376426 0.12571916 0.09635454 -0.04005672 -0.08542454 -0.23329535 -0.035848327 -0.11059608 -0.05321473 0.0029006172 -0.0532516 -0.04482651 0.061939392 -0.034364056 -0.05656251 -0.035727132 -0.0445687 -0.098395035 -0.0926519 -0.17410192 0.10732089 0.06300524 0.10182162 -0.003196958 0.15565763 0.029184248 -0.072296925 -0.00014958897 0.010228965 -0.035292603 0.043298855 0.04924711 0.08818419 -0.13770585 -0.094792545 0.036025286 0.04064603 0.009659947 0.0010029 -0.022360712 0.14508748 -0.064444885 -0.009555517 -0.029544739 0.023175636 -0.12272655 -0.003350616 0.012452292 -0.026710039 -0.11406587 0.0027486775 0.16181132 -0.15392865 -0.07152082 -0.06637827 0.058077287 -0.11009942 -0.08153923 -0.030087125 -0.098081596 -0.039027516 -0.068690814 0.06927788 -0.14152433 0.030261608 0.05098494 -0.12681806 -0.12715532 0.0427094 0.028740477 -0.025584785 0.01732717 -0.067244776 -0.078681804 0.087338686 -0.029861948 -0.17843397 0.08749385 0.05004138 0.0061832704 -0.08633465 0.050900336 -0.12824549 0.08065349 0.0100124795 0.26592782 0.071972534 -0.14313543 0.05163344 0.02049289 -0.04597365 0.023516353 -0.09604366 -0.024054257 -0.07622366 0.036729176 0.017247656 -0.12997758 -0.066646956 -0.029164596 0.07563275 -0.005406437 -0.12807497 -0.037290376 -0.020691305 0.076578744 -0.037973013 0.008984205 0.06920496 0.10082031 0.044529468 0.07043812 -0.09154931 -0.035341598 -0.03466758 -0.05453505 0.013810835 0.039117076 -0.06183827 0.071719125 0.06634789 0.21947683 0.019902868 0.039623693 0.13659458 0.001084721 0.010823763 0.054138362 0.14096908 0.16351222 0.074267134 0.052859023 -0.07218295 -0.10223723 -0.050305877 -0.11653534 -0.12827158 -0.012351397 0.029154636 0.04338814 0.085718036 0.12161839 0.022692434 0.012246924 -0.1479038 0.064810365 -0.03661205 -0.008568882 0.0015636444 0.08753621 0.017830638 -0.02016509 0.20716755 0.0074304887 0.04266938 -0.02208906 0.14639041 -0.055199314 0.085521005 0.054448046 0.01305209 -0.063129194 -0.09381621 0.085260585 0.018782185 0.0060634767 0.12247643 -0.054151773 0.09678027 0.110177845 0.08903309 0.0014586111 -0.032045174 0.015592614 -0.13398036 0.06913498 0.21850471 0.064275965 0.104539394 0.04642089 0.0036860877 -0.0915825 -0.027116215 0.024754882 0.06891598 -0.03709978 -0.03742533 0.07735001 0.09191673 0.09506372 -0.09399154 0.040528163 -0.19104646 -0.13151343 0.22435865 -0.066845916 -0.21442746 0.03643317 -0.014620028 0.07761853 -0.008448878 -0.1583418 0.0055437405 0.017034654 -0.09631298 0.08393452 -0.09208191 -0.07675461 0.10645579 -0.035910983 0.10333203 0.05173907 0.033243496 -0.026389875 -0.08582517 -0.06903317 -0.05601015 -0.005485903 0.08782776 0.18583725 0.076151334 -0.0052285483 -0.10525055 0.02120787 -0.1136561 0.14388882 0.087230146 0.008315565 0.09150663 -0.031767245 -0.0070537063 0.03160615 0.020769736 0.055202324 0.09351405
2 0.052314993 -0.15264499 -0.12004877 -0.047376115 0.07498465 0.04182056 0.02199376 0.15119891 0.05234072 -0.08306707 0.067918815 0.06835283 -0.07806817 -0.0028596604 0.03821039 -0.11320142 -0.02770449 -0.049215898 -0.07537548 -0.005983044 0.21245475 -0.008864764 0.13496622 0.10558143 -0.042903047 -0.0952157 -0.24578771 -0.03398814 -0.1170348 -0.05273207 0.0041198847 -0.051945824 -0.049657375 0.06443649 -0.043435454 -0.060076788 -0.02921529 -0.044573367 -0.102272004 -0.10237916 -0.18462645 0.11460816 0.07273261 0.107665464 -0.007840969 0.16335317 0.03477488 -0.07360797 -0.005938402 0.011680646 -0.030875834 0.04820707 0.049487546 0.08863599 -0.14598615 -0.10624736 0.035270862 0.0434481 0.0019099452 0.0030188113 -0.018934762 0.14469616 -0.06773017 -0.0053244624 -0.028775692 0.022718754 -0.13017024 5.6977156e-06 0.010877772 -0.03244335 -0.11243679 0.0022295085 0.16871741 -0.15743436 -0.06931248 -0.06912964 0.063473955 -0.11330794 -0.08580796 -0.028105287 -0.09717073 -0.045439396 -0.07317084 0.066622205 -0.14202805 0.043184537 0.053127803 -0.12958127 -0.13077787 0.041773707 0.03060788 -0.018739564 0.020013522 -0.07196978 -0.08698949 0.097596385 -0.031209841 -0.18724084 0.090343714 0.052368518 0.008291953 -0.087503694 0.050322138 -0.13856451 0.084678054 0.0057203365 0.28461868 0.07718336 -0.14359513 0.053210046 0.017353367 -0.048795126 0.01755715 -0.10295571 -0.030231655 -0.076501265 0.03175281 0.022139035 -0.13326848 -0.07495036 -0.03086865 0.06915219 -0.0043326765 -0.1371682 -0.036948558 -0.018741488 0.07864894 -0.033539023 0.009556201 0.07106479 0.107591845 0.04012736 0.08217715 -0.09691649 -0.034433965 -0.03654494 -0.059294764 0.018591266 0.0422899 -0.062563844 0.0772952 0.0687001 0.23597717 0.019654738 0.040628042 0.14431633 -0.0069456166 0.013738599 0.061074547 0.15659995 0.18198875 0.07248462 0.051745914 -0.06864039 -0.11300546 -0.050971046 -0.1248523 -0.13579077 -0.008425882 0.03126904 0.045586336 0.0820954 0.1298663 0.025456589 0.015143244 -0.15726171 0.0614614 -0.04713115 0.0032641809 0.0038413377 0.08203739 0.02613044 -0.022875175 0.21665013 0.0026436571 0.046680287 -0.021858387 0.15101413 -0.054926526 0.0879964 0.059179932 0.011027636 -0.06320891 -0.09699143 0.083153725 0.009172285 0.0013418095 0.122348584 -0.056679256 0.100993924 0.11545652 0.095532425 -0.005366852 -0.03431002 0.015255885 -0.13414988 0.071251616 0.22933383 0.06783791 0.10369547 0.05108037 0.005042539 -0.0930644 -0.03838035 0.022984235 0.07279349 -0.04493078 -0.035040535 0.08382096 0.09997237 0.0955928 -0.10676703 0.043266967 -0.19803657 -0.13724843 0.22848588 -0.06844051 -0.22463721 0.036846314 -0.01802715 0.08398484 -0.01206961 -0.16703436 0.007426904 0.009379402 -0.10508472 0.08427174 -0.10107313 -0.074604474 0.10997408 -0.038461503 0.1088044 0.05925847 0.035092063 -0.01782969 -0.09741892 -0.06394106 -0.06101209 -0.0031754097 0.092933655 0.18991897 0.069393665 -0.0104054585 -0.10191691 0.022478858 -0.114557676 0.14888944 0.09278596 0.00347037 0.09306598 -0.027104182 -0.0039289254 0.028758788 0.012994755 0.04940099 0.10695062
7 0.045973126 -0.15280764 -0.119878605 -0.045646384 0.075830296 0.043732274 0.028115539 0.15198517 0.0550613 -0.086894155 0.06679995 0.06756932 -0.08673448 -0.00451052 0.042693086 -0.11651897 -0.025828714 -0.059908085 -0.083425805 -0.011153068 0.21186803 -0.009492779 0.13661554 0.113472566 -0.0337264 -0.10124163 -0.24981394 -0.0338734 -0.12176101 -0.055441506 -0.0023389866 -0.048712652 -0.05308809 0.05961558 -0.045486238 -0.06414306 -0.021861508 -0.045472294 -0.108681075 -0.109189264 -0.1936053 0.11478843 0.07952292 0.11537941 -0.0066263406 0.16679148 0.045421127 -0.07168414 -0.013605215 0.020457609 -0.024513556 0.054206084 0.04535909 0.0880698 -0.14737958 -0.11175112 0.031697027 0.041671913 -1.7767674e-05 0.0011582525 -0.015179687 0.13973822 -0.06958372 0.0018653119 -0.026330568 0.016923005 -0.12915528 0.010736954 0.012831409 -0.04094068 -0.10584561 0.00043808395 0.16633727 -0.15659739 -0.06164796 -0.074945554 0.071106695 -0.11427282 -0.08682308 -0.026361056 -0.09226989 -0.043843936 -0.072240196 0.06467676 -0.14318086 0.048446238 0.05207581 -0.12543295 -0.13648355 0.04361518 0.02779039 -0.015711907 0.017956898 -0.0676631 -0.089730546 0.106317624 -0.029291373 -0.18986791 0.093309924 0.048382428 0.005905567 -0.08317078 0.04736873 -0.14345375 0.084754236 0.007029613 0.28376904 0.07527562 -0.13430673 0.05511505 0.021150958 -0.0466042 0.010008812 -0.10340771 -0.028889706 -0.07245357 0.02582207 0.026396014 -0.12909716 -0.0766873 -0.034511503 0.06803964 -0.0077245105 -0.13953866 -0.038524512 -0.019510265 0.07887472 -0.025097001 0.0051614637 0.071992256 0.10194397 0.042850558 0.0921791 -0.0905246 -0.02620274 -0.03305011 -0.05944661 0.024877226 0.04094604 -0.060271617 0.09168505 0.06769719 0.24323905 0.028516257 0.03790929 0.14796734 -0.013667219 0.019394185 0.06820134 0.16032588 0.18982278 0.06977343 0.046311878 -0.06922852 -0.11567769 -0.047401614 -0.13136558 -0.1328395 -0.007616477 0.031171534 0.04677691 0.07613111 0.135389 0.02099048 0.013958628 -0.16024403 0.05858901 -0.050089918 0.015714062 0.003441328 0.07875241 0.030168617 -0.023529457 0.21745996 0.0020465362 0.045429338 -0.022076666 0.14984298 -0.05221343 0.09138372 0.063315555 0.015373895 -0.068283305 -0.10117913 0.07643481 0.0034144372 -0.0049611656 0.11933716 -0.04854579 0.095999986 0.11663079 0.08901089 -0.0058205714 -0.029927116 0.020871956 -0.122609764 0.06854218 0.2296894 0.06912761 0.10015921 0.048541665 0.0045289043 -0.09032209 -0.04315804 0.016563667 0.07260005 -0.048990056 -0.02690647 0.084139146 0.10769501 0.09629778 -0.11653327 0.049365964 -0.19708264 -0.1369447 0.22666326 -0.064193904 -0.22721575 0.029787056 -0.021704342 0.084187165 -0.023254568 -0.17061521 -0.0012752792 0.006101767 -0.10473613 0.08337105 -0.09718618 -0.077343866 0.10279281 -0.03245426 0.11406878 0.06362207 0.039040186 -0.016848838 -0.10368417 -0.057272263 -0.06446598 -0.008843021 0.09838299 0.18652642 0.06725458 -0.0066518346 -0.0974296 0.02436412 -0.11429557 0.14944293 0.09345593 0.0012957222 0.09417296 -0.02633641 0.00043404123 0.024147982 0.00015358331 0.04580071 0.11513057
10 0.041770294 -0.14779261 -0.11364691 -0.042977765 0.07526927 0.04202824 0.02852056 0.14562474 0.05179343 -0.08468044 0.06515544 0.06629592 -0.08540583 -0.0009468444 0.03931468 -0.113121785 -0.026161252 -0.0570894 -0.08084499 -0.010968459 0.20463838 -0.0077375635 0.13300109 0.108668424 -0.035336807 -0.09595091 -0.2372665 -0.03212595 -0.11642533 -0.054280348 -0.005414865 -0.049802598 -0.04965823 0.060705803 -0.04351855 -0.060647935 -0.01785907 -0.043375872 -0.10455423 -0.10584097 -0.18510242 0.11040747 0.07869288 0.111522645 -0.0056500523 0.16030852 0.04505288 -0.0691148 -0.013460835 0.018696802 -0.021641375 0.05104947 0.04543051 0.08310199 -0.14103925 -0.10854843 0.030838871 0.04044162 -0.003980161 -0.0003312126 -0.014688134 0.13370258 -0.06900977 -8.3113664e-05 -0.024997924 0.01604635 -0.12601028 0.0076357527 0.010096752 -0.040478833 -0.099127114 -0.0032688202 0.1636286 -0.15252723 -0.057540014 -0.072342806 0.07022822 -0.11250183 -0.085586265 -0.024184715 -0.09009251 -0.045714103 -0.06963526 0.060093485 -0.13792941 0.05006872 0.050784476 -0.1216153 -0.1292915 0.03985597 0.02593003 -0.014259831 0.016643856 -0.06347849 -0.0862848 0.10270785 -0.029819274 -0.1823676 0.09102182 0.04772838 0.007537423 -0.08071041 0.04760988 -0.13824897 0.08086424 0.0070175175 0.27720052 0.07433884 -0.13226467 0.052729234 0.020076402 -0.0475382 0.010243493 -0.09817666 -0.025939386 -0.069089994 0.025092833 0.0291808 -0.1232297 -0.077555545 -0.03224474 0.06226381 -0.009046657 -0.13594282 -0.03333821 -0.017058324 0.07382068 -0.024449082 0.0063698855 0.06861825 0.100394145 0.03954242 0.08667989 -0.08858567 -0.028727533 -0.033288516 -0.05638458 0.026019806 0.037791543 -0.061357934 0.08921281 0.06283552 0.23505202 0.024796112 0.037715986 0.14496596 -0.014843891 0.015792804 0.06528619 0.1561109 0.18342452 0.0661248 0.044396136 -0.06380202 -0.11365149 -0.046529487 -0.12541686 -0.126011 -0.0076121506 0.032425206 0.04576133 0.07244588 0.12826827 0.017512588 0.015745528 -0.15560028 0.05778722 -0.050561447 0.013418914 0.0075935572 0.07143198 0.031086301 -0.022471849 0.211924 0.0009982515 0.042720586 -0.019574977 0.14691621 -0.052334003 0.08738077 0.061105207 0.017845325 -0.061916105 -0.09771519 0.07438849 0.001823512 -0.0029394077 0.11539988 -0.048365764 0.096173525 0.11175829 0.08876498 -0.007929803 -0.026516825 0.017602852 -0.119683504 0.065893374 0.22452429 0.06660035 0.09762036 0.048702743 0.004539267 -0.08464207 -0.044841886 0.018990744 0.071579926 -0.047914818 -0.026631653 0.08181151 0.10249894 0.09030403 -0.11285642 0.0456138 -0.1895862 -0.13146146 0.21754894 -0.059451252 -0.21865004 0.025183804 -0.022558888 0.07920538 -0.020879602 -0.16071154 -0.0014680767 0.007951296 -0.0984999 0.0782111 -0.09552108 -0.07588514 0.09648348 -0.032423947 0.10851519 0.06071833 0.0370707 -0.013936707 -0.101637974 -0.056230213 -0.062409107 -0.0060873344 0.096095294 0.1818214 0.063817516 -0.0070469854 -0.09059607 0.022341847 -0.10876153 0.14457688 0.08984329 -0.0016550521 0.09151892 -0.021598348 -0.0021415905 0.019902982 -0.001328597 0.04187813 0.1121115
23 0.038313095 -0.18618153 -0.14058994 -0.05100449 0.09599201 0.052402 0.04526073 0.18812792 0.06035709 -0.112910904 0.076734446 0.08304888 -0.117855914 -0.008155681 0.053440478 -0.15693665 -0.03687012 -0.08888349 -0.11390227 -0.020247795 0.25749028 -0.008714137 0.17440474 0.14563592 -0.03689172 -0.12991351 -0.3082979 -0.03757745 -0.1530807 -0.06755131 -0.01399673 -0.056326028 -0.070211574 0.07308216 -0.061660085 -0.08049663 -0.00647547 -0.05225281 -0.13688894 -0.14272203 -0.24359335 0.14462835 0.11233391 0.14978701 -0.011503318 0.20210864 0.065835446 -0.08213696 -0.03730125 0.03738371 -0.014488244 0.06786896 0.052483417 0.10191925 -0.18162033 -0.15460923 0.031215927 0.05639354 -0.015566316 -0.006462253 -0.013554345 0.15819882 -0.08568067 0.0066713523 -0.026275907 0.0113890655 -0.15860514 0.024443883 0.015876876 -0.061420448 -0.114274174 -0.008392962 0.2082639 -0.19291666 -0.064397804 -0.09944624 0.104702026 -0.14417057 -0.10568625 -0.02523858 -0.100818925 -0.06169021 -0.08793732 0.063147284 -0.16902737 0.083842315 0.0651279 -0.14520821 -0.16763811 0.04965444 0.02606357 -0.0073481672 0.011940694 -0.08003208 -0.11885902 0.14104915 -0.03729343 -0.23036078 0.11768765 0.05730973 0.014410253 -0.09628095 0.06003304 -0.18882596 0.10422255 0.006642581 0.35571793 0.09232398 -0.15203835 0.066260256 0.018039774 -0.057522584 -0.0020424158 -0.12454924 -0.03556328 -0.081768915 0.019354038 0.047572974 -0.14751168 -0.105626225 -0.04391624 0.07062951 -0.0195791 -0.18307409 -0.04066285 -0.018922798 0.09458542 -0.019638106 0.002122163 0.087339945 0.12551713 0.043862443 0.12978467 -0.10994052 -0.025763106 -0.040709484 -0.07121842 0.045929693 0.047696006 -0.071295194 0.12797824 0.07401263 0.3109773 0.038589407 0.04837258 0.18944487 -0.033175033 0.02710865 0.09583326 0.2110327 0.24621741 0.07404164 0.045228675 -0.07512057 -0.15304618 -0.051782157 -0.17301889 -0.15991087 -0.009159289 0.04260954 0.058169354 0.075456634 0.16736533 0.019325852 0.016800227 -0.20531344 0.06796801 -0.07940966 0.040475253 0.014035672 0.08089384 0.04717157 -0.0297913 0.27084938 -0.005780103 0.051197328 -0.023951793 0.18594363 -0.06085284 0.111937076 0.081276156 0.025635365 -0.08473631 -0.12451712 0.08503428 -0.015888602 -0.017705051 0.1379047 -0.061394025 0.11871485 0.14241317 0.107250616 -0.019894378 -0.0301148 0.028367437 -0.1348152 0.077064015 0.286341 0.08641315 0.11182804 0.06133738 0.0018370304 -0.10325357 -0.065769404 0.015691621 0.09126241 -0.073307045 -0.02201902 0.107114516 0.13999076 0.111860946 -0.16287026 0.06756621 -0.23423427 -0.16291311 0.26400533 -0.06684938 -0.2779036 0.023840584 -0.034469258 0.103167884 -0.038644753 -0.2083961 -0.0051978547 0.00087821524 -0.12509409 0.09497117 -0.12420534 -0.095483944 0.113630384 -0.032505754 0.14663199 0.08144004 0.050233997 -0.0066229934 -0.13918576 -0.057498068 -0.08251053 -0.010381847 0.13124393 0.22512636 0.067487806 -0.012348328 -0.104072675 0.026566707 -0.130209 0.18653013 0.1131618 -0.0145795345 0.109488204 -0.020719584 0.0013719746 0.017242093 -0.020150311 0.045945495 0.15978321
11 0.0327632 -0.19893803 -0.14263117 -0.051814 0.10308963 0.052366223 0.050505504 0.19709836 0.062305562 -0.121513456 0.07969942 0.087041356 -0.12894279 -0.0073206644 0.060875036 -0.17143156 -0.039862275 -0.10076832 -0.12425398 -0.026909718 0.27189854 -0.008562432 0.18742034 0.15459104 -0.037931047 -0.14048557 -0.32421094 -0.035796076 -0.1607665 -0.07281386 -0.016046554 -0.058392525 -0.07351394 0.074109495 -0.0648776 -0.08244386 0.00044599187 -0.049897756 -0.14296286 -0.1513271 -0.25618178 0.15356193 0.12355504 0.15850714 -0.016132908 0.21545081 0.07508733 -0.08504757 -0.04512521 0.044121057 -0.010804422 0.074681595 0.051610373 0.10618953 -0.19163328 -0.1671363 0.031947196 0.061650816 -0.023012329 -0.0050756405 -0.012214053 0.16123617 -0.08890906 0.011756594 -0.029086662 0.010148114 -0.17022777 0.026951335 0.018348048 -0.07266625 -0.11464519 -0.01110616 0.21386775 -0.20259236 -0.059661485 -0.1058669 0.11347564 -0.15350826 -0.11417182 -0.026139868 -0.10407726 -0.062686086 -0.094801374 0.0616523 -0.17672718 0.09191928 0.07138332 -0.1501338 -0.17437582 0.05272908 0.02512706 -0.0060316324 0.013883912 -0.08156681 -0.1239188 0.1518787 -0.039407715 -0.23983717 0.12513603 0.059455175 0.018603327 -0.09606804 0.058209468 -0.19909564 0.109669924 0.008688206 0.37925833 0.09665304 -0.15494362 0.06661331 0.019354234 -0.057508737 -0.00835314 -0.13005541 -0.037764594 -0.08383085 0.015902167 0.053939145 -0.1524468 -0.11507812 -0.047377657 0.06581284 -0.0185316 -0.19479175 -0.043944776 -0.019612469 0.09744733 -0.016540064 0.0011676486 0.08891031 0.13162734 0.04359427 0.13903804 -0.1148918 -0.02619849 -0.044957455 -0.07222729 0.052652285 0.050214622 -0.07677571 0.13939302 0.07744507 0.33130386 0.04340173 0.050781842 0.19789027 -0.039241854 0.032605436 0.10114284 0.2299553 0.2640601 0.075071454 0.04450855 -0.075941846 -0.16499916 -0.050436303 -0.18446268 -0.16803437 -0.006143782 0.04352574 0.060640458 0.07497875 0.17677723 0.014778209 0.016277472 -0.2146748 0.06824299 -0.09015701 0.05019452 0.0169111 0.08014315 0.053665962 -0.029186416 0.28453952 -0.009199419 0.053150676 -0.026818324 0.1930816 -0.05855262 0.11650396 0.08776585 0.027156426 -0.08592824 -0.13186231 0.08406765 -0.023420101 -0.020419907 0.14172336 -0.06366033 0.12315363 0.14954354 0.112204544 -0.023613643 -0.026632035 0.028716529 -0.13595031 0.07919404 0.3022241 0.090795465 0.11493559 0.06461194 0.0009571954 -0.10745777 -0.07672162 0.016270135 0.09347718 -0.079889566 -0.017128132 0.11142854 0.14830974 0.1122413 -0.17767455 0.07174174 -0.2437214 -0.17049576 0.27304134 -0.068175614 -0.29129827 0.022201683 -0.036721148 0.11197827 -0.042190902 -0.22276023 -0.008289717 -0.0015929126 -0.1339852 0.09903239 -0.1292896 -0.09813995 0.11664735 -0.033525754 0.15659323 0.08501963 0.05605213 -0.0013822037 -0.15088949 -0.054497026 -0.0876348 -0.012455587 0.14225478 0.23192298 0.06651489 -0.012647368 -0.1026614 0.026017705 -0.13561657 0.19790554 0.119450994 -0.016400525 0.11377467 -0.017431172 0.0046679922 0.016442873 -0.02802743 0.04023313 0.17307445
3 0.099964686 -0.5546104 -0.39820454 -0.14949748 0.29007134 0.14747226 0.13900997 0.5556074 0.16254967 -0.3375087 0.235496 0.23405427 -0.36230043 -0.031745896 0.15620154 -0.47914317 -0.09705155 -0.2773405 -0.3426023 -0.07686869 0.7551668 -0.0164375 0.5221167 0.4369296 -0.09848177 -0.38675085 -0.9057247 -0.09790268 -0.43475282 -0.19547679 -0.04970225 -0.17865929 -0.2194959 0.22818261 -0.17704111 -0.24232845 -0.020885596 -0.14243285 -0.39871728 -0.41445008 -0.7183571 0.41838694 0.33213398 0.44964713 -0.042292 0.59344345 0.20607029 -0.2571559 -0.11859966 0.124167845 -0.033293147 0.19428043 0.13811287 0.3121095 -0.54310393 -0.46136245 0.08923874 0.17290814 -0.04611912 -0.0018456295 -0.054741852 0.47845265 -0.26399395 0.023853231 -0.08277056 0.025794758 -0.46095097 0.076928735 0.04797834 -0.19255635 -0.3319402 -0.02608014 0.6050919 -0.5666331 -0.18259263 -0.3016152 0.32267898 -0.43495253 -0.3058518 -0.08177349 -0.3038064 -0.17204925 -0.27046335 0.17698802 -0.4908024 0.25144497 0.19739744 -0.43035662 -0.5000481 0.14625314 0.06256117 -0.021077821 0.032704543 -0.23474789 -0.3553418 0.4315214 -0.12206587 -0.6715038 0.3615151 0.1637859 0.03479677 -0.28167817 0.16812268 -0.55616736 0.31590876 0.037929326 1.0543212 0.27180874 -0.4462331 0.18877663 0.066301756 -0.16398276 -0.0005029519 -0.36110213 -0.09536694 -0.23371814 0.061600517 0.14573544 -0.42791227 -0.31410962 -0.13692151 0.19884369 -0.060937222 -0.54565066 -0.13172084 -0.04490013 0.28320727 -0.05473255 0.0009715819 0.24366759 0.3763556 0.14374763 0.388521 -0.32143414 -0.069804795 -0.14004858 -0.20637873 0.13236424 0.14198175 -0.21648137 0.3927652 0.22456415 0.92801267 0.11911702 0.1500572 0.5514189 -0.110265754 0.091163345 0.29288906 0.6275566 0.7343493 0.22452304 0.13984238 -0.21404332 -0.45414647 -0.14538448 -0.52691954 -0.46693364 -0.034608155 0.12071377 0.17670405 0.2155993 0.49208164 0.044520635 0.047725417 -0.6025824 0.1924263 -0.2368203 0.121845834 0.03386962 0.22707891 0.14138779 -0.07766849 0.79535204 -0.02032904 0.1403295 -0.06841634 0.5512926 -0.1689495 0.3294397 0.25087404 0.08317607 -0.2550657 -0.38037765 0.25109413 -0.0624166 -0.051292192 0.41010466 -0.1668039 0.33558336 0.42866307 0.30136278 -0.041748196 -0.07889774 0.07818916 -0.39604008 0.21941194 0.8471477 0.26403996 0.32919234 0.18844116 0.0054942896 -0.3006505 -0.19293429 0.040856652 0.26776075 -0.22338691 -0.058432806 0.30705458 0.41423428 0.34089348 -0.4874284 0.20267966 -0.70552164 -0.49294624 0.78358644 -0.20690957 -0.83059883 0.052314624 -0.10019271 0.3152403 -0.11199019 -0.62559956 -0.02533678 0.011195928 -0.3680609 0.27396524 -0.35634303 -0.28198713 0.3229194 -0.08522832 0.4481811 0.22847384 0.15384564 -0.023871422 -0.40938562 -0.16159528 -0.24796544 -0.032615084 0.40210208 0.6698728 0.20554256 -0.03947904 -0.29944783 0.073128946 -0.38074434 0.5679269 0.3432365 -0.050395902 0.33363742 -0.053255685 -0.008363083 0.048968215 -0.06454355 0.11926888 0.48129883
47 0.042034674 -0.13990888 -0.108240336 -0.042644147 0.06998774 0.03767052 0.021406455 0.13939424 0.046796124 -0.07699108 0.061480235 0.06109648 -0.07586037 -0.0037055481 0.037410248 -0.104513116 -0.024219153 -0.051879514 -0.071818486 -0.008028943 0.19327295 -0.0067149964 0.12397255 0.10010288 -0.03255064 -0.087734714 -0.22305165 -0.029255599 -0.10973784 -0.051826578 -0.0026813382 -0.046706818 -0.04607232 0.055547044 -0.037182152 -0.056616347 -0.02261104 -0.040882673 -0.09783215 -0.094902605 -0.17182158 0.10534173 0.06848179 0.10237698 -0.0045303428 0.1476587 0.036490865 -0.06671895 -0.011757592 0.0177159 -0.021915866 0.045892075 0.043301433 0.079807095 -0.13145256 -0.10126642 0.028698685 0.039703656 0.0024471057 -0.0018269889 -0.01718527 0.12887543 -0.06443844 -0.0040500737 -0.025730258 0.015187248 -0.1170877 0.0071458183 0.010008126 -0.031771313 -0.09931167 -0.0019806428 0.15556668 -0.14420521 -0.061143503 -0.06983742 0.062830456 -0.10500307 -0.07927143 -0.0255824 -0.08571137 -0.042746555 -0.0663877 0.056965258 -0.12887397 0.043690115 0.04885602 -0.11632359 -0.12116833 0.037807282 0.022363285 -0.016422054 0.01322129 -0.062419 -0.08015956 0.0933132 -0.029348364 -0.17213313 0.08338675 0.044672966 0.007283319 -0.07700355 0.04776597 -0.12893364 0.076597236 0.0083525125 0.25737897 0.06961163 -0.12874743 0.050851233 0.01988531 -0.043125693 0.013382217 -0.09319766 -0.02404518 -0.066436484 0.025781251 0.022063697 -0.11846477 -0.06921649 -0.029140601 0.064302176 -0.009727798 -0.12832828 -0.034501757 -0.015383241 0.070770875 -0.025825692 0.0047879415 0.06566065 0.09610929 0.037899543 0.07845307 -0.08682198 -0.029148333 -0.03442754 -0.05294255 0.021864032 0.0362799 -0.057690784 0.0809177 0.059050363 0.21776529 0.024161294 0.035877544 0.1352112 -0.010654086 0.0145476535 0.058822077 0.14503714 0.16890217 0.06588431 0.04546979 -0.06290741 -0.104956724 -0.044254757 -0.11924688 -0.12157143 -0.01084329 0.030886188 0.044216137 0.07273919 0.11948689 0.019241832 0.013689402 -0.14600651 0.058524877 -0.045019697 0.0076688854 0.0031874317 0.072486654 0.025628768 -0.02052929 0.20001537 0.0036357613 0.03940578 -0.020849286 0.13770896 -0.04944354 0.081612535 0.05646123 0.01647803 -0.060806043 -0.091292314 0.07556312 0.005703158 -0.001743173 0.110167414 -0.047003016 0.090366825 0.107690156 0.08376797 -0.0030447834 -0.028045198 0.016152274 -0.117201164 0.060754687 0.21189035 0.06258401 0.09201256 0.04598302 0.002243876 -0.08362751 -0.037882466 0.020103171 0.0673884 -0.044739585 -0.026329055 0.077760756 0.09377746 0.087543584 -0.10171847 0.044626854 -0.18152077 -0.123710215 0.20837192 -0.060610283 -0.20594305 0.026171453 -0.017228642 0.07675132 -0.014059795 -0.15334019 0.0028882353 0.011996774 -0.09187562 0.0761451 -0.08941722 -0.07082485 0.09393751 -0.030541437 0.101504065 0.054076724 0.034398682 -0.01672197 -0.09136542 -0.056525037 -0.05661114 -0.007123623 0.089449875 0.17500296 0.062219102 -0.007519712 -0.090919614 0.018376088 -0.103058636 0.13814569 0.08273348 -0.00068398076 0.08669913 -0.025183246 -0.0029331066 0.021957004 0.0043350924 0.04579504 0.09983984
16 0.085913695 -0.5189613 -0.37324572 -0.13981909 0.26658505 0.13944215 0.15005207 0.51874214 0.15384088 -0.31715035 0.20208089 0.23214261 -0.34912443 -0.01648632 0.16498123 -0.46661603 -0.11237858 -0.2859369 -0.346978 -0.08828915 0.7119712 -0.0113097625 0.5068857 0.40796533 -0.08598176 -0.3670125 -0.85075325 -0.0933272 -0.42320535 -0.2025708 -0.060662743 -0.1528687 -0.21103886 0.19349414 -0.16612203 -0.21884236 0.007530533 -0.1493339 -0.38835955 -0.41803715 -0.69264656 0.41361457 0.3348345 0.42767474 -0.034535985 0.55586743 0.21079843 -0.22531226 -0.1290792 0.13692783 -0.01201541 0.19506927 0.13412142 0.2994568 -0.50572526 -0.44225433 0.080403715 0.16539876 -0.050527267 -0.022562722 -0.032704733 0.42418814 -0.25315374 0.010167049 -0.06913878 0.017946918 -0.4397508 0.09379585 0.03613046 -0.20414537 -0.29401004 -0.045079947 0.57563365 -0.54444665 -0.14962047 -0.29356962 0.32385963 -0.41696358 -0.30203465 -0.06672303 -0.26507047 -0.17663367 -0.25123245 0.15616652 -0.4556679 0.26290676 0.1872386 -0.3856949 -0.45954993 0.14028431 0.04804673 -0.0067044324 0.01411421 -0.21359621 -0.33646858 0.42126685 -0.09852908 -0.6451502 0.33010608 0.1375157 0.054370705 -0.25316864 0.17371413 -0.54418916 0.28397796 0.016998896 0.9905315 0.25701424 -0.40368298 0.18534793 0.05246688 -0.13733475 -0.027242674 -0.33219922 -0.087852634 -0.20813766 0.043582555 0.15527011 -0.39853454 -0.31097806 -0.13274473 0.1865609 -0.065523885 -0.5271546 -0.10767192 -0.030401167 0.2701696 -0.025493208 -0.004605218 0.22635183 0.34565452 0.122050196 0.39068916 -0.28770703 -0.060988937 -0.11901915 -0.19840088 0.14235485 0.13607642 -0.20762713 0.39435202 0.188302 0.8760822 0.13278744 0.13458389 0.5418053 -0.120152555 0.094291 0.29035267 0.6109163 0.7046049 0.19139235 0.11432848 -0.21318193 -0.43424326 -0.14094424 -0.50630987 -0.44714278 -0.030556817 0.11356092 0.15275715 0.18221016 0.4520343 0.03387058 0.04781172 -0.5742508 0.18812674 -0.25129265 0.14437363 0.047995787 0.19691896 0.15405864 -0.068242975 0.75362176 -0.02512868 0.12911892 -0.06168148 0.51249325 -0.16998178 0.32190788 0.23186263 0.08145127 -0.24615343 -0.35923392 0.2180061 -0.07674755 -0.06549344 0.38661087 -0.15469836 0.3177111 0.39271995 0.27355167 -0.063427776 -0.06377067 0.090695605 -0.35063255 0.18860906 0.809573 0.2515558 0.3028148 0.1797942 -0.0042804983 -0.27225596 -0.20772927 0.044294126 0.24744807 -0.21959686 -0.04430051 0.28920665 0.40190652 0.304425 -0.47152242 0.20548575 -0.64670235 -0.44818115 0.7259737 -0.17439114 -0.77205616 0.032349482 -0.10855415 0.28748682 -0.11722288 -0.58798 -0.030023525 0.014401454 -0.3380688 0.24023774 -0.34962553 -0.27688715 0.29125974 -0.0662777 0.4293683 0.22857754 0.13929674 -0.010809922 -0.40750524 -0.13051455 -0.22803417 -0.030734204 0.38461384 0.61235464 0.17701575 -0.025167605 -0.26224816 0.05981105 -0.34265184 0.5223488 0.31875795 -0.063628115 0.31620777 -0.032538787 0.0013718064 0.02820427 -0.08800196 0.10697304 0.47209206
32 0.035300754 -0.17726421 -0.13178293 -0.04837039 0.09035328 0.047659066 0.043011874 0.17386977 0.05465719 -0.10372765 0.07291642 0.07797607 -0.11029984 -0.0060521 0.0510786 -0.14558944 -0.033134587 -0.08345961 -0.1083196 -0.020053355 0.24141659 -0.0060299416 0.1620213 0.13315958 -0.03798804 -0.12137319 -0.28751922 -0.03128529 -0.1396736 -0.0645754 -0.012113706 -0.053508867 -0.06250471 0.07060545 -0.05681391 -0.0740331 -0.0070390943 -0.04458516 -0.12567163 -0.1334482 -0.22766143 0.13537183 0.102539614 0.13776354 -0.014478213 0.18911234 0.062603615 -0.078144 -0.032905165 0.03211203 -0.016078766 0.06454459 0.047088914 0.09778378 -0.17186435 -0.14355788 0.029569842 0.052335862 -0.013775215 -0.003499184 -0.012963449 0.15013324 -0.08280354 0.008005954 -0.02851117 0.010826933 -0.15018143 0.02122962 0.015129751 -0.05957377 -0.11002908 -0.004740175 0.19272564 -0.18123601 -0.06137204 -0.09077853 0.09602991 -0.13424087 -0.10032982 -0.025176262 -0.09732781 -0.056477334 -0.08200304 0.060449213 -0.15807775 0.07720926 0.06298082 -0.13669695 -0.15492119 0.045993913 0.025641093 -0.0066838763 0.015090234 -0.07688388 -0.10774906 0.13163781 -0.035722733 -0.21453685 0.10868575 0.05038052 0.014242848 -0.09132413 0.05161074 -0.17465779 0.09996215 0.010233922 0.33598337 0.08557746 -0.14532095 0.06143577 0.0190655 -0.054024164 0.0012325438 -0.11365644 -0.031380117 -0.07553771 0.019787012 0.04405137 -0.13704973 -0.09861697 -0.042079587 0.06286662 -0.016016351 -0.1678965 -0.03817341 -0.018980306 0.086186364 -0.017970543 0.0035123143 0.082222715 0.11752919 0.040938098 0.120869644 -0.10198511 -0.026671754 -0.041639313 -0.06426998 0.041532964 0.04618826 -0.06729386 0.11844731 0.06880947 0.2898612 0.035785712 0.042668894 0.17279029 -0.029449327 0.027796008 0.088412195 0.19848655 0.23097378 0.07196434 0.045723423 -0.06949617 -0.14081654 -0.05106822 -0.15902773 -0.15012023 -0.008624725 0.037839748 0.051665034 0.074313425 0.15569168 0.017384687 0.017333202 -0.19056031 0.061456162 -0.07514679 0.034433328 0.013217514 0.077654704 0.045239612 -0.027936902 0.25065315 -0.0057885647 0.046897806 -0.021241017 0.17194697 -0.055700745 0.10711141 0.078055434 0.02118755 -0.078545965 -0.11804221 0.07788344 -0.013789827 -0.014106623 0.13294339 -0.05647286 0.11147989 0.13196124 0.10160232 -0.01768325 -0.02874241 0.021945236 -0.1293485 0.07180274 0.26629457 0.08002681 0.107344046 0.05767788 0.000572894 -0.09882068 -0.06362669 0.01451435 0.0825992 -0.06870109 -0.02122585 0.097745925 0.13061553 0.10437785 -0.1526923 0.061043195 -0.22024414 -0.1539436 0.24852228 -0.06354061 -0.25797397 0.022134067 -0.03208791 0.10033073 -0.03341312 -0.19855565 -0.002775017 0.0009033967 -0.119728625 0.09006677 -0.116256535 -0.08678525 0.104733005 -0.033849653 0.13621478 0.07395731 0.047749545 -0.0055244076 -0.12983121 -0.05257684 -0.07898751 -0.010352431 0.122520715 0.21246603 0.06445875 -0.012891166 -0.09770234 0.023732137 -0.122851424 0.17435889 0.10730431 -0.013222597 0.1028384 -0.017536145 0.0018859463 0.017793264 -0.016692836 0.0438749 0.14993833
44 0.041413028 -0.17684177 -0.1340494 -0.051524725 0.09042373 0.04869933 0.039265998 0.17619587 0.05811192 -0.10340651 0.075645134 0.07880972 -0.1103088 -0.0051439046 0.051338106 -0.14514422 -0.034680355 -0.08296845 -0.10437607 -0.018049804 0.24347328 -0.005718249 0.16174544 0.1352978 -0.03490864 -0.11999198 -0.28788483 -0.03278557 -0.13892347 -0.06419478 -0.010027664 -0.057512026 -0.06694392 0.06937082 -0.05392931 -0.07512821 -0.013768445 -0.04658937 -0.12666108 -0.13318056 -0.2286927 0.13703841 0.10019867 0.13811427 -0.010661462 0.1906872 0.057572167 -0.07932951 -0.031701934 0.031502258 -0.019305034 0.06256533 0.04961864 0.09809979 -0.16989364 -0.14144999 0.033303898 0.05131732 -0.008902165 -0.004918801 -0.016681783 0.15407038 -0.08090177 0.0011867941 -0.02636321 0.015670972 -0.15249094 0.020348702 0.015253456 -0.054146763 -0.11068951 -0.0066424464 0.19495955 -0.18410791 -0.064083055 -0.091053836 0.09269527 -0.13833082 -0.09952411 -0.02506731 -0.10102202 -0.057610564 -0.08559055 0.061616033 -0.16131884 0.06974837 0.06451621 -0.14065547 -0.15914989 0.047885362 0.02359685 -0.010645265 0.012606784 -0.07899534 -0.1114788 0.13170503 -0.034898847 -0.21513374 0.109493345 0.055217415 0.013167929 -0.09071504 0.05592955 -0.17329359 0.09964572 0.010863206 0.33699256 0.088473864 -0.15090986 0.061918672 0.0213241 -0.05528446 0.0010600495 -0.11559011 -0.033004396 -0.076869614 0.022130333 0.04023408 -0.1422406 -0.098185 -0.040304553 0.06785029 -0.015929822 -0.16710317 -0.039789286 -0.019311665 0.089268565 -0.02364336 0.005006803 0.08004911 0.121072665 0.046524554 0.115845084 -0.104338564 -0.028708553 -0.043336675 -0.06749175 0.03837538 0.046145767 -0.069135845 0.11665052 0.07426654 0.28841642 0.035803836 0.04666394 0.17729388 -0.028714757 0.023047304 0.08723671 0.19759384 0.22603634 0.07187915 0.049496528 -0.07532196 -0.14138575 -0.049215175 -0.16186 -0.1510114 -0.007808803 0.04025647 0.05421921 0.07650367 0.15539406 0.01758868 0.014667874 -0.19072388 0.064497486 -0.070538364 0.0317884 0.009108605 0.082274996 0.04209994 -0.027164267 0.25229836 -0.0047076917 0.048908178 -0.023470042 0.17690115 -0.056717087 0.10597893 0.073677994 0.021050693 -0.07703872 -0.11633628 0.08495306 -0.008882825 -0.013984133 0.1319063 -0.05669353 0.111312725 0.13374501 0.101305164 -0.0152352145 -0.029801061 0.026023487 -0.13182074 0.07446277 0.2721394 0.08361668 0.11114222 0.05728104 0.0027249688 -0.09920127 -0.057970893 0.016253544 0.08623401 -0.06772738 -0.026310371 0.09673535 0.12874226 0.10480063 -0.1459929 0.063344106 -0.22483431 -0.15411246 0.25251395 -0.067978 -0.2632675 0.026210083 -0.028805712 0.09823459 -0.028576802 -0.19990738 -0.005392561 0.005013203 -0.1176906 0.090799764 -0.117299154 -0.091602705 0.11210719 -0.03075922 0.13734426 0.07457333 0.04602537 -0.008993457 -0.12819566 -0.058057737 -0.07670078 -0.008706698 0.1221891 0.21599627 0.06974493 -0.01234135 -0.10257207 0.021772249 -0.12321349 0.17680249 0.106732346 -0.008979669 0.108528435 -0.022805871 -0.0009067137 0.021861533 -0.013834086 0.0465141 0.1448585
0 0.035909474 -0.17557137 -0.12888524 -0.05076198 0.08773684 0.048820857 0.040607084 0.17260022 0.054154843 -0.10345444 0.074584976 0.07629423 -0.10867869 -0.0066668848 0.051971447 -0.1471286 -0.031666826 -0.08348458 -0.10676742 -0.021092609 0.23845206 -0.008162806 0.16208898 0.13448045 -0.037070088 -0.120255835 -0.28413227 -0.034597863 -0.140915 -0.06537722 -0.011147352 -0.052267976 -0.06476555 0.06766051 -0.053193323 -0.07530411 -0.007020801 -0.045786873 -0.123596184 -0.13275167 -0.22697331 0.13210534 0.10064026 0.13913365 -0.0120020555 0.18973108 0.060288478 -0.07988804 -0.034363985 0.03512684 -0.016252164 0.062039793 0.04588139 0.09514072 -0.16943237 -0.14191107 0.028167421 0.054244567 -0.014543937 -0.0024313454 -0.013840491 0.1478607 -0.08111941 0.0063783135 -0.02593397 0.009898668 -0.14807089 0.018529184 0.013574221 -0.05679602 -0.109741285 -0.005818615 0.19285084 -0.17862049 -0.058834404 -0.09343548 0.09535021 -0.13448879 -0.099778995 -0.02549497 -0.09541629 -0.0565485 -0.08129955 0.061209675 -0.15835452 0.0757486 0.061997265 -0.13719176 -0.15424034 0.047596578 0.0232607 -0.006627918 0.012959431 -0.076399274 -0.108975455 0.13190277 -0.036654007 -0.2123772 0.111779496 0.050596762 0.013662554 -0.09068415 0.056181386 -0.17154221 0.097645454 0.009536139 0.33332637 0.088089265 -0.14151216 0.06210624 0.017710064 -0.05170419 0.00034961366 -0.1156982 -0.033901542 -0.07753602 0.020829024 0.041510656 -0.13855787 -0.096912995 -0.043427266 0.0656893 -0.017850377 -0.16886735 -0.041698426 -0.015042335 0.0884785 -0.017828558 0.003850447 0.08120031 0.11758392 0.041246355 0.11980158 -0.10317971 -0.026031759 -0.041301288 -0.0632962 0.041358672 0.04554953 -0.066189684 0.11768893 0.06898988 0.28714392 0.034110926 0.045388356 0.17371257 -0.03110438 0.026260985 0.08824696 0.19515628 0.22950174 0.07036626 0.044214323 -0.07233442 -0.1384565 -0.047521178 -0.16155636 -0.15127291 -0.007758732 0.036075734 0.052051168 0.07027902 0.15339252 0.0151275005 0.015073918 -0.18922076 0.06212968 -0.07127524 0.035625726 0.009176248 0.07665541 0.041376233 -0.025718234 0.2512595 -0.0052941795 0.047829207 -0.020412533 0.17244354 -0.054508943 0.10401545 0.075313255 0.020718912 -0.07972355 -0.11934405 0.0784183 -0.011348723 -0.01305567 0.13092472 -0.056156296 0.10917331 0.13287172 0.098899186 -0.013667699 -0.025202345 0.023688791 -0.12683947 0.073243454 0.26595858 0.083461344 0.10764028 0.060330573 0.003732277 -0.097060665 -0.058605954 0.015394331 0.08528261 -0.06606008 -0.023384245 0.09762063 0.12994415 0.10341719 -0.15045443 0.062903374 -0.22222126 -0.15296948 0.24747318 -0.066078335 -0.25720102 0.019699112 -0.02869971 0.09988326 -0.033600453 -0.19571602 -0.006395487 0.0013654224 -0.11877152 0.08593113 -0.11558982 -0.09033086 0.10438784 -0.030022817 0.1353721 0.07457384 0.04881651 -0.007716829 -0.12547345 -0.054583248 -0.078877285 -0.009972431 0.12130118 0.20841566 0.06586495 -0.012861067 -0.096178904 0.024384756 -0.122565515 0.17601916 0.10642173 -0.009347773 0.10515248 -0.018442316 0.002283637 0.015454602 -0.014811886 0.0410887 0.14634562
26 0.03204646 -0.1712914 -0.12479369 -0.04668533 0.09041334 0.045223802 0.04647182 0.17004573 0.050594404 -0.10600616 0.06954517 0.0736667 -0.11001134 -0.009444322 0.05062169 -0.14670295 -0.032469552 -0.0877245 -0.109495595 -0.021108545 0.23847383 -0.006175681 0.1645056 0.13674119 -0.032973994 -0.122934856 -0.28535393 -0.03260536 -0.14003246 -0.060598604 -0.014122799 -0.050985355 -0.06501056 0.06490356 -0.060088124 -0.075942464 -0.00049363245 -0.046424117 -0.12637731 -0.13410212 -0.22553238 0.13063493 0.104244396 0.13828714 -0.014045544 0.18976995 0.062445574 -0.07597611 -0.039766423 0.039670072 -0.0075952695 0.06575675 0.04393164 0.092006385 -0.16829215 -0.14478421 0.028591415 0.053748187 -0.01982062 -0.003995408 -0.010398697 0.14185673 -0.07988019 0.011090066 -0.024151279 0.008457323 -0.14524588 0.022620788 0.015356452 -0.061702807 -0.10051414 -0.009454251 0.18713224 -0.17669214 -0.05288662 -0.09472248 0.09678575 -0.13344887 -0.098480836 -0.023891378 -0.093605384 -0.05470122 -0.08207969 0.055435307 -0.1515854 0.08169162 0.058244567 -0.13121842 -0.15360807 0.045286313 0.022931539 -0.0035241167 0.01303381 -0.07032164 -0.1079773 0.13304198 -0.036474805 -0.20886847 0.11192658 0.049257394 0.014386054 -0.08613179 0.05183232 -0.17314418 0.097524926 0.009479948 0.3313693 0.086361095 -0.13437149 0.061880555 0.015936235 -0.05251464 -0.0038429135 -0.11104186 -0.03170805 -0.07209816 0.016426437 0.04513012 -0.13065003 -0.10184969 -0.04258086 0.057594698 -0.019680966 -0.17095256 -0.03725146 -0.013836691 0.08526471 -0.0166263 0.0038128635 0.077888004 0.1132512 0.040082913 0.12350264 -0.09942974 -0.020512478 -0.03940271 -0.06509923 0.042654704 0.04177516 -0.06456161 0.12425727 0.069423296 0.28916985 0.03748824 0.04331069 0.17208329 -0.03307724 0.028952843 0.08774693 0.20119302 0.23101231 0.06781326 0.038526814 -0.06423187 -0.14313847 -0.043533538 -0.16083099 -0.14432408 -0.005568223 0.040606435 0.05236275 0.067587264 0.15433586 0.014646275 0.01535335 -0.18849672 0.056995444 -0.076690316 0.044584043 0.011480995 0.0681096 0.049592175 -0.026543286 0.24926396 -0.008922488 0.048035394 -0.021319047 0.17033873 -0.051321086 0.10338055 0.07580256 0.02663389 -0.07575552 -0.11889385 0.071656786 -0.020109266 -0.018239433 0.123465545 -0.051286146 0.10458215 0.12829643 0.09465466 -0.021588294 -0.025658427 0.025428504 -0.12017064 0.06631779 0.2636869 0.08179461 0.09998411 0.057190347 0.00075037096 -0.09318902 -0.06319077 0.015492589 0.080548115 -0.072864234 -0.01534105 0.09831907 0.13202995 0.10114562 -0.15596576 0.06610923 -0.21546426 -0.14875689 0.23864132 -0.061434038 -0.2576437 0.020420745 -0.03451397 0.096451625 -0.03888935 -0.19567877 -0.004987894 -0.0014582931 -0.11490402 0.08359447 -0.11298567 -0.08511934 0.09811562 -0.028865865 0.13574852 0.07561212 0.049895473 -0.00010392208 -0.13219874 -0.0496702 -0.080097556 -0.009212121 0.12548085 0.20395324 0.058128793 -0.011682834 -0.09106662 0.023433015 -0.11781804 0.17312923 0.103286244 -0.016825926 0.09837689 -0.013149284 0.002812396 0.013874024 -0.022376042 0.035023913 0.15261897
48 0.03111966 -0.13111831 -0.09773279 -0.037396584 0.06493677 0.0359131 0.028034981 0.12818594 0.042149104 -0.07717011 0.053905327 0.05828688 -0.07729943 -0.0025232448 0.03702713 -0.10799356 -0.024445262 -0.058278188 -0.07494707 -0.011109262 0.18044895 -0.005834823 0.11880654 0.09694768 -0.027620336 -0.08671843 -0.21496694 -0.027728232 -0.105206795 -0.04861067 -0.0055304156 -0.042938437 -0.04600081 0.053315494 -0.04189968 -0.056026347 -0.010552869 -0.037286896 -0.09416811 -0.09481625 -0.16874883 0.09803216 0.07453109 0.10126377 -0.006259685 0.14256021 0.04290829 -0.06187919 -0.021604 0.020652778 -0.0135242045 0.047698848 0.037326638 0.074718066 -0.12732676 -0.100525096 0.022460066 0.04040294 -0.0064263754 -0.0022780418 -0.011276475 0.116465785 -0.05982825 0.002883269 -0.020860331 0.010571304 -0.11212647 0.012315728 0.012423219 -0.039735448 -0.08622368 -0.005276019 0.14232853 -0.13287583 -0.046908878 -0.066298544 0.06620655 -0.100696154 -0.07311071 -0.018917339 -0.073573604 -0.040387444 -0.061202306 0.04759458 -0.11797001 0.048911113 0.046383504 -0.102689184 -0.11511809 0.0374418 0.018735982 -0.007364336 0.009249821 -0.055982623 -0.078014255 0.09363029 -0.026340755 -0.16108072 0.08369402 0.041470442 0.008388648 -0.070839666 0.04223163 -0.12782922 0.07135869 0.008350455 0.24507014 0.06620205 -0.1141278 0.044617362 0.014274119 -0.041140437 0.004984883 -0.08665909 -0.025513237 -0.05883192 0.0195034 0.029095862 -0.10559113 -0.07182406 -0.028883947 0.051437277 -0.00956167 -0.12295351 -0.031146957 -0.012058833 0.067931816 -0.018556789 0.0015623904 0.060199756 0.08943699 0.0329339 0.08519842 -0.079583526 -0.02142528 -0.030768817 -0.049253345 0.028724087 0.033287466 -0.053574722 0.08475174 0.05320847 0.21063212 0.026937138 0.035948496 0.13014945 -0.019340573 0.015808744 0.05991084 0.14466417 0.16632181 0.056869447 0.03605245 -0.05444942 -0.101721846 -0.03666775 -0.115408465 -0.11367756 -0.0059326845 0.02647249 0.04008694 0.056750275 0.114531785 0.015109143 0.012377628 -0.13959187 0.0506025 -0.048449922 0.018920869 0.004954076 0.061389744 0.031023249 -0.01765843 0.18621877 -0.002091881 0.037760288 -0.016211499 0.13032633 -0.044237714 0.07612175 0.056887615 0.017157666 -0.056421775 -0.087455094 0.062697336 -0.004888721 -0.0075630294 0.09878385 -0.044288777 0.080909565 0.09926369 0.0756313 -0.01019048 -0.02217106 0.019292742 -0.10294258 0.053738978 0.19846044 0.06149404 0.08346333 0.045283336 0.00039343606 -0.07497117 -0.043232266 0.0140800215 0.061964653 -0.047435846 -0.019040197 0.07304471 0.09461886 0.07846069 -0.10515488 0.043265678 -0.16793673 -0.11699519 0.19070362 -0.051555708 -0.19533974 0.020162221 -0.020092845 0.07339072 -0.02116265 -0.1476502 -0.00037751778 0.0035586488 -0.08907026 0.06918244 -0.087142326 -0.0669336 0.08372458 -0.023787696 0.101758346 0.05480415 0.035603967 -0.008960681 -0.091101 -0.0445239 -0.05836729 -0.004740484 0.08711568 0.15920226 0.053573456 -0.009992228 -0.076927505 0.017621975 -0.09498552 0.12977727 0.08093348 -0.003877723 0.07754221 -0.016364 -0.001271491 0.014309442 -0.0070265396 0.033645593 0.10749081
30 0.032175515 -0.18598735 -0.13476913 -0.04584569 0.09255598 0.050632436 0.051344115 0.18128966 0.055568077 -0.11131053 0.07164747 0.0807708 -0.12153346 -0.00960839 0.054240517 -0.16162786 -0.035947397 -0.095943965 -0.12000827 -0.022459649 0.2520945 -0.008387424 0.17689209 0.14251904 -0.032341957 -0.13202529 -0.29978156 -0.033072464 -0.15098083 -0.06595397 -0.017856076 -0.055690613 -0.070153035 0.06969195 -0.063595995 -0.076680735 0.0009354026 -0.04632558 -0.1335468 -0.14597349 -0.24114496 0.1432492 0.116124205 0.1514897 -0.014202173 0.19986886 0.070519604 -0.08232204 -0.043854315 0.043139134 -0.009082783 0.07080328 0.04880562 0.0969721 -0.17763545 -0.15488476 0.026026012 0.05760051 -0.01944015 -0.0052108006 -0.010632552 0.14856161 -0.08343384 0.010339502 -0.022990657 0.0063782614 -0.1578203 0.026849665 0.01657333 -0.06996656 -0.10447243 -0.011286949 0.2008945 -0.1879155 -0.05532118 -0.101311885 0.107699424 -0.14023791 -0.104660034 -0.021351943 -0.098658845 -0.061826322 -0.090730615 0.056059957 -0.16158855 0.09027968 0.06258936 -0.13811836 -0.16481718 0.049126524 0.024640799 -0.0048836563 0.011137733 -0.075671725 -0.11512804 0.1453248 -0.039390467 -0.22162072 0.11769095 0.051800877 0.018371187 -0.09009922 0.053751156 -0.19023107 0.10173367 0.0076727457 0.35349762 0.09255147 -0.14625685 0.062875524 0.016828673 -0.0566977 -0.00865745 -0.12155916 -0.032484427 -0.07711548 0.01284874 0.05032704 -0.14183016 -0.10480394 -0.047449958 0.06258561 -0.0200673 -0.17997853 -0.038086772 -0.0145672215 0.09479834 -0.013144679 0.0018768302 0.08471281 0.12287489 0.04090236 0.13522987 -0.10378653 -0.020514669 -0.04005132 -0.06809772 0.05097703 0.048633557 -0.0712895 0.13471815 0.07131275 0.30693972 0.03915728 0.046888422 0.18481152 -0.038902383 0.02856004 0.09563591 0.2143853 0.2494517 0.07195092 0.040708683 -0.068476506 -0.15472092 -0.0507229 -0.17179534 -0.15583631 -0.0074248454 0.04083776 0.054840688 0.070830815 0.16290039 0.016909234 0.01469007 -0.20362732 0.060358647 -0.081673026 0.047712073 0.015615337 0.073245935 0.049684275 -0.027005738 0.2616123 -0.009172916 0.047535904 -0.025726737 0.18286443 -0.057778858 0.11203791 0.0806531 0.029027808 -0.08257933 -0.125542 0.07724163 -0.022164835 -0.020441093 0.13137734 -0.059143372 0.1146934 0.13775805 0.10049109 -0.02119275 -0.023682296 0.02571819 -0.12500608 0.069707006 0.2796723 0.08821984 0.10878398 0.06400027 -0.0018395622 -0.0971701 -0.0737468 0.013097362 0.08702101 -0.0752424 -0.014751437 0.10266423 0.14153251 0.10547044 -0.16669083 0.0684031 -0.22830038 -0.15855466 0.25355563 -0.06156088 -0.27200755 0.016826551 -0.03342706 0.10268921 -0.041431908 -0.20571685 -0.007542813 -0.0016384696 -0.123828195 0.090162665 -0.11849495 -0.0904932 0.106391884 -0.030867744 0.147712 0.07867162 0.05337651 -0.0010920487 -0.14182214 -0.049805272 -0.08309921 -0.010632993 0.1312565 0.21691416 0.060233314 -0.0145465825 -0.09408421 0.02155033 -0.12292497 0.18427391 0.113366656 -0.01817127 0.10466867 -0.014580509 0.0033590496 0.0128965005 -0.028358605 0.03753348 0.16488464
43 0.032468475 -0.14728145 -0.11087643 -0.04263154 0.07719648 0.03835914 0.035063032 0.14777738 0.04843232 -0.086856395 0.06378632 0.06547697 -0.09245334 -0.004549264 0.043803718 -0.12208303 -0.029763326 -0.06684698 -0.089396976 -0.016720295 0.20475326 -0.0060776155 0.13827789 0.11015581 -0.032010913 -0.09817688 -0.24126586 -0.027766373 -0.117749654 -0.053423677 -0.0068840883 -0.044612627 -0.054271802 0.061429687 -0.04322851 -0.06157713 -0.012204587 -0.04017753 -0.103689246 -0.108617246 -0.18757023 0.11393047 0.08538161 0.1149953 -0.011398066 0.15882427 0.051495183 -0.06888435 -0.024653548 0.02572873 -0.0147835445 0.054311194 0.041431427 0.08415269 -0.14428832 -0.117602 0.02886744 0.04424494 -0.009548096 -0.0032596032 -0.013444473 0.13094302 -0.07010415 0.004450004 -0.024816133 0.010117122 -0.12368548 0.01406801 0.012893506 -0.04440241 -0.09258309 -0.002764229 0.16384855 -0.15370753 -0.05383336 -0.07857779 0.078875735 -0.115247466 -0.08542653 -0.021345953 -0.08238902 -0.04478779 -0.07029844 0.05416443 -0.13531053 0.058574777 0.053681325 -0.11549895 -0.13123423 0.040649276 0.022368226 -0.007857367 0.01325219 -0.06256282 -0.091024205 0.1098026 -0.030330544 -0.18150666 0.09326232 0.045658916 0.011534718 -0.07594326 0.045928955 -0.14513716 0.08452621 0.0067773336 0.28213766 0.072495565 -0.12259801 0.050275195 0.017227916 -0.0442239 0.0021883433 -0.09651954 -0.02862832 -0.06686013 0.018556783 0.032893997 -0.117902845 -0.08085646 -0.033009883 0.056019664 -0.013057432 -0.14042813 -0.034169815 -0.014481966 0.07578629 -0.01943667 0.004856397 0.06679521 0.101700075 0.035811976 0.097865485 -0.08870269 -0.02517248 -0.03410237 -0.057323396 0.03198924 0.037516296 -0.059995882 0.09826436 0.061731588 0.24366081 0.028797882 0.039528262 0.14732768 -0.022481894 0.022091212 0.071986265 0.16596124 0.1914181 0.06412263 0.04147732 -0.061119907 -0.117574394 -0.04323704 -0.13182992 -0.12884955 -0.0072640115 0.030372918 0.043953344 0.064818144 0.1290966 0.01608891 0.015018626 -0.15735295 0.056503814 -0.060756054 0.026391579 0.0067580477 0.06501502 0.034701996 -0.023540914 0.21381369 -0.004608796 0.039873574 -0.020882664 0.14622052 -0.04749924 0.08927535 0.06293794 0.018830074 -0.06511405 -0.09843362 0.06844211 -0.009158731 -0.011177506 0.11372299 -0.04895729 0.0927581 0.11334804 0.08583685 -0.012575948 -0.023285877 0.017915996 -0.113890566 0.06221553 0.22480948 0.067534715 0.09230093 0.047668364 0.0002133123 -0.08585279 -0.050872944 0.014217915 0.07130751 -0.052769653 -0.018752486 0.08262741 0.10738066 0.0884087 -0.12498293 0.053387325 -0.1867108 -0.13207537 0.21196464 -0.05885444 -0.21831656 0.021562504 -0.024994526 0.08175379 -0.025192048 -0.16662076 -0.0027115732 0.006446904 -0.09709889 0.075121164 -0.09841145 -0.077648856 0.09126419 -0.028772179 0.11292014 0.061985515 0.03875456 -0.011369011 -0.10410204 -0.049218513 -0.062350594 -0.005641106 0.09912213 0.18053122 0.058485433 -0.010474111 -0.08643556 0.021461185 -0.10519976 0.14750136 0.090443164 -0.009415316 0.08871594 -0.019336615 -0.00059226685 0.018990235 -0.00934524 0.038046323 0.12311107
41 0.033785664 -0.18241246 -0.13196497 -0.049009673 0.094593935 0.04907499 0.04604296 0.17902713 0.056951735 -0.11042657 0.07494305 0.0801739 -0.11648401 -0.0064677754 0.053339403 -0.1512547 -0.034753807 -0.08821471 -0.11043295 -0.021004697 0.24758315 -0.008945086 0.16822377 0.13963597 -0.033946674 -0.124652036 -0.29764554 -0.03289351 -0.1445575 -0.06619915 -0.014823887 -0.053840023 -0.07029418 0.07195267 -0.05866157 -0.0760011 -0.005644493 -0.049287215 -0.13255583 -0.13770702 -0.23326333 0.13773835 0.10833198 0.14239323 -0.011944092 0.19646998 0.06649971 -0.07905779 -0.03628363 0.036202233 -0.012653532 0.06519749 0.047271434 0.0982655 -0.17379376 -0.14928298 0.031352926 0.056774437 -0.014829583 -0.0060795466 -0.013868784 0.154271 -0.083516195 0.008152854 -0.025838321 0.011287198 -0.15541193 0.02283995 0.015954372 -0.06080327 -0.10834127 -0.010290969 0.19927233 -0.18493436 -0.060918868 -0.09751397 0.10257855 -0.14010078 -0.102452345 -0.02319889 -0.09805708 -0.059054036 -0.08756704 0.059842713 -0.15982683 0.07802694 0.06350614 -0.13965237 -0.16076972 0.04746876 0.022660565 -0.0069475383 0.0123583535 -0.07814434 -0.11495404 0.1390705 -0.038160533 -0.21863456 0.115613885 0.05538916 0.011776794 -0.09340503 0.05734767 -0.18216717 0.10292695 0.010052428 0.3442911 0.0891086 -0.14901862 0.06365915 0.019806696 -0.05476086 -0.0031959042 -0.11955244 -0.03523332 -0.07861924 0.017517943 0.04632368 -0.14126591 -0.10301224 -0.045140896 0.06423125 -0.01789343 -0.1737279 -0.041700266 -0.017040951 0.09291169 -0.02018354 0.00022858038 0.08056068 0.12179095 0.045552786 0.12449831 -0.102918066 -0.02362694 -0.04149411 -0.069363 0.04542918 0.04755607 -0.07234099 0.12594858 0.07226292 0.30123872 0.039540038 0.047273878 0.18351683 -0.03464645 0.027627217 0.09138738 0.20712064 0.23910227 0.07118936 0.046733413 -0.07358411 -0.14855844 -0.048022803 -0.16616258 -0.15331198 -0.008720531 0.039563682 0.053946815 0.07214768 0.16127057 0.016763346 0.01830131 -0.19507064 0.06334619 -0.07689636 0.03896916 0.010787941 0.07606877 0.04528276 -0.026143858 0.2585893 -0.006918043 0.04881563 -0.02140741 0.17951794 -0.05506263 0.10717381 0.08009975 0.024109319 -0.079517215 -0.12145609 0.07991982 -0.0156629 -0.015910799 0.13331276 -0.055512104 0.111986265 0.13553599 0.10274277 -0.018450003 -0.02712854 0.027266927 -0.1294102 0.074188 0.2778523 0.08388507 0.107861936 0.059973866 0.0017886073 -0.099479206 -0.06408052 0.016581822 0.08776874 -0.0708508 -0.020189285 0.09964145 0.13257523 0.10653882 -0.15549858 0.06412031 -0.22643216 -0.1585494 0.25666976 -0.065712415 -0.27026632 0.021993255 -0.034035612 0.10317781 -0.036118425 -0.20238027 -0.008479444 0.0008280921 -0.12235843 0.09111892 -0.11773004 -0.09320705 0.1096045 -0.029219307 0.1435167 0.077550165 0.04704016 -0.0042386223 -0.13307266 -0.05514725 -0.081607364 -0.008265525 0.12974043 0.21919261 0.06709989 -0.011509457 -0.100165196 0.025266906 -0.12491014 0.18181501 0.10879734 -0.012977075 0.10534132 -0.01848039 -0.0010916629 0.015574895 -0.019662516 0.04128358 0.15445204
13 0.039853815 -0.18435845 -0.1351607 -0.05274849 0.093872696 0.049536232 0.044701498 0.18167426 0.058541685 -0.10783304 0.07560696 0.079425775 -0.11466348 -0.008018868 0.054275364 -0.15471792 -0.036666762 -0.08875487 -0.112252444 -0.023927886 0.2548815 -0.007258908 0.16995516 0.1416088 -0.038580768 -0.12639372 -0.29845795 -0.033686552 -0.1466792 -0.06735767 -0.014475638 -0.055713747 -0.06938878 0.07121617 -0.05732648 -0.079462856 -0.007286375 -0.048035145 -0.1323895 -0.13943303 -0.2370728 0.14120357 0.10809473 0.14647754 -0.012159463 0.20033762 0.06571904 -0.08274242 -0.035368074 0.03814579 -0.016909456 0.068087086 0.0507384 0.10453438 -0.17967683 -0.15025093 0.030106604 0.054162994 -0.01156288 -0.0050605037 -0.013644078 0.15821815 -0.087503955 0.0036526655 -0.026468258 0.010190013 -0.15729766 0.020913698 0.016587751 -0.062908806 -0.11523554 -0.008747038 0.20186792 -0.19098201 -0.062018618 -0.09946449 0.10070486 -0.14328186 -0.10669006 -0.028006656 -0.10153151 -0.060081497 -0.0883279 0.062277596 -0.1675671 0.07866461 0.06690529 -0.14402084 -0.16492137 0.05198811 0.026532177 -0.009890229 0.011657986 -0.08040148 -0.11396439 0.13781229 -0.0373187 -0.22761886 0.1150981 0.05414101 0.014922803 -0.094437525 0.05720778 -0.1826649 0.10220122 0.007210876 0.35096267 0.089766085 -0.15157834 0.062352605 0.022778178 -0.05485475 -7.2858464e-05 -0.11882446 -0.035110366 -0.081449665 0.020125605 0.046770923 -0.14506553 -0.104082294 -0.04339433 0.07093449 -0.015332073 -0.17710586 -0.04287405 -0.015390314 0.0943495 -0.018318709 0.0010816122 0.08300088 0.12199554 0.044328168 0.12520081 -0.10802089 -0.027979143 -0.04448176 -0.07049123 0.044698384 0.047006186 -0.073160835 0.12381008 0.073495835 0.30470136 0.036910366 0.04597633 0.1837567 -0.03251056 0.029612677 0.090763435 0.20835176 0.23868738 0.07463906 0.04560165 -0.07683698 -0.14728893 -0.05111763 -0.16709155 -0.15922698 -0.010692458 0.039966345 0.05637716 0.07403739 0.16088478 0.015734624 0.016672518 -0.19996898 0.06579778 -0.07707049 0.034618888 0.013018466 0.07999547 0.04611596 -0.02692454 0.263787 -0.005786328 0.050001144 -0.022990223 0.17979547 -0.05774454 0.11129942 0.07830749 0.025879823 -0.0828767 -0.124771684 0.08268105 -0.013129468 -0.01594189 0.13979663 -0.05763408 0.11469176 0.13826743 0.10539726 -0.01707472 -0.029385144 0.02593446 -0.13357596 0.0769068 0.2798967 0.088278666 0.11252262 0.06268268 0.0014721607 -0.102341756 -0.0639502 0.015727164 0.08808963 -0.07184412 -0.020795139 0.101103336 0.13321988 0.1104026 -0.15862904 0.065980196 -0.2322273 -0.16273585 0.26100218 -0.066457376 -0.2714323 0.02338797 -0.03260109 0.1030401 -0.03509064 -0.20741437 -0.007387721 0.004144698 -0.12376486 0.09057882 -0.12169905 -0.0953053 0.11242278 -0.031699553 0.1437835 0.0771366 0.049237 -0.008370849 -0.1351221 -0.055100784 -0.08011334 -0.007869772 0.12845416 0.22013396 0.07175148 -0.010354964 -0.10257388 0.023271337 -0.12787667 0.18457545 0.112188846 -0.011169884 0.108862616 -0.018184567 -5.1000035e-05 0.017295359 -0.018853016 0.043333963 0.15556332
15 0.028884828 -0.16960445 -0.12073946 -0.047268912 0.08773664 0.047198944 0.043774705 0.16472854 0.051452257 -0.10219564 0.07054117 0.07277521 -0.10776216 -0.0066104117 0.050001737 -0.14450811 -0.03377184 -0.08502126 -0.10607942 -0.023522504 0.23205656 -0.0049318075 0.15814361 0.13128777 -0.0336776 -0.11712634 -0.27602577 -0.030842727 -0.13387163 -0.06238347 -0.015336673 -0.049928706 -0.06212624 0.06586766 -0.053912204 -0.072100475 -0.005788273 -0.043741696 -0.1188821 -0.1271292 -0.21952276 0.12849872 0.100539066 0.1345707 -0.011239212 0.18311282 0.059141833 -0.07589666 -0.035777986 0.03503376 -0.011564657 0.061667457 0.043501962 0.09348941 -0.16462213 -0.14136045 0.025266018 0.04903142 -0.014115347 -0.0017983038 -0.010847604 0.14347363 -0.07820536 0.0053243176 -0.023967065 0.0107694 -0.14114629 0.02202394 0.016213065 -0.056654707 -0.09922394 -0.009315107 0.18440343 -0.17453793 -0.05605411 -0.09128255 0.096246794 -0.1298421 -0.09774154 -0.025310848 -0.09097746 -0.052364346 -0.080587626 0.052530605 -0.15089332 0.07430498 0.05887031 -0.13138609 -0.14946583 0.046306774 0.022344017 -0.0046200715 0.0131653715 -0.07246626 -0.10773734 0.13078892 -0.034179706 -0.20211764 0.10826784 0.05097276 0.014330375 -0.08476352 0.049168203 -0.1678665 0.09582026 0.0070432704 0.32161915 0.08374219 -0.13515294 0.0555729 0.01837319 -0.050360303 -0.0031697585 -0.11125577 -0.03216646 -0.069251746 0.018597944 0.045711026 -0.13209066 -0.0939509 -0.03911208 0.057974156 -0.01516147 -0.16236947 -0.04055594 -0.014206441 0.08578985 -0.014560481 0.0025876726 0.07455062 0.11163994 0.040824965 0.1192847 -0.09796794 -0.02289144 -0.037858598 -0.06320697 0.04162399 0.040388662 -0.064935856 0.11949773 0.06642688 0.2810876 0.037073072 0.042006634 0.16532543 -0.034527615 0.02805322 0.086009614 0.19320619 0.22010589 0.06840601 0.04191681 -0.0657172 -0.13543098 -0.045060016 -0.15718243 -0.14295301 -0.0077692596 0.03720813 0.050487217 0.06858205 0.14987597 0.015532712 0.014311499 -0.18288131 0.059213966 -0.07477548 0.03788808 0.011940484 0.06737605 0.042975176 -0.025986169 0.24167018 -0.008149316 0.042916197 -0.023146218 0.1679258 -0.049170837 0.100351006 0.075169615 0.023521174 -0.07764315 -0.11235851 0.07172494 -0.016736357 -0.016898746 0.12180919 -0.05273814 0.1053255 0.12694146 0.094213404 -0.015940899 -0.022616902 0.022154458 -0.11879655 0.06886923 0.2569317 0.07881593 0.101059556 0.05815396 0.0010252281 -0.09071402 -0.06215926 0.011776909 0.07834492 -0.06831458 -0.015663562 0.094232626 0.123279154 0.09805487 -0.14780514 0.06214963 -0.212417 -0.14579597 0.23652142 -0.061687257 -0.24902892 0.016992988 -0.029934648 0.095275 -0.03433756 -0.18875946 -0.0076986104 0.00046169953 -0.11157017 0.08161883 -0.10752825 -0.08728563 0.09829432 -0.029933546 0.13380034 0.072911605 0.04863564 -0.0070616943 -0.12385748 -0.049470875 -0.07744352 -0.008861711 0.11805972 0.20257069 0.062591985 -0.012793729 -0.088861786 0.022325726 -0.114939496 0.16738436 0.10348672 -0.014286343 0.09808786 -0.016471693 -2.3620716e-05 0.014852795 -0.01732076 0.03765492 0.14538899
28 0.035484925 -0.19874483 -0.14163755 -0.053453613 0.10187567 0.054772582 0.049880274 0.19564652 0.059065137 -0.119228944 0.082394436 0.08747816 -0.12685761 -0.007268914 0.056428086 -0.16935137 -0.0384726 -0.099128656 -0.12123004 -0.024457376 0.2685251 -0.007206534 0.18563849 0.15282622 -0.03829963 -0.13570166 -0.32427415 -0.035739284 -0.15600859 -0.07195539 -0.016936252 -0.05893856 -0.07462542 0.07948055 -0.06315383 -0.08601603 -0.004647417 -0.051637977 -0.14169231 -0.14988703 -0.2570427 0.1498784 0.12006871 0.15973715 -0.015842218 0.21134198 0.06990422 -0.08906066 -0.04320018 0.041212082 -0.015184341 0.0717967 0.052875992 0.10804965 -0.18985187 -0.16342188 0.030962594 0.05909345 -0.01903026 -0.004116207 -0.01561884 0.16580176 -0.090887 0.008303154 -0.028238261 0.010114267 -0.16732924 0.028125748 0.015044384 -0.07033287 -0.11893985 -0.008626992 0.2146532 -0.20468305 -0.064771935 -0.10570496 0.11204978 -0.15183683 -0.11356752 -0.025979849 -0.106788225 -0.065280505 -0.09410157 0.06435868 -0.17592631 0.090937026 0.070367016 -0.15075655 -0.17557748 0.05355653 0.025109686 -0.0069686016 0.011212355 -0.0854238 -0.123299174 0.15118 -0.04099889 -0.23911318 0.12579782 0.056625817 0.014206306 -0.09783379 0.059170693 -0.19919015 0.111639746 0.011913716 0.3776483 0.09962808 -0.15867746 0.066239364 0.022034334 -0.057853304 -0.0039450745 -0.1291489 -0.035390016 -0.085030735 0.019144595 0.050850715 -0.15433452 -0.1132778 -0.04756683 0.070227206 -0.020406097 -0.1915232 -0.046069406 -0.018678553 0.1007248 -0.017791763 0.0029968184 0.088961594 0.13098682 0.048403095 0.13849714 -0.11534472 -0.027098669 -0.04769328 -0.07288645 0.047051717 0.04884803 -0.07581183 0.13899685 0.07902297 0.32975718 0.040433288 0.050023064 0.19855703 -0.038818363 0.030696645 0.10274167 0.22307912 0.26175618 0.07797367 0.047351513 -0.07698908 -0.16121921 -0.052664183 -0.18598217 -0.16826686 -0.009295245 0.043807264 0.058427285 0.07626822 0.17618121 0.016141405 0.018644053 -0.21302712 0.06872326 -0.08432628 0.045322422 0.012029624 0.08158192 0.052125536 -0.028063439 0.2851613 -0.007328435 0.051852427 -0.027036563 0.19601783 -0.0612443 0.11974867 0.08542834 0.028143113 -0.088243224 -0.13342074 0.086082615 -0.018687483 -0.016381396 0.14436536 -0.060815908 0.120847784 0.15182139 0.1085247 -0.02105791 -0.028886024 0.026560405 -0.13915764 0.079867154 0.30156913 0.0942666 0.11599399 0.068360746 0.0015610534 -0.10869561 -0.07222595 0.016636578 0.0929064 -0.08015096 -0.020371435 0.10954826 0.14536135 0.11723281 -0.17354977 0.071720526 -0.24791013 -0.17219493 0.2755923 -0.07253611 -0.29390657 0.020741671 -0.035509046 0.11252387 -0.04056256 -0.22106571 -0.008593592 0.00086101156 -0.13291469 0.09602184 -0.13026983 -0.10124238 0.11551376 -0.033775087 0.1550767 0.081905946 0.053482402 -0.0055537275 -0.14612411 -0.056340422 -0.08857347 -0.009549741 0.14055938 0.2383524 0.07268037 -0.011889593 -0.10639065 0.02479426 -0.13412853 0.19655567 0.121120304 -0.01690294 0.11802491 -0.018340215 0.00075730676 0.018243607 -0.024185345 0.044879716 0.17100903
42 0.02439747 -0.14173898 -0.104802005 -0.03992442 0.07587194 0.0381463 0.037277002 0.14390692 0.044718087 -0.08545574 0.059787724 0.06312867 -0.09419495 -0.004486807 0.04390885 -0.124078825 -0.029024541 -0.074114285 -0.08879388 -0.01859847 0.19758043 -0.006392519 0.13648506 0.11370551 -0.025340628 -0.1020797 -0.237104 -0.024572115 -0.11597004 -0.05044078 -0.012425952 -0.042358447 -0.05432919 0.0567177 -0.04691381 -0.06224087 -0.0016675506 -0.03980999 -0.10514351 -0.11198492 -0.18862385 0.11072657 0.08781611 0.11630951 -0.009176599 0.15665154 0.054302234 -0.06340251 -0.03232323 0.031734508 -0.0073567536 0.051667087 0.0377838 0.079254396 -0.14076233 -0.11998183 0.024757002 0.044192333 -0.016051603 -0.0051821237 -0.008786322 0.121515304 -0.06845363 0.006950028 -0.018562293 0.007862194 -0.12272517 0.020413404 0.01165337 -0.05115912 -0.08391982 -0.008286925 0.15854499 -0.14668038 -0.04436464 -0.077473715 0.081490025 -0.1091979 -0.08335719 -0.01731125 -0.07768323 -0.045737185 -0.070525154 0.04724575 -0.12707816 0.06793507 0.052345302 -0.11182509 -0.12843838 0.038867 0.018950718 -0.002337789 0.00763818 -0.062091704 -0.09292829 0.111369945 -0.030379612 -0.17674899 0.0935902 0.040256944 0.011688201 -0.07263903 0.04137323 -0.14671516 0.08150182 0.0050989646 0.2764154 0.07260215 -0.11416227 0.05035377 0.016842958 -0.04324238 -0.0025832963 -0.09291393 -0.028607728 -0.058724705 0.013596047 0.03838876 -0.11062785 -0.0826475 -0.034531116 0.050472118 -0.016083492 -0.13998489 -0.03252339 -0.014050588 0.07367212 -0.010868188 0.001214211 0.06317625 0.095162705 0.034536634 0.103498064 -0.08224144 -0.018952923 -0.03175257 -0.055372976 0.035447497 0.03617814 -0.054039355 0.10271808 0.05491557 0.24099623 0.031422462 0.03616264 0.14595333 -0.02911001 0.022378363 0.07358766 0.1662375 0.19342887 0.05503281 0.032609634 -0.055805452 -0.11638384 -0.03683068 -0.1325339 -0.12402942 -0.0070004673 0.03304762 0.041534692 0.05549935 0.1274764 0.011629027 0.014622328 -0.15746136 0.049843162 -0.06511936 0.035251256 0.008880158 0.056823988 0.04072079 -0.022027493 0.20673692 -0.008236104 0.038282674 -0.016890643 0.14175794 -0.04497915 0.08834346 0.06403282 0.018511847 -0.06407345 -0.09777006 0.060572088 -0.016567755 -0.012594029 0.103807904 -0.046507508 0.088037275 0.109683186 0.08085791 -0.015607671 -0.021682115 0.02033455 -0.09920198 0.05729433 0.22059585 0.06955868 0.085451886 0.049157377 0.0010389906 -0.07951185 -0.05414712 0.01298993 0.0682806 -0.058732547 -0.014150743 0.08095745 0.10797756 0.08317802 -0.12759708 0.054811187 -0.18155667 -0.1259082 0.20130946 -0.049475785 -0.2114367 0.013064839 -0.027835155 0.08231269 -0.029582629 -0.16209489 -0.0042938404 -0.00040945 -0.09411159 0.071795 -0.093309805 -0.07423597 0.08320357 -0.02174236 0.11546426 0.061330233 0.040257044 -0.001310989 -0.109203 -0.04154598 -0.06461158 -0.007278191 0.10220963 0.1730237 0.05131941 -0.009731106 -0.076939546 0.019393506 -0.097164266 0.14358836 0.088464454 -0.011963252 0.08612384 -0.012137868 0.0028554916 0.012843364 -0.019758083 0.030496014 0.12778786
25 0.029560136 -0.161102 -0.11812076 -0.044427957 0.08119217 0.04252088 0.038802672 0.15810817 0.051411446 -0.096458815 0.0660626 0.0688942 -0.10238621 -0.0052301586 0.046458755 -0.13827588 -0.029929673 -0.079823524 -0.09786914 -0.018740404 0.22121306 -0.006235536 0.1521109 0.12535363 -0.030210571 -0.11251166 -0.2611645 -0.030193195 -0.12968148 -0.057225443 -0.01204272 -0.04898238 -0.060881797 0.061839644 -0.052639447 -0.067663774 -0.0075012036 -0.041230354 -0.11673265 -0.12277426 -0.20952027 0.12416951 0.094938695 0.12644455 -0.01043221 0.1743905 0.058698773 -0.07062902 -0.031247173 0.0338751 -0.013578564 0.05946482 0.043305747 0.09002842 -0.15736938 -0.13250239 0.028213477 0.04703069 -0.013575383 -0.0017858422 -0.013649211 0.13739322 -0.07429451 0.0045076245 -0.025452778 0.0080670845 -0.1356237 0.021838961 0.011527204 -0.054440178 -0.096940376 -0.008930767 0.17670915 -0.16366476 -0.053673703 -0.08768262 0.0887621 -0.123451985 -0.08977517 -0.023483323 -0.08700061 -0.052411653 -0.07711259 0.051139764 -0.14338912 0.07085964 0.056866374 -0.12589087 -0.14438622 0.041263763 0.019062877 -0.00657797 0.012200187 -0.06962955 -0.10170183 0.12372756 -0.033034317 -0.19561628 0.10250427 0.047988888 0.010507533 -0.08048525 0.047921214 -0.1599192 0.090790845 0.0075387517 0.30578703 0.08040315 -0.12864502 0.054624043 0.016632324 -0.04733103 -0.0004581568 -0.10552651 -0.03115483 -0.068929136 0.018665237 0.040627476 -0.12581272 -0.09134905 -0.03798409 0.059947815 -0.01689015 -0.15730335 -0.03715917 -0.012045631 0.07948372 -0.015928399 0.0015035708 0.0707891 0.10877838 0.03817136 0.10932716 -0.09375827 -0.020506274 -0.036037628 -0.060076416 0.04028555 0.039584033 -0.063277945 0.11129242 0.06306118 0.26641268 0.034184366 0.041014757 0.16211829 -0.029450992 0.026064048 0.08353264 0.1828217 0.21191594 0.06504341 0.03797887 -0.06351961 -0.13088043 -0.045134515 -0.15027049 -0.13876377 -0.008163882 0.035772156 0.050218854 0.065248296 0.1394823 0.015582375 0.013535116 -0.17432182 0.056378216 -0.06959858 0.03652137 0.011162644 0.06482149 0.042812474 -0.023776248 0.23042761 -0.006641302 0.040297836 -0.019133443 0.15758342 -0.04826462 0.0954148 0.072371 0.02088042 -0.073298015 -0.1087767 0.07224228 -0.017178986 -0.0140165 0.11946931 -0.051947027 0.09753487 0.12182396 0.08768427 -0.015453569 -0.023490567 0.02356689 -0.11657793 0.065102786 0.24644834 0.07745638 0.09555341 0.054862283 0.0003993964 -0.08720488 -0.057680167 0.012991304 0.07488625 -0.062329136 -0.017162338 0.09070729 0.118444905 0.09695715 -0.13946612 0.059323847 -0.20266038 -0.14032802 0.22776666 -0.059481047 -0.23879634 0.01927811 -0.030656958 0.0919864 -0.032862835 -0.17825639 -0.0064342776 0.0025395167 -0.107258484 0.07771346 -0.10665053 -0.081231445 0.094341084 -0.024849035 0.12813039 0.066185005 0.04196569 -0.005975978 -0.11899412 -0.0487349 -0.07141309 -0.007323955 0.11204281 0.19059497 0.0590682 -0.012276137 -0.087930664 0.019951293 -0.10953941 0.1609732 0.096875675 -0.012198195 0.09725578 -0.0140136145 -0.0007495502 0.013181967 -0.01927369 0.036821358 0.1379291
6 0.026500024 -0.12846212 -0.09355637 -0.03329995 0.06604418 0.03504869 0.03192738 0.12849106 0.04002359 -0.07609362 0.053887185 0.055636756 -0.08148193 -0.0056796153 0.03840527 -0.107735395 -0.025073323 -0.06309529 -0.07683857 -0.01683433 0.17487746 -0.0061530406 0.11905805 0.09693632 -0.023299854 -0.0892174 -0.20786926 -0.025760045 -0.10189566 -0.044728246 -0.009223223 -0.041127227 -0.04717485 0.04989962 -0.03979777 -0.054060236 -0.0053589228 -0.032735493 -0.0941448 -0.0987233 -0.16619304 0.09931019 0.07759455 0.1000492 -0.010487189 0.13855559 0.046923295 -0.059267327 -0.02276112 0.02752734 -0.010248979 0.047539808 0.032580473 0.07133619 -0.12236006 -0.10507649 0.0220367 0.037677217 -0.008373928 -0.0043709627 -0.008511391 0.11040149 -0.05955109 0.0039801826 -0.019153515 0.0062871664 -0.10983541 0.016191652 0.009087153 -0.0442636 -0.07683156 -0.0062561235 0.13890892 -0.1296098 -0.041865785 -0.068136066 0.07178739 -0.09728256 -0.07302196 -0.017565535 -0.07195005 -0.03928964 -0.0603728 0.0437482 -0.112775624 0.053344045 0.04693023 -0.100182354 -0.11418436 0.03429989 0.017968455 -0.005027145 0.009936848 -0.053227298 -0.079956956 0.09764591 -0.025435934 -0.15823545 0.08216527 0.037179653 0.010749066 -0.06584575 0.039722968 -0.12703347 0.07011831 0.007873587 0.24248178 0.06523665 -0.10348833 0.043783672 0.015850483 -0.037065767 -0.00068826205 -0.08260441 -0.022953322 -0.05327452 0.015210874 0.030649733 -0.10070798 -0.072218984 -0.029964827 0.046314493 -0.010966963 -0.12589602 -0.030704064 -0.01114523 0.066511154 -0.015375655 0.0037301672 0.05697558 0.08524222 0.030394148 0.087343454 -0.07439136 -0.016951637 -0.030070318 -0.049284734 0.03127151 0.03293188 -0.050540224 0.086955085 0.050607305 0.21313116 0.026129676 0.033121344 0.12884028 -0.022886733 0.017810538 0.06557739 0.14367747 0.16582644 0.053462576 0.033531107 -0.052855246 -0.10230314 -0.03521581 -0.11725932 -0.10928684 -0.006541561 0.02715696 0.039503027 0.053820595 0.112244934 0.013547598 0.010701406 -0.13825426 0.043826155 -0.055198636 0.02643526 0.009578203 0.053549394 0.033993173 -0.017427776 0.18475123 -0.0040271548 0.033053074 -0.018449899 0.1250518 -0.04167402 0.077004105 0.056282178 0.017146425 -0.055389464 -0.08417775 0.057803098 -0.012259179 -0.00866584 0.09552655 -0.042234574 0.080673985 0.09790676 0.07198877 -0.010330133 -0.021375496 0.019406784 -0.09271048 0.05063758 0.196014 0.058422785 0.078622594 0.044532996 -0.00026996198 -0.07201846 -0.04631266 0.011496463 0.059135534 -0.048812177 -0.0138745 0.0722464 0.09388248 0.07570986 -0.109733984 0.047884017 -0.16108055 -0.11285529 0.17971541 -0.04847156 -0.19037026 0.013510415 -0.020859534 0.07224802 -0.026192833 -0.14269611 -0.003975307 0.0015271078 -0.08434688 0.065145 -0.08261537 -0.06614929 0.078781165 -0.022072846 0.10048775 0.054886214 0.03269589 -0.0044926214 -0.09450449 -0.038992655 -0.05531446 -0.005556226 0.08809478 0.15169135 0.04968314 -0.007398524 -0.072397396 0.016057396 -0.089093626 0.12708667 0.07622045 -0.009468931 0.075353876 -0.013313313 -4.7745867e-05 0.01250412 -0.0132382605 0.031800848 0.10694582
1 0.028791709 -0.1609454 -0.11384172 -0.044903163 0.08286345 0.040786244 0.03905857 0.15907972 0.050230633 -0.09501627 0.06459761 0.06875921 -0.100033164 -0.007331216 0.045102034 -0.13618156 -0.0292708 -0.07854081 -0.095645845 -0.021172857 0.21826966 -0.005835457 0.1492408 0.12325152 -0.030240916 -0.108950995 -0.25780773 -0.027338758 -0.12564598 -0.05864315 -0.014636085 -0.0477169 -0.060521837 0.06341436 -0.05112382 -0.0691446 -0.008041733 -0.043209396 -0.11240825 -0.12210975 -0.20674214 0.120008156 0.09584299 0.12760997 -0.011855198 0.16938703 0.05592773 -0.071372375 -0.030221948 0.03480833 -0.013252227 0.058922064 0.04118224 0.090402804 -0.15569784 -0.12995666 0.02622146 0.050359268 -0.014027572 -0.0022989688 -0.012000285 0.13334504 -0.07578374 0.005188308 -0.025022512 0.009578267 -0.13345532 0.021368131 0.011594533 -0.05385981 -0.09623617 -0.009370885 0.17565706 -0.1633887 -0.054326918 -0.08623316 0.091076136 -0.12435549 -0.088845536 -0.024404671 -0.08739784 -0.052412543 -0.07612569 0.05079269 -0.14238438 0.06871157 0.05574413 -0.123157725 -0.13970801 0.043010935 0.020467686 -0.006250731 0.010647518 -0.067811824 -0.10019515 0.12088098 -0.03317604 -0.19452824 0.102620795 0.047535107 0.010690602 -0.079343304 0.05022906 -0.15934217 0.0902615 0.010033193 0.30323666 0.07947209 -0.12994826 0.055226877 0.01665996 -0.048027396 -0.0005446084 -0.10179528 -0.029705765 -0.06892133 0.018873775 0.041448705 -0.12577072 -0.09049748 -0.038411614 0.05902836 -0.017525231 -0.15411173 -0.036768597 -0.014266017 0.08008843 -0.015561535 0.0030158062 0.07133625 0.107442155 0.03700713 0.10786389 -0.091169514 -0.022400038 -0.03568075 -0.05912178 0.037742447 0.038804725 -0.061683588 0.10895513 0.061367586 0.26452607 0.03177497 0.040501818 0.16015582 -0.028690351 0.026489861 0.08029845 0.17903584 0.20950772 0.062087655 0.039478634 -0.0618814 -0.12997597 -0.044124313 -0.14811364 -0.13662533 -0.009583167 0.03380008 0.048656188 0.06395001 0.13857664 0.013560887 0.013298132 -0.17288047 0.057066314 -0.06858524 0.035079386 0.008772828 0.06775148 0.03971734 -0.024240455 0.22864445 -0.006914307 0.041653708 -0.021171803 0.15738347 -0.048230976 0.09545928 0.07151919 0.020742344 -0.07238909 -0.10889465 0.06924519 -0.01632169 -0.0144606065 0.11702559 -0.051298946 0.096329994 0.12159083 0.088994235 -0.0150001785 -0.025444962 0.022006126 -0.11333291 0.064742796 0.24060225 0.07335023 0.09393949 0.05462276 0.0013643192 -0.0879496 -0.057331808 0.013095182 0.07766955 -0.06121348 -0.019541249 0.08721683 0.11747835 0.09365755 -0.13768841 0.055589806 -0.20007302 -0.13755937 0.22374967 -0.05860066 -0.2372657 0.01898241 -0.02945905 0.08989987 -0.0329345 -0.1800332 -0.0053805863 0.0030232184 -0.1051675 0.07880733 -0.103764415 -0.08226194 0.093140826 -0.024976462 0.1264355 0.06838289 0.0430523 -0.0049843322 -0.118133016 -0.048496768 -0.06997406 -0.010133433 0.11035209 0.19091146 0.0596593 -0.0113082 -0.088717856 0.021703076 -0.10817392 0.15903972 0.09672772 -0.010794779 0.09294468 -0.013980633 0.00069305446 0.016293274 -0.016496815 0.036060695 0.13770002
39 0.027818002 -0.16019529 -0.11686558 -0.04356447 0.08538868 0.04473259 0.0420522 0.16165325 0.048584126 -0.098213494 0.06551894 0.06915259 -0.1040176 -0.0077210297 0.04742852 -0.13968503 -0.032949824 -0.08055952 -0.1025765 -0.020298667 0.22214127 -0.0047326307 0.15453967 0.12723084 -0.03173932 -0.1118342 -0.26473385 -0.02742101 -0.1302791 -0.058920473 -0.013094836 -0.050419107 -0.062954694 0.06234971 -0.05089681 -0.06943649 -0.003408472 -0.042456813 -0.11764906 -0.12514405 -0.20948075 0.12467041 0.09800235 0.12816957 -0.011326827 0.17585887 0.060416695 -0.071203254 -0.0334028 0.03710264 -0.010816911 0.06018671 0.042292703 0.088459045 -0.1566786 -0.1331641 0.025194824 0.05090529 -0.012887854 -0.0034702762 -0.014033348 0.13780053 -0.0773318 0.005387525 -0.024494542 0.007675192 -0.13442227 0.024289617 0.014633005 -0.057247482 -0.09398238 -0.008087949 0.1757993 -0.16518377 -0.051057972 -0.08602637 0.09322345 -0.124990195 -0.089895494 -0.023252428 -0.085228994 -0.051522907 -0.07817066 0.0502741 -0.1425822 0.07456848 0.058833215 -0.12249498 -0.143858 0.044233356 0.019124508 -0.0039204285 0.011527742 -0.06806446 -0.103079565 0.12611161 -0.03358528 -0.19640449 0.102905154 0.04836825 0.011075723 -0.07918764 0.047930177 -0.16368814 0.092115775 0.0072557605 0.30694872 0.08165178 -0.12979896 0.05389183 0.016721636 -0.045731414 -0.0027563972 -0.105135165 -0.031022346 -0.06815496 0.015053453 0.04155689 -0.12744205 -0.09431596 -0.0395048 0.05703776 -0.015769921 -0.15895712 -0.034232825 -0.012108146 0.08187522 -0.0155282 0.0030000878 0.07199647 0.10746998 0.038390692 0.11274014 -0.09333697 -0.020211333 -0.038658597 -0.060714107 0.042075172 0.039549764 -0.061709765 0.1129961 0.062527 0.26844916 0.033984426 0.041679315 0.16416994 -0.030830035 0.026685841 0.082729965 0.18493493 0.21310794 0.063274466 0.038401883 -0.06232551 -0.1323864 -0.04453299 -0.14998645 -0.1375774 -0.007666506 0.037318464 0.047137823 0.064640276 0.14288855 0.013482488 0.016391639 -0.17501049 0.055751625 -0.071587466 0.037933357 0.010238396 0.06397416 0.04406256 -0.025651902 0.23015231 -0.007643669 0.04252429 -0.019078836 0.15827009 -0.04832282 0.09840694 0.073256865 0.021379774 -0.07290011 -0.10890254 0.06983837 -0.01971459 -0.014815654 0.12021656 -0.05173043 0.09964382 0.124053754 0.08751729 -0.018086195 -0.022224104 0.023705328 -0.1138654 0.065074526 0.24597548 0.077116854 0.09547819 0.05319105 0.0005643151 -0.085761055 -0.060673278 0.01168393 0.078566186 -0.064619645 -0.017266218 0.09202254 0.119943425 0.09701942 -0.14337055 0.05919255 -0.20424534 -0.14241552 0.22805066 -0.058403846 -0.24204463 0.016983856 -0.030074414 0.09262486 -0.031694565 -0.183381 -0.008226545 0.0032824366 -0.10744012 0.079939425 -0.10678813 -0.08419031 0.09364206 -0.02409751 0.12720014 0.0682124 0.043613866 -0.002930415 -0.12101667 -0.04537432 -0.072447844 -0.009258416 0.113652974 0.19484384 0.058093935 -0.0125974845 -0.087680936 0.021671744 -0.11076923 0.1613869 0.10035224 -0.013139762 0.09611588 -0.013938808 0.0005127187 0.012767802 -0.018306447 0.034537066 0.13920155
9 0.024792818 -0.11799464 -0.088771455 -0.033622574 0.060805947 0.03197201 0.027151942 0.11845129 0.038929153 -0.070270374 0.050201517 0.053144507 -0.07329078 -0.0059596715 0.033106264 -0.0994459 -0.023280017 -0.054112237 -0.07170736 -0.013275784 0.16048759 -0.002775453 0.11208041 0.088179 -0.024709808 -0.079024196 -0.19321243 -0.024539214 -0.09425052 -0.042137995 -0.007488628 -0.03545745 -0.045295753 0.046052713 -0.034405675 -0.05117019 -0.0057596974 -0.032095 -0.086269 -0.08659711 -0.15365666 0.08840991 0.069086306 0.094549865 -0.009109154 0.12580074 0.04067635 -0.055116422 -0.022049883 0.021208383 -0.011973741 0.042095467 0.03085788 0.066999175 -0.112444036 -0.09555273 0.019903285 0.035564587 -0.007801041 -0.0031158715 -0.010468419 0.10237462 -0.056807254 0.003099942 -0.01700136 0.0072762305 -0.09882089 0.013264007 0.0090804575 -0.03785675 -0.07314787 -0.003284683 0.13152304 -0.122907765 -0.03967024 -0.06340666 0.06322909 -0.08966655 -0.06863606 -0.016451813 -0.064616464 -0.03789395 -0.058383852 0.03886092 -0.106983125 0.04942048 0.04240705 -0.09279887 -0.105997704 0.03291541 0.016544681 -0.007307787 0.010192102 -0.04907044 -0.07366809 0.08653942 -0.023211997 -0.14436886 0.0748166 0.036097463 0.006823224 -0.062767975 0.036064833 -0.11623822 0.06656821 0.0060875383 0.22291715 0.060004473 -0.10025263 0.039431676 0.0148388855 -0.034941003 0.0030263157 -0.07791067 -0.021284146 -0.05286868 0.013319769 0.029943122 -0.094709314 -0.06425398 -0.02857052 0.044279464 -0.011860582 -0.11351982 -0.028474884 -0.008841646 0.060411382 -0.013069069 0.0026575967 0.053860728 0.08101508 0.029462416 0.079941496 -0.06877073 -0.01692321 -0.0271154 -0.045589928 0.026191358 0.028879402 -0.044912208 0.0805054 0.048620038 0.19539022 0.022364572 0.03186832 0.11570915 -0.021612512 0.016788282 0.059496336 0.13018683 0.15482496 0.05066506 0.0308847 -0.049465712 -0.09582332 -0.034616813 -0.10921692 -0.101997845 -0.006604316 0.023813315 0.036070097 0.050902754 0.10305479 0.010363559 0.010250051 -0.128846 0.0435346 -0.04711283 0.02302583 0.008989555 0.05309609 0.027257727 -0.015516358 0.16839436 -0.0023522694 0.029568823 -0.013776013 0.11538492 -0.03898869 0.07007461 0.050816752 0.014920374 -0.053493872 -0.07857602 0.05633839 -0.0075345915 -0.010064105 0.08932228 -0.038139723 0.07372338 0.08868033 0.06549433 -0.009131275 -0.017171998 0.016505165 -0.088132896 0.046741474 0.18104602 0.05480462 0.07085766 0.03963979 0.00088875217 -0.066057235 -0.0410129 0.012036894 0.056200583 -0.04401165 -0.017110221 0.06696265 0.08764078 0.07235026 -0.100546256 0.041963756 -0.15067352 -0.10539085 0.16853288 -0.043622427 -0.17554589 0.013899953 -0.020404564 0.06694826 -0.019443266 -0.1324445 -0.004206444 0.002459722 -0.07995312 0.060864672 -0.0771567 -0.059805915 0.072655566 -0.02225231 0.094169475 0.049422327 0.03328412 -0.0054852017 -0.08695127 -0.03866256 -0.053352326 -0.0043623857 0.08396786 0.14186132 0.047099855 -0.007374033 -0.06684097 0.014632793 -0.082058586 0.11893239 0.07219183 -0.008479359 0.07223017 -0.0111557385 -0.0017473144 0.011886557 -0.010398487 0.029393498 0.09854414
5 0.022177968 -0.1248439 -0.09103983 -0.033408932 0.06520133 0.032429803 0.03385494 0.12043233 0.039260812 -0.07577962 0.05192222 0.055197246 -0.081213795 -0.004707772 0.037741676 -0.107910655 -0.0251512 -0.0642925 -0.07817259 -0.0158079 0.16955775 -0.002519487 0.11467909 0.09796625 -0.022018896 -0.08734596 -0.20142123 -0.023972247 -0.099148445 -0.04561608 -0.012261128 -0.03762675 -0.04848991 0.048641413 -0.038417514 -0.054076992 -0.0018473478 -0.031889945 -0.08962348 -0.09463127 -0.1588104 0.09444819 0.0740015 0.09886195 -0.010298766 0.13273284 0.046072274 -0.055197224 -0.027050843 0.026622975 -0.0075181336 0.04688699 0.033499286 0.06640224 -0.11830714 -0.10379807 0.020973586 0.03712846 -0.01002783 -0.004973443 -0.009675765 0.101669945 -0.05672259 0.0061856224 -0.0191754 0.006203008 -0.102281496 0.01715283 0.010944071 -0.045132708 -0.073355675 -0.006782558 0.13340732 -0.1283162 -0.0385463 -0.0685002 0.06997465 -0.097412825 -0.07182913 -0.018619671 -0.06710791 -0.039613977 -0.05990496 0.03898128 -0.11016503 0.05489299 0.04486786 -0.09226687 -0.10838988 0.032933485 0.016282503 -0.0042098965 0.0081999935 -0.05120001 -0.0794697 0.09635903 -0.026817974 -0.15111051 0.080330186 0.037321948 0.008120811 -0.061330043 0.036854915 -0.12622854 0.067085676 0.005412723 0.23527941 0.06091108 -0.099546194 0.041940644 0.011972103 -0.03567437 -0.0021621832 -0.08131501 -0.023599029 -0.049722023 0.013897374 0.033180237 -0.093496144 -0.06994034 -0.030229846 0.044254392 -0.012778867 -0.12264381 -0.029230278 -0.009021512 0.061476044 -0.0085423505 0.0023622627 0.054633126 0.08061978 0.029121011 0.08713982 -0.07254833 -0.016871836 -0.02877312 -0.047911122 0.03213208 0.030490223 -0.047638897 0.08686695 0.049086217 0.20659877 0.028944965 0.02961544 0.122082576 -0.026598593 0.019581001 0.063979186 0.14171717 0.1632601 0.04746992 0.028362827 -0.050027784 -0.10262261 -0.031194821 -0.11491551 -0.106588595 -0.006982372 0.025357243 0.038928468 0.046517335 0.10741033 0.009608505 0.011510955 -0.13470627 0.04360989 -0.054740805 0.027951127 0.0077144224 0.04851184 0.034106378 -0.019109596 0.17859012 -0.0042579127 0.032208607 -0.015035824 0.12296009 -0.035964895 0.073690765 0.052649956 0.016837494 -0.056263484 -0.08447394 0.052397624 -0.015126118 -0.011263296 0.09084138 -0.036332756 0.07546525 0.0912349 0.06870832 -0.013924716 -0.01658073 0.016057922 -0.08619321 0.049132902 0.1892674 0.05736574 0.07279367 0.043099627 0.00031151567 -0.06569319 -0.044551738 0.009992246 0.059144426 -0.048959147 -0.011754109 0.06681624 0.09113132 0.07443563 -0.11090593 0.047553934 -0.15527865 -0.10760228 0.17170852 -0.042547368 -0.18078218 0.013821771 -0.022289436 0.07105328 -0.024513267 -0.1389179 -0.004143344 0.0033644072 -0.08358426 0.0606177 -0.081377536 -0.06463088 0.06985784 -0.019025553 0.09757528 0.053347383 0.035767626 -0.0040992396 -0.091779046 -0.033975124 -0.056904655 -0.0054271696 0.08641504 0.14780675 0.04279329 -0.009572109 -0.063370846 0.014257821 -0.08211974 0.12321553 0.07624202 -0.010646777 0.07454596 -0.009689456 -0.00020423056 0.011878447 -0.014016507 0.027828394 0.106353216
31 0.03003033 -0.16551283 -0.11819295 -0.043158486 0.085303776 0.042819597 0.043251824 0.16300763 0.048256822 -0.10023768 0.069311745 0.074487574 -0.10644165 -0.009314439 0.049144022 -0.1457721 -0.034356065 -0.084050305 -0.10406794 -0.022770789 0.22727597 -0.0063543865 0.1559617 0.13143484 -0.029488409 -0.11567524 -0.26999632 -0.027830245 -0.13285638 -0.060422067 -0.016650092 -0.048414607 -0.066522986 0.0665361 -0.052944105 -0.06953936 -0.0028913755 -0.04432082 -0.11867129 -0.13004172 -0.21639337 0.12903711 0.10229049 0.13337728 -0.013248327 0.17879127 0.061187726 -0.07565839 -0.037804645 0.03865926 -0.01089768 0.062571906 0.042936906 0.09091913 -0.16110036 -0.13986243 0.027130822 0.050466888 -0.018034425 -0.005746786 -0.010767293 0.13791274 -0.07977689 0.0051623257 -0.025147265 0.0068296036 -0.1419263 0.023219308 0.012560373 -0.06002764 -0.09712817 -0.0108040925 0.18162297 -0.17030317 -0.050934564 -0.09025196 0.098818645 -0.12983993 -0.09205164 -0.021405848 -0.0876056 -0.05469081 -0.0812428 0.051071763 -0.14612725 0.077689216 0.057151392 -0.12769379 -0.14758597 0.04259259 0.017786067 -0.0025994135 0.011332342 -0.07028216 -0.10785155 0.12999015 -0.035920672 -0.20206022 0.10586323 0.04965332 0.011287753 -0.08262402 0.050785985 -0.17027004 0.0918422 0.008803827 0.31734324 0.08371544 -0.13093695 0.057331976 0.016009206 -0.050323017 -0.0051676887 -0.109317996 -0.029464092 -0.06787264 0.013916394 0.046798445 -0.13020106 -0.09431127 -0.042180404 0.05686556 -0.019305179 -0.16517533 -0.037246983 -0.01229438 0.08225312 -0.013750676 0.0004726787 0.07511901 0.11012596 0.0391996 0.11677464 -0.09519139 -0.018938417 -0.036940422 -0.06358622 0.042655118 0.041124072 -0.06449788 0.11972252 0.06482476 0.27593157 0.037471637 0.04232344 0.16928937 -0.034730684 0.028217115 0.08527269 0.19251534 0.22083406 0.06411252 0.039300855 -0.06471755 -0.13818936 -0.044249795 -0.15792088 -0.140023 -0.0075456216 0.035122972 0.051381256 0.06420744 0.14723958 0.014857028 0.012997287 -0.1801519 0.056679823 -0.07491763 0.041499227 0.012889847 0.065008275 0.043624062 -0.025863856 0.23990184 -0.008376681 0.044287257 -0.021774875 0.16515876 -0.05052641 0.0989408 0.07450965 0.025114888 -0.074054025 -0.11272348 0.070565574 -0.01933628 -0.014869578 0.123628035 -0.051931363 0.10230252 0.12574422 0.0916188 -0.0162692 -0.024692006 0.024467157 -0.11375406 0.06484945 0.25415087 0.079864666 0.09726506 0.056355044 0.0018095482 -0.08979359 -0.06365732 0.013263953 0.08069676 -0.066149056 -0.016216205 0.093138285 0.12387142 0.09774761 -0.14900456 0.062259674 -0.20923465 -0.1439891 0.2302549 -0.057638947 -0.24855094 0.01767042 -0.03067116 0.09163256 -0.03722009 -0.18544996 -0.005476126 -5.7655736e-05 -0.10951068 0.08024751 -0.11045094 -0.08521625 0.096685484 -0.024698645 0.13361318 0.07032243 0.046660356 -0.003408874 -0.12518856 -0.04841151 -0.07431889 -0.008503415 0.11831108 0.19846235 0.057939634 -0.012422313 -0.086820856 0.019314915 -0.110713795 0.16709211 0.101644866 -0.015674785 0.10003845 -0.015590165 0.0004617543 0.012146971 -0.020612564 0.03736192 0.14625226
38 0.0327042 -0.16911604 -0.12056207 -0.04522741 0.0851592 0.044163704 0.04115056 0.16528022 0.052700408 -0.10235823 0.06855407 0.073242866 -0.10625952 -0.0078329 0.04730263 -0.14372765 -0.032813504 -0.08333873 -0.103766195 -0.022346865 0.22801892 -0.004925234 0.15914398 0.1298157 -0.03282739 -0.115931235 -0.27236518 -0.032109186 -0.13330777 -0.062084258 -0.015499783 -0.052727055 -0.06554143 0.06392185 -0.054926075 -0.07260656 -0.005361719 -0.04651876 -0.12195827 -0.12913889 -0.2182291 0.12819636 0.10283103 0.1358048 -0.013455334 0.18174082 0.06313494 -0.07719465 -0.034534752 0.035756923 -0.011624045 0.06017201 0.041743945 0.0922684 -0.16391364 -0.14060639 0.028788531 0.051692016 -0.01612808 -0.0029275042 -0.014655806 0.14075728 -0.07841675 0.0039271493 -0.023690445 0.009983623 -0.13949148 0.023780618 0.012350861 -0.05819442 -0.10122812 -0.009449042 0.18180518 -0.17345111 -0.056060534 -0.09021708 0.09807531 -0.12887123 -0.09466987 -0.023960192 -0.09011472 -0.054138225 -0.08016842 0.054373205 -0.15035541 0.07613105 0.06048079 -0.12998046 -0.14991303 0.04430693 0.020799087 -0.0067320378 0.009020279 -0.07033307 -0.108012006 0.12915441 -0.034793563 -0.20529845 0.10663624 0.049882654 0.013223891 -0.08371966 0.053675145 -0.17079492 0.091819905 0.007804806 0.31803015 0.08303658 -0.13542609 0.058885936 0.017547531 -0.04729407 -0.0016494743 -0.1096401 -0.031136636 -0.07175677 0.017260559 0.04380024 -0.13216327 -0.09429142 -0.040151853 0.05916557 -0.019157788 -0.16397497 -0.03904049 -0.012360332 0.08345687 -0.015093263 0.0024997606 0.07572528 0.11220355 0.042567067 0.11848397 -0.09752621 -0.020358665 -0.037916444 -0.06230631 0.04156327 0.0434734 -0.06631395 0.119806685 0.06505673 0.27757984 0.037874147 0.043936938 0.1680742 -0.032881223 0.026833424 0.08557629 0.19202015 0.22110976 0.064950794 0.04092022 -0.06581139 -0.13661835 -0.04378725 -0.15656614 -0.1427388 -0.009635207 0.03817281 0.053035755 0.064209275 0.1495108 0.015621478 0.014607776 -0.18176942 0.059027515 -0.07484274 0.038040407 0.010540606 0.066831924 0.044413462 -0.023970567 0.23971401 -0.004813259 0.041909903 -0.021115076 0.16715705 -0.051888306 0.10059591 0.07565908 0.024360104 -0.074483946 -0.11203406 0.07240109 -0.018206518 -0.016032677 0.123444594 -0.050681084 0.10291603 0.12603109 0.09078451 -0.016327104 -0.02584524 0.026049381 -0.116974324 0.06572181 0.2545467 0.08023486 0.1003473 0.055374224 0.002344833 -0.09000308 -0.06053033 0.012084564 0.07897568 -0.065411136 -0.01713615 0.093845725 0.12393518 0.098095864 -0.1488621 0.062397692 -0.20878664 -0.14565803 0.23360157 -0.06002795 -0.24954766 0.017087579 -0.030295942 0.09548844 -0.035075683 -0.18910018 -0.005180616 0.00093392015 -0.11141318 0.08156593 -0.10815453 -0.086502425 0.09704777 -0.02606859 0.1319381 0.07252498 0.04452204 -0.00425213 -0.12457449 -0.047586855 -0.0737112 -0.0079388935 0.12140044 0.20184147 0.060690872 -0.012363354 -0.088654734 0.021511577 -0.11550423 0.16987541 0.10050092 -0.014676465 0.10190694 -0.015089246 0.00090285524 0.013393528 -0.021913845 0.035711315 0.14641494
