50 256
27 0.20052707 -0.18540932 -0.24504513 -0.10357414 0.07178603 0.1022662 0.03626489 0.4152771 -0.09775946 0.041107755 0.04863458 -0.12173515 -0.2031085 0.21174808 -0.06860449 -0.09239168 0.24132511 -0.06994883 0.20042953 -0.22425815 0.091828 -0.0069587566 -0.017135534 0.18036048 0.13241194 -0.33686832 -0.39848703 0.20649928 -0.053920865 0.30705565 0.17169161 -0.2703815 -0.11298941 -0.031626172 0.099059455 -0.13666347 -0.1907165 -0.018370084 -0.1675714 -0.071786575 -0.16076376 0.05172392 0.039847597 0.029570013 0.036757402 0.11147779 0.25994533 -0.14364225 -0.031285394 0.04839347 0.090250164 0.04491022 -0.08996899 0.21878006 -0.13606164 -0.2440201 0.069879465 0.048997987 0.24436404 0.14922908 -0.24314521 0.45315775 -0.05111531 0.019826343 0.10398906 0.029954836 -0.2166101 0.2078572 -0.07786083 -0.0010768544 -0.2528567 0.31604218 0.0266289 -0.14316908 -0.35478678 -0.13452439 0.12742142 -0.08216011 -0.08162657 0.21297602 -0.21539485 0.036280967 -0.110401385 0.4084103 -0.17839721 -0.0001982912 0.30882907 -0.16643263 -0.43780118 0.031815402 -0.12300803 -0.24457641 -0.060686827 -0.04528351 -0.2324697 -0.07907417 0.04586426 -0.3108372 0.19564936 -0.09942181 -0.27822736 -0.07806015 0.073111765 -0.33586413 0.18458943 0.07002491 0.26649168 -0.18044606 -0.15370327 0.1258027 0.20967315 -0.03962097 -0.0109928 -0.21720102 0.06528415 -0.13629767 0.03118458 -0.03125961 -0.18649836 -0.0013592512 -0.08532304 0.31797615 0.16424756 -0.1395553 -0.32616267 -0.05437259 0.18243867 -0.10073858 -0.021758819 -0.14763626 0.17088002 0.13569592 0.17879501 -0.09668232 0.2329951 0.07586513 -0.009071845 -0.0792739 0.28533316 -0.046419676 -0.053700153 0.16166864 0.35846317 0.090716116 0.36073884 0.25073 0.28813952 0.030047705 0.09139343 0.0003512855 0.03434996 0.22849268 0.32405078 -0.2514605 0.101849824 0.30156645 -0.11008781 -0.18005396 0.08022041 0.16160846 0.23992108 0.018472893 0.23894294 0.36061716 -0.004640563 -0.119054094 0.018697467 0.030351808 0.025801051 -0.20799078 0.29756406 -0.07984167 -0.01007722 0.2178033 0.16306487 0.04484143 0.0011626713 0.16921268 -0.26087078 -0.024017662 -0.13858056 -0.015514981 -0.05589698 -0.06719182 0.18294631 0.25254673 -0.15138884 0.20903832 0.030404637 0.039651267 0.24711926 -0.007516981 0.27421242 -0.3656831 0.2321128 -0.23349144 0.006044303 0.24625574 0.053549208 0.085603565 -0.056168202 -0.023949541 -0.055885978 0.18373941 -0.047819223 -0.120858856 0.09819214 -0.19176944 0.11952913 0.082555294 0.3174746 0.106886 -0.05424079 -0.19975618 -0.4191253 0.28416935 -0.33084175 -0.18696599 -0.025699958 -0.08280866 0.051525302 0.018470408 -0.05593587 -0.07182421 0.0822018 -0.16912434 0.009982576 -0.120985754 -0.16357821 0.5022099 -0.18732087 0.24106726 0.105167024 -0.29053426 -0.30452275 -0.18797784 -0.09288172 0.32018325 0.06829497 0.017260833 0.22448322 0.1574911 0.05040597 -0.43493307 0.112962 -0.24113847 0.17444569 0.05927392 -0.045159895 0.19591735 -0.14339519 0.16359554 0.09222661 -0.04653882 0.17980681 -0.028772794
33 0.061371807 -0.12839401 -0.09018521 -0.037979882 0.070266426 0.033547975 0.033187114 0.25042796 -0.027892146 -0.03411453 0.03823918 0.021595407 -0.07947436 0.043506484 0.019886555 -0.10595221 0.004824455 -0.07597884 0.045480255 -0.0687981 0.15613592 -0.035103578 0.08423386 0.113305695 0.039462198 -0.1203119 -0.30880177 0.041652855 -0.06727828 0.113818176 0.08200633 -0.07724945 -0.062319554 0.017292665 0.007154977 -0.118153274 -0.0035794121 -0.043762974 -0.13424031 -0.07946382 -0.17039768 0.07535774 0.10353983 0.06749493 -0.026050735 0.13573709 0.077598765 -0.06790352 -0.08375656 0.02915951 0.02228848 0.05214692 0.002542544 0.07465343 -0.0956046 -0.15342918 0.027206812 0.05608567 0.02591173 0.0033099558 -0.036464974 0.16965684 0.0141686285 0.03707274 0.03706415 0.0038856745 -0.14783423 0.10394466 -0.015092524 -0.012753747 -0.11882258 0.12519015 0.046198685 -0.117612645 -0.10730101 -0.046752818 0.09207475 -0.068734325 -0.071715854 0.098164976 -0.0766307 -0.018411508 -0.037741844 0.14943773 -0.11069587 0.060745496 0.15627044 -0.07690524 -0.20078893 0.06895091 -0.002648581 -0.050450757 -0.051447827 -0.06224678 -0.12996452 0.025368571 0.008989235 -0.18690154 0.13431653 0.012573385 -0.087084845 -0.036191896 0.027107585 -0.1689164 0.098844275 0.04225927 0.24055083 0.028309079 -0.0504603 0.04799776 0.059474405 -0.008633105 -0.052192785 -0.119845346 -0.04185478 -0.09389538 -0.01870227 -0.02033281 -0.128865 -0.08781312 -0.0010392397 0.09135052 0.07083789 -0.16122097 -0.13499501 -0.051876098 0.114461444 -0.060235623 0.019778721 0.004854395 0.09158092 0.04759131 0.13391839 -0.13510741 0.05134972 -0.009418108 -0.063269675 -0.0022729388 0.100441344 -0.009801536 0.032387905 0.1120023 0.29864487 0.025214897 0.15313451 0.19539385 0.06446822 -0.0006633473 0.044014703 0.10795722 0.12797259 0.11401401 0.10936473 -0.094426006 -0.022420952 0.107076615 -0.108246446 -0.13747074 0.047473703 0.08926518 0.07463573 -0.0015156094 0.1930288 0.14754567 0.02033818 -0.07774028 0.0036885121 -0.047615148 0.10161995 -0.104231596 0.10503309 0.02378264 -0.023462571 0.24694806 0.021362936 0.06495878 -0.062719576 0.11127355 -0.09565206 0.026083633 -0.046347708 -0.0104083 -0.015741318 -0.041111164 0.077155486 0.054977316 -0.045743454 0.07779763 -0.0726515 0.060547188 0.16272509 0.061439604 0.033879142 -0.15984917 0.09866294 -0.105475545 0.03470552 0.22110172 0.05321839 0.055712935 0.01848749 -0.023089964 -0.10247269 0.01933853 0.02571818 -0.022942685 -0.03337855 -0.06518779 0.11718886 0.05071439 0.113911815 -0.04447876 0.045588426 -0.09742979 -0.21624559 0.14302213 -0.19483021 -0.19183137 0.02517309 0.010017985 0.09839315 -0.036726292 -0.12803142 -0.007348831 -0.022575203 -0.11175668 0.055691242 -0.1193616 -0.13299687 0.2632578 -0.07089808 0.10570443 0.062235035 -0.098633274 -0.050076067 -0.11520683 -0.040991064 0.088103436 0.06266239 0.034608718 0.14586389 0.083160244 0.030293902 -0.2016009 0.06676334 -0.14845806 0.10600436 0.054933358 -0.04107121 0.053087153 -0.053936645 0.06831839 0.071706206 -0.034793157 0.08598609 0.060925916
2 0.042983226 -0.14387435 -0.07397159 -0.034754325 0.08263716 0.027194561 0.042789664 0.26756406 -0.022417298 -0.05991854 0.040722817 0.063176036 -0.067292325 0.014736987 0.043620404 -0.13955307 -0.052378085 -0.0984942 0.019842777 -0.049025975 0.20755216 -0.04897129 0.12958084 0.12609266 0.02684795 -0.09608827 -0.3582944 0.011765568 -0.08854048 0.09163658 0.08090607 -0.051856555 -0.06663651 0.030162891 -0.010941191 -0.13705145 0.04350747 -0.062117007 -0.15439208 -0.10545148 -0.21242292 0.100213535 0.14352296 0.09444036 -0.047438204 0.17104532 0.052653104 -0.06237945 -0.11355061 0.03313889 0.013617231 0.0618882 0.02383631 0.0622847 -0.1064812 -0.1700202 0.025749775 0.07360172 -0.024993537 -0.033045452 0.0011320901 0.144226 0.034736324 0.04507987 0.024967257 0.0017981452 -0.17053194 0.10505566 -0.0075869835 -0.023055272 -0.11852237 0.10733277 0.0628303 -0.14177388 -0.0698026 -0.03863365 0.10629341 -0.08379029 -0.08772035 0.09254641 -0.064254604 -0.036513433 -0.028971666 0.123337135 -0.11898796 0.09127506 0.15748604 -0.07248601 -0.18756759 0.09215319 0.022085171 -0.015953545 -0.061959717 -0.080911785 -0.14027792 0.055194322 0.0046725166 -0.19989625 0.14667979 0.04433181 -0.05569767 -0.033437315 0.026283126 -0.17449012 0.09909378 0.04627251 0.2926051 0.08687057 -0.04058648 0.043822005 0.035110906 -0.0014343596 -0.07503213 -0.1214257 -0.08038598 -0.10655227 -0.0344649 -0.017015954 -0.14419687 -0.12828587 0.016544918 0.057867866 0.06275562 -0.21027744 -0.11993944 -0.059028015 0.12912205 -0.060759146 0.037854813 0.038838495 0.094819754 0.038113862 0.15942016 -0.17593023 0.0205305 -0.033575308 -0.09017341 0.013512007 0.08591743 -0.000751707 0.06022306 0.12129146 0.35334793 0.014621757 0.14392707 0.22613452 0.026906379 -0.0077927043 0.0461646 0.16131896 0.18086539 0.11014674 0.07964079 -0.077397116 -0.06145359 0.08396434 -0.1362006 -0.16095641 0.053113867 0.08928839 0.05028473 -0.006471693 0.22508991 0.13312323 0.029074024 -0.09123412 0.0047291433 -0.08095412 0.14416116 -0.1018195 0.08287229 0.06026947 -0.031604953 0.3131541 -0.0065941247 0.083734095 -0.08847483 0.1198275 -0.08198145 0.04648194 -0.035388276 -0.013458291 -0.00812969 -0.04574009 0.06705122 0.020442298 -0.034103625 0.06420898 -0.11736884 0.082738645 0.18173447 0.090337396 -0.02216269 -0.151265 0.089300126 -0.098931156 0.047937978 0.26808533 0.06374378 0.060740013 0.042283423 -0.026447203 -0.13419464 -0.018256951 0.04891785 -0.0004293873 -0.07109768 -0.04949193 0.14288369 0.059157647 0.08932729 -0.08830685 0.079917476 -0.09970266 -0.21655771 0.1409141 -0.2071489 -0.23883665 0.041603982 0.031928465 0.13272284 -0.055299874 -0.17394815 0.0052370327 -0.05357443 -0.12296166 0.07810342 -0.15201235 -0.15662265 0.26536274 -0.059091356 0.09988773 0.07054607 -0.076582775 0.004223556 -0.12373167 -0.035632923 0.054545827 0.074729174 0.047194965 0.16155608 0.083686374 0.032841172 -0.18892357 0.06940574 -0.15781733 0.116061844 0.06732016 -0.048620053 0.03478919 -0.045022268 0.0629488 0.0794451 -0.041597158 0.08556792 0.101587065
44 0.031639125 -0.11559793 -0.059203874 -0.02742057 0.06790472 0.021125471 0.03328248 0.21487603 -0.012982811 -0.050273094 0.034209162 0.05509317 -0.054714255 0.009262372 0.038799945 -0.111696936 -0.048350636 -0.083753504 0.013442824 -0.03460336 0.17000253 -0.039966494 0.104306914 0.10326538 0.023821853 -0.07365125 -0.29038945 0.006648553 -0.072141446 0.07055324 0.0638899 -0.03870558 -0.054329965 0.02336296 -0.010066269 -0.11402747 0.038175188 -0.048168246 -0.12709293 -0.08771734 -0.17664744 0.08324986 0.11755455 0.07818376 -0.03915362 0.14099261 0.03829096 -0.046914138 -0.09688444 0.026043411 0.007934115 0.05275359 0.020921493 0.04381616 -0.08312506 -0.13760471 0.020520749 0.057285823 -0.023272727 -0.03431774 0.0059255934 0.10955625 0.03205887 0.037641518 0.021068487 0.0016358909 -0.13994485 0.08673923 -0.0020155602 -0.016256822 -0.09147647 0.08368537 0.05007409 -0.11550557 -0.051707134 -0.028999636 0.083801 -0.06921644 -0.06969578 0.07595391 -0.048567463 -0.031986974 -0.020940337 0.09311325 -0.0977175 0.07171279 0.12709457 -0.056982376 -0.15222378 0.076967366 0.018590784 -0.009700832 -0.051665567 -0.06690794 -0.113305144 0.048436545 0.005140799 -0.15812846 0.11795053 0.03950744 -0.0428645 -0.023407422 0.020149184 -0.13677546 0.07994283 0.04125959 0.2380351 0.07439294 -0.03129939 0.033995304 0.02738385 -0.003324421 -0.066120885 -0.096301146 -0.06835556 -0.08482157 -0.031619802 -0.016107677 -0.11519441 -0.10737674 0.016974902 0.041439272 0.048115272 -0.1682501 -0.09325059 -0.05190985 0.10125184 -0.05138329 0.031908825 0.036153853 0.075460754 0.031439316 0.1270655 -0.14375518 0.013231648 -0.029369455 -0.0744095 0.014885818 0.06451962 0.0019595292 0.052519772 0.100703046 0.28609464 0.012602315 0.112731025 0.18542205 0.01584337 -0.009559364 0.03664084 0.13380419 0.1469449 0.08565145 0.061506238 -0.061435953 -0.05272521 0.06788254 -0.111797646 -0.12770474 0.0448246 0.07393127 0.038681462 -0.005941237 0.18482272 0.10270072 0.02196018 -0.07284901 0.0027889127 -0.065916836 0.12156849 -0.08299722 0.06762967 0.049727637 -0.028211582 0.25382435 -0.008308795 0.06931226 -0.07514446 0.09836509 -0.06105783 0.038745176 -0.028972285 -0.010981271 -0.004136487 -0.034248203 0.054013427 0.014279969 -0.028057666 0.045872144 -0.09652699 0.06634159 0.14529873 0.07453099 -0.024089321 -0.11886899 0.07367318 -0.075105004 0.041015565 0.2189249 0.05288553 0.049744837 0.032101776 -0.021458024 -0.110968195 -0.01672985 0.038327534 0.002294669 -0.06259517 -0.038633958 0.115749344 0.04780495 0.06532704 -0.074820854 0.06990838 -0.07728386 -0.16911462 0.10935506 -0.16578065 -0.19594435 0.037185047 0.029175285 0.10851577 -0.046899524 -0.14565365 0.0028904097 -0.04729854 -0.09810633 0.066726625 -0.12409535 -0.12940383 0.21330456 -0.043260075 0.07791328 0.057342757 -0.058550414 0.009289879 -0.09976203 -0.029067779 0.038932085 0.05994391 0.03902083 0.13098441 0.068190254 0.025412073 -0.15105493 0.05457146 -0.12660114 0.09257828 0.05195112 -0.037370473 0.026089607 -0.038471762 0.05044448 0.06629879 -0.037337594 0.0704502 0.08371084
16 -0.32178947 -0.21797077 0.27177745 0.07578401 0.16288452 -0.14470291 0.17843486 0.2073959 0.10833896 -0.34651104 -0.018617751 0.62329435 0.14086828 -0.35723305 0.4531118 -0.4957302 -0.8986256 -0.41894427 -0.4776671 0.21844977 0.7342614 -0.17933397 0.7002936 0.10995025 -0.13886757 0.38119355 -0.6644136 -0.44423375 -0.34186012 -0.42417556 -0.100096144 0.45911044 -0.044430304 0.09321254 -0.2210449 -0.26330975 0.7557948 -0.3035015 -0.3672062 -0.41580847 -0.66852224 0.4119318 0.6083981 0.3698482 -0.27591547 0.49025276 -0.30752468 0.1403962 -0.5254756 0.16143572 -0.06967197 0.21845666 0.3108619 -0.19001402 -0.10914908 -0.2199207 -0.07389259 0.26975605 -0.6890925 -0.6329617 0.6429713 -0.51611435 0.25663027 0.07692241 -0.13030742 -0.10626881 -0.28829938 0.082599215 0.12923822 -0.18631127 0.083288215 -0.35887304 0.23300107 -0.36765355 0.6271766 0.08396994 0.25886804 -0.2621919 -0.25793415 -0.07406672 0.3103946 -0.2901326 0.17121837 -0.46140093 -0.09809282 0.4957559 0.019119611 0.1512313 0.24463354 0.37490642 0.29805174 0.53062165 -0.2354389 -0.20090292 -0.069143444 0.47758442 0.0026886766 -0.21098344 0.16928186 0.3376444 0.5143238 0.078919515 0.04634368 -0.065931715 -0.041135143 0.020096162 0.651002 0.79773015 0.23778607 -0.042612873 -0.3787048 0.19877523 -0.4102611 0.04374375 -0.48989168 -0.11930361 -0.27051076 0.06902803 -0.18550406 -0.6483796 0.251244 -0.44981408 -0.15519097 -0.7063461 0.2886332 -0.07228185 0.16576914 0.057990823 0.18973593 0.5093243 -0.009778309 -0.19478194 0.38166603 -0.50625014 -0.4465874 -0.31152207 -0.3777399 0.33414394 -0.25690514 0.09076517 0.5108371 0.04460137 0.74158984 -0.027087178 -0.20852254 0.5150955 -0.60735244 -0.06320773 0.044616096 0.8065349 0.7733789 -0.10108353 -0.47465432 0.16186038 -0.5337679 -0.34086528 -0.42692718 -0.3374027 0.04112892 0.0021755807 -0.40778553 -0.14595927 0.36937034 -0.30179143 0.13739465 -0.1586888 0.06299325 -0.56606466 0.696763 0.08568063 -0.34963202 0.52762675 -0.07856172 0.9391278 -0.40491867 0.24331184 -0.38380802 0.09498392 0.19930813 0.316838 0.14479056 -0.011476689 0.039213262 -0.0748978 -0.18697171 -0.5564467 0.11761098 -0.16118217 -0.616227 0.27496347 0.18079402 0.3468823 -0.8353084 0.24578454 -0.046030916 0.16258386 0.0902853 0.69905126 0.17343645 0.0521914 0.3147746 -0.12904263 -0.43622372 -0.5980871 0.38025784 0.25484288 -0.5753296 0.2529383 0.36485294 0.12632032 -0.42529103 -0.668693 0.56910914 0.1012635 0.093649864 -0.06706697 -0.093153015 -0.5904448 0.15955573 0.28979895 0.4603444 -0.32257724 -0.6777077 0.16989145 -0.3764792 -0.097087264 0.27519163 -0.47118574 -0.4088142 -0.041205168 0.2802829 -0.061134122 0.10795046 0.32045516 0.7630527 -0.17546876 0.12454884 -0.45659533 0.1463987 0.20721191 0.11725871 -0.03425885 0.10259592 0.22853014 0.0018585267 -0.102714695 0.086741276 0.12196821 -0.16829906 -0.28538036 0.20210531 -0.06469334 0.061059047 -0.18354544 -0.022278115 0.59357226
23 0.020109821 -0.12878303 -0.051889848 -0.023453305 0.07847893 0.018542558 0.040792678 0.23575039 -0.0087746745 -0.069111735 0.03607746 0.08149632 -0.04877423 -0.009459724 0.0541526 -0.13486116 -0.084505074 -0.09707988 -0.0023694087 -0.023619344 0.20752063 -0.05280901 0.1359617 0.11356162 0.016212594 -0.061899308 -0.33500415 -0.014605883 -0.09160754 0.060497537 0.06368836 -0.020381425 -0.057041418 0.033568997 -0.023561949 -0.13214493 0.06983227 -0.06438122 -0.14750394 -0.10346292 -0.20912535 0.10017464 0.1488111 0.09820461 -0.05236863 0.1673897 0.026532674 -0.04585457 -0.11998379 0.030291472 0.0047405907 0.06232894 0.03661089 0.036749255 -0.094605625 -0.15403877 0.016155679 0.07055249 -0.053955045 -0.05858524 0.032112494 0.09686861 0.045139093 0.047573328 0.01735778 -0.0042160014 -0.1539756 0.091359295 0.004151232 -0.02189082 -0.09481109 0.076698944 0.064393565 -0.13306615 -0.033159446 -0.026595984 0.099307165 -0.07857973 -0.08154718 0.07584385 -0.03749283 -0.043863446 -0.013357253 0.08137116 -0.10705938 0.09680974 0.13022587 -0.05453225 -0.15086105 0.095091686 0.037190683 0.011997229 -0.062072072 -0.07849847 -0.12223281 0.06681967 0.002444395 -0.17590153 0.13250138 0.05901435 -0.027642908 -0.025714442 0.021680247 -0.14703728 0.08292557 0.04039744 0.2741211 0.10966052 -0.021673085 0.032202702 0.011256792 0.0019051714 -0.08201423 -0.1040123 -0.09318436 -0.09729382 -0.043414757 -0.014162649 -0.12867263 -0.13560595 0.02897325 0.026681155 0.044936188 -0.2058422 -0.08807306 -0.059058923 0.11435151 -0.052672606 0.03960906 0.062077157 0.07807506 0.023175592 0.14951792 -0.17445484 -0.0028945915 -0.040385734 -0.09410493 0.028431563 0.055539027 0.0073761474 0.072165266 0.108261 0.33315545 0.007486099 0.1095494 0.21306649 -0.005931417 -0.013298522 0.03967396 0.16866569 0.18602046 0.08853342 0.043775193 -0.053669013 -0.07675337 0.05613358 -0.13162853 -0.14756492 0.046585064 0.07697847 0.026831247 -0.0117676845 0.21312736 0.09942252 0.030183045 -0.08398007 0.005188107 -0.08873427 0.15237843 -0.08306808 0.05589961 0.070803754 -0.03472072 0.3065627 -0.024620386 0.08339737 -0.09444658 0.10758096 -0.056579236 0.05143148 -0.022106115 -0.010289057 -0.004806924 -0.038328856 0.049628742 -0.006968379 -0.02249674 0.041023638 -0.12847543 0.08286201 0.16265304 0.09631316 -0.0574036 -0.1171999 0.07221864 -0.07439269 0.050424494 0.2534251 0.059659794 0.051875483 0.04755885 -0.02672551 -0.13551906 -0.03933426 0.0538461 0.014289625 -0.08723434 -0.028422572 0.1397303 0.054292805 0.05663919 -0.10820729 0.092782035 -0.07755249 -0.17742805 0.11319538 -0.1775959 -0.2300734 0.047390804 0.04252803 0.13203795 -0.06587106 -0.17630272 0.012302099 -0.068687364 -0.108995326 0.0835248 -0.14702454 -0.14956866 0.22223856 -0.038630106 0.07717994 0.06451782 -0.04751457 0.03873857 -0.10866463 -0.026865613 0.020476902 0.069279686 0.047266107 0.14418113 0.069504976 0.029725553 -0.1507829 0.062458 -0.14017953 0.10076271 0.061460204 -0.04657973 0.010530331 -0.03418335 0.049240075 0.0716642 -0.042897556 0.0733638 0.11151676
11 0.014931509 -0.14743721 -0.04815593 -0.025244862 0.08950034 0.015092695 0.046747297 0.25966537 -0.009434079 -0.0799439 0.038797654 0.097792916 -0.05341197 -0.009619571 0.07027632 -0.15939967 -0.105967015 -0.11743691 -0.010929428 -0.029797606 0.23971671 -0.05812619 0.16382091 0.124702275 0.0147081055 -0.06365859 -0.37301642 -0.018351872 -0.104444474 0.055407133 0.068053596 -0.017166985 -0.060491152 0.03208326 -0.023092464 -0.14384064 0.08956042 -0.07178698 -0.16409248 -0.11919625 -0.23655438 0.117413364 0.17162849 0.11162877 -0.06279702 0.19152807 0.02773636 -0.047065828 -0.1388333 0.040335957 0.005999794 0.072852135 0.041680776 0.0405635 -0.103073075 -0.17127965 0.018298041 0.08283632 -0.07030876 -0.07066755 0.043685555 0.09646375 0.052367017 0.05152203 0.013167792 -0.004975529 -0.17655489 0.10035287 0.0055861175 -0.03333511 -0.102344185 0.077102214 0.0682792 -0.15450126 -0.021060543 -0.028846225 0.11185012 -0.0928857 -0.09912784 0.079171784 -0.038403314 -0.048739992 -0.014765757 0.081931435 -0.11994019 0.11268171 0.1474601 -0.057733055 -0.15714604 0.11085733 0.04060923 0.01661142 -0.06909924 -0.08514779 -0.12999524 0.07966692 0.0047063627 -0.19464433 0.14645132 0.065068975 -0.01867199 -0.021496579 0.02228019 -0.15941684 0.08903406 0.046247788 0.31198347 0.12970862 -0.01974336 0.03358731 0.009876933 0.010907471 -0.09770516 -0.1099758 -0.1055824 -0.10687341 -0.051631827 -0.012678869 -0.14435919 -0.15954651 0.034116242 0.020728631 0.049971845 -0.23759338 -0.09371954 -0.06398581 0.12525776 -0.053395517 0.04677928 0.07073503 0.08460556 0.021739556 0.165968 -0.19654042 -0.010972259 -0.050729312 -0.10345446 0.035100866 0.058891237 0.006354341 0.087665476 0.11762776 0.373656 0.010820516 0.116793245 0.23765782 -0.0134584 -0.010910306 0.041808806 0.19968544 0.21473788 0.09496641 0.03997001 -0.05718605 -0.09212418 0.05862072 -0.15133093 -0.16737708 0.053988338 0.08326129 0.021982552 -0.013718856 0.23528735 0.098684 0.033266287 -0.09084252 0.0081569 -0.109966606 0.17801335 -0.08725342 0.05540164 0.087037995 -0.03553583 0.34889427 -0.03138918 0.09322049 -0.11081843 0.11546263 -0.05709638 0.061168678 -0.02249434 -0.012142701 -0.002546455 -0.04521812 0.049099006 -0.016595898 -0.022385914 0.04423637 -0.1480566 0.09322533 0.18007232 0.106842235 -0.0744096 -0.11983522 0.077032134 -0.07797352 0.053789023 0.28924778 0.06781136 0.058034375 0.055986807 -0.031223051 -0.15310404 -0.056634218 0.06796054 0.014980342 -0.10209873 -0.025776772 0.15615161 0.059806764 0.05129711 -0.12730598 0.1086178 -0.0826402 -0.19072424 0.121684134 -0.19524738 -0.25745806 0.05084436 0.050311405 0.1525785 -0.07292152 -0.20461665 0.013895702 -0.07637698 -0.12090249 0.09327033 -0.16673127 -0.1685135 0.2406372 -0.039082915 0.08458387 0.06925395 -0.045764398 0.053485997 -0.12414338 -0.02515252 0.019475803 0.07459327 0.05746478 0.15504791 0.075143605 0.037809562 -0.15776868 0.06506409 -0.15452886 0.11229198 0.06889739 -0.051648706 0.012017279 -0.0315329 0.056596935 0.07920245 -0.051094316 0.07555735 0.13000147
32 0.02752313 -0.11825959 -0.05692674 -0.026419753 0.06742284 0.019833596 0.03845528 0.21342799 -0.016359959 -0.050935574 0.030490547 0.0592498 -0.05362511 0.009813403 0.042221986 -0.1158908 -0.053121664 -0.08752881 0.0063546654 -0.03707643 0.17402937 -0.0394329 0.10982047 0.10055078 0.020061905 -0.07172017 -0.2938961 0.0052673905 -0.075810686 0.0643946 0.06084356 -0.03410582 -0.050759397 0.023113152 -0.010979806 -0.11297746 0.047165815 -0.05113341 -0.12914194 -0.09169334 -0.18105972 0.08612694 0.12153497 0.07975316 -0.04205831 0.14183885 0.041208416 -0.04465465 -0.099417835 0.028761337 0.011108578 0.055047758 0.021227155 0.04729797 -0.085441716 -0.13979046 0.017562887 0.06088327 -0.027788322 -0.03829204 0.0114139225 0.105941266 0.029653797 0.038898356 0.017146459 -0.0019424302 -0.14066462 0.08845223 -0.002534175 -0.02311698 -0.09395814 0.08161816 0.051698003 -0.11907378 -0.04657471 -0.02981346 0.08837362 -0.07043122 -0.074194804 0.07353634 -0.04516056 -0.033155784 -0.01705427 0.09150005 -0.09680431 0.08024914 0.12712109 -0.05318046 -0.14595206 0.07817935 0.019994823 -0.005034379 -0.052596867 -0.065799505 -0.1101931 0.050178844 0.0064721475 -0.16157179 0.11691821 0.035047878 -0.036248807 -0.025127131 0.020457305 -0.14041479 0.07901694 0.04009673 0.24039486 0.07563496 -0.028912084 0.03588751 0.023786921 0.0011920823 -0.06628364 -0.09243223 -0.067646354 -0.0839186 -0.032517646 -0.01065528 -0.11339604 -0.11153435 0.015877673 0.038907778 0.047038022 -0.17465974 -0.089480475 -0.04973369 0.10150979 -0.04490367 0.031560794 0.039930396 0.07272776 0.026513094 0.13448519 -0.14356753 0.011274082 -0.030288745 -0.07375152 0.018459184 0.06562889 0.0021354042 0.05765543 0.09354834 0.2898649 0.015347217 0.10891179 0.18543807 0.0136007685 -0.00495728 0.038430583 0.1397369 0.15405433 0.08636604 0.05668101 -0.05972888 -0.054156695 0.0622744 -0.112854235 -0.13054912 0.04276651 0.07099468 0.03296395 -0.00683976 0.18397497 0.1009951 0.025303477 -0.07544215 0.005089634 -0.07429998 0.12482178 -0.077742435 0.064083196 0.056342762 -0.02769718 0.25904235 -0.009554484 0.06834901 -0.073658414 0.094647005 -0.062907085 0.0435245 -0.025261289 -0.010542871 -0.007608584 -0.03811099 0.04808707 0.009433111 -0.028467054 0.050505314 -0.09956539 0.06953529 0.1436383 0.075329825 -0.03086665 -0.11654813 0.07139077 -0.07558734 0.03696206 0.2208537 0.051175833 0.04919492 0.034632277 -0.02529866 -0.11206302 -0.024738824 0.041497864 0.000391063 -0.065567434 -0.03488943 0.117900796 0.051189117 0.063550204 -0.081297055 0.07152089 -0.074646905 -0.1685359 0.10949101 -0.16257699 -0.19455904 0.03303373 0.026536409 0.11180026 -0.050110146 -0.14904115 0.006257178 -0.048314154 -0.09895172 0.06645779 -0.12807123 -0.13009265 0.20693158 -0.04380409 0.078438595 0.05843437 -0.056352224 0.013963538 -0.10244588 -0.02415814 0.03626761 0.058452263 0.041080188 0.1297439 0.065237164 0.027861677 -0.14671671 0.054822024 -0.12727855 0.091558866 0.05366431 -0.042292934 0.022741394 -0.032140117 0.051794834 0.061890855 -0.039327536 0.07067758 0.091160275
7 0.030305415 -0.10557485 -0.05428207 -0.025269276 0.05930958 0.020544553 0.032548778 0.19611832 -0.012804047 -0.045211054 0.028500874 0.049200423 -0.04932547 0.008799672 0.036645837 -0.1036575 -0.042171266 -0.0766103 0.010463398 -0.03605334 0.1548447 -0.03782864 0.09722038 0.094046056 0.022786902 -0.069476046 -0.2661829 0.0052602417 -0.06877655 0.06259793 0.05846941 -0.033142224 -0.049283877 0.017980982 -0.008264826 -0.10243068 0.035077423 -0.048223928 -0.11642096 -0.0810787 -0.16188477 0.07581019 0.10833995 0.07222396 -0.034875102 0.12823442 0.039124105 -0.04365352 -0.08551972 0.027207432 0.009081497 0.04946577 0.017893307 0.045410126 -0.07736591 -0.12422163 0.017720882 0.052846495 -0.018743407 -0.028000355 0.0057534887 0.10137907 0.0271343 0.034656752 0.01795653 -0.00017442465 -0.12562393 0.08139794 -0.0036661888 -0.019418068 -0.086268075 0.0775926 0.044011988 -0.10499035 -0.04608414 -0.028765135 0.07871539 -0.06165044 -0.06599256 0.067120686 -0.04348021 -0.025975741 -0.019094082 0.089250766 -0.08879443 0.06661337 0.1146826 -0.050534107 -0.13792183 0.071829595 0.017641008 -0.010307988 -0.046430226 -0.05850341 -0.10177088 0.04380177 0.0066616433 -0.14860922 0.10694047 0.031877976 -0.039199207 -0.021736292 0.018257432 -0.12797943 0.071428075 0.03362202 0.21284908 0.065570705 -0.02512646 0.032599777 0.026031332 0.0025489563 -0.059641767 -0.0888489 -0.061130334 -0.07805618 -0.027977755 -0.013607573 -0.10652568 -0.09505558 0.012472314 0.043151002 0.04581576 -0.15563554 -0.08772753 -0.04478275 0.096067704 -0.041715655 0.026817907 0.03158425 0.065723576 0.02850991 0.1201424 -0.12787335 0.015980136 -0.023301054 -0.067841835 0.01192682 0.06176473 0.0013538054 0.049662597 0.0893545 0.2612778 0.014671399 0.10200229 0.16783033 0.016986081 -0.0039134366 0.034838 0.12017165 0.13604261 0.07990397 0.054350313 -0.05901149 -0.04632602 0.06001127 -0.10243828 -0.11923745 0.039774004 0.06369881 0.034034256 -0.0054379706 0.16770908 0.095522135 0.020354372 -0.06651279 0.0041206414 -0.06035541 0.11157944 -0.07567978 0.061493736 0.046046898 -0.0234844 0.23212239 -0.0049792924 0.06253429 -0.06824253 0.08562724 -0.058138736 0.037362948 -0.024994694 -0.0102960365 -0.008542612 -0.03408468 0.04589459 0.013659379 -0.02667233 0.04573829 -0.08560807 0.0587422 0.13370961 0.06374996 -0.019310467 -0.108595334 0.068507455 -0.06788357 0.03491102 0.19729948 0.047277004 0.044015914 0.029974183 -0.02022458 -0.10030831 -0.016622236 0.03472248 -0.00035951872 -0.053520795 -0.0328291 0.10579835 0.045627892 0.06318134 -0.067988664 0.06306363 -0.07121367 -0.15650749 0.1027433 -0.15169963 -0.17714185 0.031225229 0.024887994 0.098820865 -0.045492116 -0.1321739 0.0013689379 -0.041806836 -0.09065236 0.05940486 -0.11149092 -0.11765678 0.19351168 -0.039906636 0.073637225 0.053684022 -0.0535372 0.0043550967 -0.091470465 -0.023598876 0.038201157 0.0520553 0.034574084 0.11548708 0.062240195 0.027562924 -0.1376456 0.0516879 -0.11691797 0.08315455 0.049521405 -0.03378125 0.024908764 -0.03451196 0.048988122 0.058859497 -0.034092896 0.06377246 0.07716849
0 0.018925142 -0.13629764 -0.049494654 -0.027027532 0.07960835 0.017984087 0.04291968 0.24042404 -0.011637729 -0.0703799 0.039002236 0.08562688 -0.050319504 -0.007596926 0.06211096 -0.14375626 -0.08853816 -0.105829425 -0.0072033 -0.028492695 0.21573979 -0.054434355 0.14510907 0.11620433 0.014300863 -0.06282913 -0.34373063 -0.015708463 -0.09578399 0.056068834 0.065533556 -0.018818885 -0.057778463 0.030728878 -0.019287748 -0.13599361 0.0769214 -0.06547079 -0.15074944 -0.111364394 -0.21959326 0.10388773 0.1525349 0.102582715 -0.05560368 0.17653975 0.027306166 -0.0487498 -0.12696289 0.03598041 0.0045087696 0.06559589 0.035055324 0.037727352 -0.096789576 -0.15783201 0.015573053 0.07651823 -0.059030518 -0.060487926 0.035374377 0.095694415 0.04493463 0.04839823 0.015816325 -0.0066876938 -0.1615532 0.09173753 0.0019873746 -0.026227783 -0.0990818 0.07751282 0.06561182 -0.13880613 -0.027295008 -0.029751617 0.10210267 -0.08373537 -0.08887324 0.076327495 -0.03843507 -0.045798328 -0.012804815 0.08429341 -0.11138396 0.10181568 0.13609782 -0.056504812 -0.15110609 0.10067392 0.03612045 0.014510936 -0.063754305 -0.08105234 -0.1228924 0.07242092 0.0019173789 -0.18067695 0.13914052 0.055599343 -0.023986356 -0.025243916 0.023971608 -0.14843687 0.08476294 0.04491324 0.2876768 0.11818717 -0.019745745 0.035337914 0.011450474 0.0069701737 -0.08578899 -0.10507914 -0.09665452 -0.10065393 -0.04409989 -0.015783384 -0.13412008 -0.14239597 0.026760211 0.025890142 0.04497615 -0.21533689 -0.09196641 -0.0566143 0.11835555 -0.050919443 0.04354727 0.06467407 0.07990803 0.022586213 0.1556509 -0.18049312 -0.005880726 -0.045526713 -0.094096325 0.030702708 0.057832215 0.00710172 0.07811239 0.109332554 0.3431788 0.008263423 0.11202627 0.2202399 -0.008816403 -0.011545557 0.040413976 0.17755818 0.19643225 0.09125346 0.043828953 -0.058387596 -0.07749765 0.057614613 -0.13930227 -0.1557178 0.049510468 0.07642745 0.022572251 -0.013401562 0.21659224 0.09644838 0.0307113 -0.08554624 0.005229486 -0.09347139 0.16049491 -0.087422006 0.05616652 0.07414736 -0.032759376 0.31936032 -0.026319405 0.08651728 -0.09681707 0.10978448 -0.056496494 0.055100773 -0.023200437 -0.012792806 -0.005630873 -0.044808526 0.047991313 -0.006692042 -0.020164765 0.045315795 -0.13245846 0.084846005 0.16752623 0.096978925 -0.05843058 -0.11468176 0.0728398 -0.07544297 0.050810914 0.2650012 0.06598493 0.05696574 0.053187095 -0.026898274 -0.14062485 -0.04296483 0.0596206 0.014474982 -0.090306304 -0.030593341 0.14348628 0.05761575 0.054095704 -0.11357039 0.099590786 -0.08276278 -0.18184555 0.11732742 -0.18556356 -0.2365799 0.043824468 0.046840783 0.14073071 -0.06727666 -0.18580757 0.010683163 -0.069821715 -0.11342924 0.08240944 -0.15370324 -0.15795587 0.22517003 -0.037316967 0.079055406 0.06607443 -0.045374975 0.042143427 -0.111456685 -0.027148928 0.018510908 0.070337735 0.05034126 0.14518711 0.07299399 0.03167967 -0.15193355 0.06236504 -0.14477365 0.10613796 0.06402981 -0.045672536 0.014595281 -0.031181285 0.053686026 0.07119148 -0.04362837 0.07254521 0.11573411
48 0.03081213 -0.11242343 -0.057425987 -0.027275685 0.061585456 0.021174824 0.03490101 0.20663546 -0.016928185 -0.048031006 0.027410187 0.051429503 -0.052347537 0.015029215 0.037616827 -0.111841016 -0.043657463 -0.08203085 0.013399214 -0.037356243 0.16265449 -0.038375933 0.09987798 0.0967413 0.023997908 -0.073097825 -0.28338206 0.0062357825 -0.07366243 0.06698446 0.06283293 -0.03919338 -0.050579324 0.021490814 -0.009876495 -0.10936628 0.03757255 -0.050571587 -0.12490315 -0.08378925 -0.1722431 0.078439936 0.11559103 0.07476175 -0.034504592 0.13583316 0.04411508 -0.04762215 -0.09457782 0.026417013 0.013802078 0.05307324 0.01860807 0.048957646 -0.08276407 -0.13272484 0.016288333 0.059507255 -0.019647472 -0.032122444 0.005259859 0.11066396 0.028706448 0.036490943 0.020811629 -0.000787809 -0.13552406 0.0861926 -0.0022035625 -0.019091556 -0.09328869 0.08045049 0.04730681 -0.1097073 -0.05027953 -0.030712241 0.08327389 -0.06751122 -0.06775886 0.07537726 -0.04395914 -0.029142627 -0.018053878 0.09368868 -0.09216387 0.070082076 0.12445908 -0.05159795 -0.14636078 0.075914875 0.014330003 -0.009196953 -0.053316277 -0.060665045 -0.10773534 0.042943407 0.0073505454 -0.15781097 0.11649347 0.034126054 -0.04182853 -0.026527032 0.023924854 -0.13835652 0.0746113 0.038608566 0.22457066 0.06765784 -0.031537697 0.03370297 0.02488782 -0.0008864679 -0.062059056 -0.09353535 -0.0647894 -0.082218945 -0.028074885 -0.011753072 -0.11037952 -0.10371506 0.014563927 0.044860568 0.04870546 -0.16383585 -0.09325005 -0.045044005 0.101841696 -0.046701454 0.02598974 0.03217194 0.07345245 0.027976038 0.12817353 -0.13819507 0.01687915 -0.025043327 -0.06991735 0.016795568 0.06581135 -0.0015886431 0.051665228 0.09154262 0.27461788 0.017625192 0.11386454 0.18102235 0.017674353 -0.007618263 0.035338543 0.12964457 0.1412623 0.08570972 0.06000975 -0.061989855 -0.046296407 0.068291575 -0.10573453 -0.12688129 0.04352475 0.06764102 0.038529903 -0.009562416 0.1759826 0.10336641 0.02254116 -0.071350284 0.0078691235 -0.063934356 0.1156353 -0.081387535 0.06685178 0.049586568 -0.02326127 0.24427895 -0.0052618207 0.0671666 -0.06786548 0.093480654 -0.06517536 0.03524694 -0.026864316 -0.008716282 -0.006659212 -0.035792314 0.050781168 0.015442474 -0.03034788 0.048578404 -0.093931265 0.061963785 0.1400028 0.069564976 -0.02140577 -0.11621159 0.075997256 -0.0776647 0.03368437 0.20991734 0.05095734 0.04819664 0.033323973 -0.024510808 -0.10548385 -0.01726858 0.03784045 -0.0018500458 -0.057081886 -0.03676565 0.112865604 0.049070578 0.0655112 -0.06898854 0.06385048 -0.075723305 -0.16792852 0.11050397 -0.1605665 -0.18738963 0.032045342 0.025064949 0.103855826 -0.04590933 -0.13921373 0.004635228 -0.043147884 -0.096623465 0.06250499 -0.122749366 -0.12590455 0.20774698 -0.041729227 0.08067568 0.05784947 -0.058343165 0.003582344 -0.095840015 -0.026265869 0.040691886 0.058893997 0.035457592 0.1243323 0.06587161 0.024930999 -0.14681691 0.054062083 -0.12581281 0.088884115 0.051940095 -0.036806744 0.024584273 -0.03487452 0.05042946 0.058419157 -0.03759386 0.067544594 0.08391777
43 0.02437425 -0.118672654 -0.054181296 -0.026659708 0.071328565 0.01783707 0.039781783 0.21927199 -0.012464272 -0.056319874 0.033671353 0.065121725 -0.05365808 0.004800951 0.047061313 -0.12197888 -0.06375224 -0.088860765 0.0032199793 -0.033834375 0.18283649 -0.044378836 0.118868396 0.1024459 0.019153535 -0.066147946 -0.30338082 -0.0006956847 -0.08054283 0.06358123 0.06344853 -0.027913025 -0.05375641 0.027958903 -0.01118985 -0.11700114 0.05078239 -0.05576732 -0.13117315 -0.09237477 -0.1847699 0.08927824 0.13012682 0.085001655 -0.045086063 0.14815155 0.03795452 -0.047194514 -0.10493946 0.02892196 0.009772724 0.05768396 0.026284486 0.04413371 -0.08758623 -0.14231534 0.019407962 0.063819304 -0.036609937 -0.044499245 0.016432881 0.10471645 0.03353943 0.04156571 0.017351361 -0.0031283388 -0.14153382 0.08625295 -0.00015545684 -0.019670581 -0.09099754 0.080453664 0.05640728 -0.12265846 -0.042044453 -0.03162061 0.091073096 -0.0737509 -0.077209 0.07523243 -0.041112356 -0.03391578 -0.016957236 0.089544564 -0.100353494 0.081576355 0.12791981 -0.05211165 -0.1471524 0.08407936 0.025354942 0.00010838454 -0.054642513 -0.06665832 -0.113994904 0.055104278 0.0046853204 -0.16460708 0.12284399 0.044121142 -0.03294658 -0.023092 0.02160422 -0.1413354 0.080388986 0.037866633 0.24955843 0.08535486 -0.024055151 0.03238813 0.020316806 0.0023865602 -0.07203995 -0.09607753 -0.07745035 -0.089571126 -0.036256853 -0.013579597 -0.1175745 -0.11687047 0.02094446 0.03506833 0.045744248 -0.18140678 -0.09045748 -0.05082326 0.107383 -0.048453443 0.03506722 0.04360288 0.07595338 0.024992565 0.13710397 -0.15337008 0.0057307407 -0.031627756 -0.08141167 0.020703286 0.060534526 0.0012022755 0.06254046 0.09958136 0.3018546 0.011867248 0.1114078 0.19434758 0.0073158913 -0.00760213 0.03779884 0.14833614 0.16227217 0.087849535 0.053562462 -0.05837588 -0.060537226 0.06109403 -0.11618434 -0.13664787 0.044978954 0.07026265 0.030698983 -0.008913175 0.18996103 0.09986367 0.027087834 -0.07524773 0.008054527 -0.077730894 0.13321759 -0.08235253 0.05871726 0.058460962 -0.029755745 0.27330962 -0.015371061 0.07237781 -0.08136172 0.09863135 -0.059842445 0.045007758 -0.02609122 -0.009477956 -0.0054110303 -0.03729004 0.047943156 0.004610644 -0.027265083 0.04730233 -0.10843512 0.07141242 0.15032372 0.08127892 -0.03791883 -0.11368101 0.0699999 -0.07615842 0.041863266 0.22854677 0.053556874 0.049677253 0.03762199 -0.02599524 -0.12003454 -0.029040376 0.045307443 0.006092264 -0.06784643 -0.031021178 0.12369477 0.050955784 0.059817877 -0.088746555 0.07943088 -0.075340144 -0.17183733 0.10989623 -0.1690556 -0.20346193 0.037857577 0.03179078 0.11500829 -0.05358152 -0.15538037 0.0064477227 -0.050934333 -0.09838755 0.06927258 -0.13319373 -0.13850647 0.21074638 -0.04203495 0.07659022 0.060413517 -0.05352432 0.01712419 -0.100059174 -0.026989818 0.034247078 0.06383059 0.03963198 0.1335431 0.06747571 0.027800959 -0.14792319 0.058171626 -0.13075358 0.0941804 0.055851232 -0.042819347 0.020018863 -0.03537707 0.05029473 0.06642437 -0.039290525 0.06958048 0.09672373
24 0.02563509 -0.12879077 -0.052187588 -0.025063127 0.07615508 0.01767593 0.04239065 0.23416345 -0.013591089 -0.060456283 0.035429455 0.07354857 -0.053312685 0.0017911652 0.053604424 -0.13584703 -0.0745278 -0.10132483 0.0011658787 -0.037134804 0.20044427 -0.047027025 0.13257092 0.11265432 0.021889584 -0.067977406 -0.32630253 -0.0052843746 -0.08860512 0.06339331 0.061731115 -0.027607339 -0.059182215 0.024165593 -0.012691266 -0.12641235 0.06450726 -0.06341391 -0.14509992 -0.10577467 -0.20396991 0.10102862 0.14180833 0.093702234 -0.04849199 0.16225426 0.035876054 -0.045288455 -0.11519178 0.035506226 0.01236031 0.06274279 0.027401822 0.048198145 -0.08998325 -0.15078752 0.02002671 0.07068864 -0.04221339 -0.05290297 0.023002543 0.103657484 0.038128216 0.0409215 0.01615731 -0.0053148014 -0.15539293 0.09607939 -0.0019619623 -0.025434231 -0.09697048 0.080139115 0.057697114 -0.13353181 -0.037275054 -0.03284671 0.098042846 -0.0818675 -0.08491494 0.07906958 -0.040925886 -0.038547926 -0.01713112 0.09104211 -0.10653998 0.09155869 0.1350651 -0.05344229 -0.15197572 0.09310945 0.02527663 0.002392553 -0.06160921 -0.073474534 -0.119035564 0.06440314 0.007548753 -0.17671002 0.13024543 0.044554234 -0.032111246 -0.021823704 0.026067926 -0.14960943 0.08165825 0.042651482 0.2679952 0.09762191 -0.02435827 0.03780705 0.021214299 0.005815565 -0.079631224 -0.10000121 -0.08430523 -0.094244584 -0.04009091 -0.013173567 -0.12627669 -0.12882994 0.02248886 0.035272907 0.047710452 -0.2026297 -0.09151908 -0.051733557 0.1143105 -0.046984594 0.036801606 0.049903646 0.077439085 0.027497005 0.14937888 -0.16540742 0.005513337 -0.03712078 -0.08865298 0.026466742 0.06585768 0.0020907766 0.070274375 0.103369765 0.32532778 0.01440663 0.115186766 0.20921332 0.0042255125 -0.0077267196 0.03874944 0.16209036 0.17784996 0.092163175 0.049046636 -0.061653174 -0.06669239 0.06286396 -0.13081695 -0.14779837 0.04486246 0.07736684 0.027475616 -0.012141989 0.20451276 0.103704065 0.026749194 -0.08235562 0.0065096095 -0.087162316 0.14632541 -0.08304572 0.058589958 0.06589742 -0.029541405 0.29490346 -0.016562514 0.077238925 -0.090127595 0.10521546 -0.06471595 0.049638 -0.026514532 -0.008379057 -0.0066284672 -0.042300288 0.051050805 -0.00027963248 -0.025146058 0.05106734 -0.11672337 0.07662583 0.15857725 0.08348771 -0.045439396 -0.11793369 0.07742251 -0.07663343 0.042689502 0.25106916 0.059720863 0.05419348 0.04319045 -0.027976591 -0.12796329 -0.03488016 0.051942345 0.0066246577 -0.07959023 -0.034446113 0.1333724 0.054307334 0.061817378 -0.096410565 0.08996706 -0.07707297 -0.17991066 0.11601717 -0.17668721 -0.22249328 0.03916583 0.036268443 0.12528235 -0.06119975 -0.1707545 0.008301998 -0.056484915 -0.104289226 0.07416057 -0.14449635 -0.1514098 0.22280781 -0.03948928 0.081592396 0.062701784 -0.056283608 0.026388824 -0.11018506 -0.025707353 0.03145561 0.06715188 0.048936423 0.13815103 0.07270097 0.032972228 -0.15545014 0.05925763 -0.13582969 0.10101301 0.06081056 -0.045579027 0.020097235 -0.031252354 0.053370953 0.06658252 -0.043069597 0.07340515 0.10653202
28 0.025045477 -0.112442896 -0.049478933 -0.025044668 0.06393086 0.020342397 0.035097215 0.20223586 -0.016258318 -0.048565358 0.030455593 0.056308754 -0.050824635 0.010951905 0.03880287 -0.11177746 -0.050926745 -0.08392955 0.009484361 -0.035277907 0.16285393 -0.03886874 0.105673976 0.09582408 0.01975657 -0.06617379 -0.27859527 0.0045106974 -0.07077941 0.06134674 0.057215452 -0.03084152 -0.048452903 0.021553485 -0.0075470456 -0.10845189 0.044605304 -0.049096785 -0.12088445 -0.085365936 -0.17055349 0.07920361 0.11645101 0.07762693 -0.039641935 0.13328966 0.035873506 -0.04362048 -0.09550362 0.028749155 0.008672044 0.051509995 0.021507967 0.042781513 -0.07673884 -0.1314517 0.015749143 0.0563215 -0.02794015 -0.035496674 0.009768216 0.09894101 0.030841578 0.035758592 0.018146617 -0.0021692656 -0.13302478 0.084586374 -0.0050313524 -0.023120645 -0.0884693 0.07745548 0.046562806 -0.11441221 -0.0431554 -0.029550578 0.08326304 -0.06538786 -0.07295357 0.07098274 -0.0428729 -0.032360405 -0.017040849 0.087283514 -0.09235235 0.076378115 0.12075502 -0.04967961 -0.13854642 0.076347604 0.018290821 -0.0070721987 -0.052134514 -0.062472887 -0.10323529 0.046508748 0.0058560483 -0.15151049 0.11248361 0.03255634 -0.036316387 -0.019801028 0.019096537 -0.13284776 0.07457257 0.0382532 0.2280281 0.07469694 -0.025132595 0.031304378 0.023969028 0.0035518534 -0.06540915 -0.08925194 -0.06394454 -0.08187049 -0.031990096 -0.012045034 -0.11007895 -0.105706744 0.015506223 0.03882015 0.044738423 -0.16545345 -0.08848032 -0.047047056 0.09859278 -0.04206304 0.031119708 0.035913713 0.06721499 0.026477337 0.12541467 -0.13770473 0.010837503 -0.028724281 -0.069036186 0.015057678 0.059597578 0.002287668 0.054999985 0.090873465 0.27566424 0.011762016 0.103606895 0.17768894 0.012595592 -0.006148059 0.036136206 0.12891343 0.14520279 0.081131056 0.051546752 -0.056808606 -0.051250003 0.061733104 -0.109736994 -0.12459507 0.04158521 0.068289384 0.030447552 -0.008824459 0.17497954 0.093801685 0.023569005 -0.068443604 0.0051319827 -0.06762059 0.11998236 -0.076862834 0.059206463 0.05223498 -0.023959678 0.24863909 -0.008051843 0.06479912 -0.07399615 0.09097877 -0.0589754 0.041161522 -0.027761137 -0.008535314 -0.0061158426 -0.035838004 0.045026675 0.011163992 -0.02406506 0.045179468 -0.09353895 0.06332007 0.13952799 0.06801964 -0.02892109 -0.10891008 0.06692867 -0.06887369 0.036682308 0.20969631 0.051274594 0.044076737 0.035593193 -0.022489544 -0.106209934 -0.022763247 0.041074727 -0.0009055139 -0.061556824 -0.03220463 0.1114969 0.04452795 0.05988815 -0.07567193 0.06806253 -0.07098914 -0.15892608 0.101297244 -0.15654309 -0.18565755 0.030153058 0.0271897 0.10601328 -0.0479019 -0.13808043 0.002541093 -0.04543998 -0.093396045 0.059614964 -0.12082619 -0.12586628 0.1962128 -0.041474126 0.07268134 0.052669205 -0.05426436 0.011886262 -0.09512564 -0.023027102 0.036165804 0.056987822 0.03826379 0.12292884 0.06409816 0.029689532 -0.13899632 0.050837103 -0.11884056 0.08540658 0.05092042 -0.038670942 0.024265822 -0.031064464 0.049829517 0.059936017 -0.037823725 0.06596808 0.084128894
49 0.046701614 -0.09649601 -0.065959804 -0.028913962 0.050140765 0.025504641 0.026099732 0.1842743 -0.021747282 -0.025359234 0.027793368 0.018101975 -0.061862983 0.035127245 0.014762316 -0.08330289 0.0020532457 -0.060304135 0.03492069 -0.052181758 0.11538962 -0.026196437 0.06323675 0.08373904 0.032747407 -0.089306265 -0.23033097 0.02993199 -0.05198465 0.08130516 0.059298053 -0.060402237 -0.04651096 0.01014981 0.009148363 -0.084789395 -0.0011773298 -0.034087498 -0.09985931 -0.06166123 -0.12809303 0.05765335 0.07747482 0.052772775 -0.018491322 0.10021887 0.058500826 -0.04941679 -0.063517064 0.025616804 0.017500086 0.03706159 0.0017167008 0.059622735 -0.07058076 -0.11550937 0.02134745 0.044190086 0.018536238 -0.0010451413 -0.030382799 0.129245 0.012187073 0.024112491 0.024605332 0.0029172902 -0.11268363 0.07982835 -0.011689023 -0.014143221 -0.09186701 0.09085155 0.035187718 -0.09134568 -0.078917734 -0.03801795 0.07105233 -0.054440938 -0.054096933 0.07207392 -0.0596366 -0.011996103 -0.028311417 0.11242972 -0.08422954 0.04383026 0.1174104 -0.056251645 -0.14994903 0.05186321 -0.005055328 -0.039901037 -0.0420841 -0.04434809 -0.09760546 0.016440311 0.008029645 -0.13853411 0.09888616 0.009321214 -0.06019665 -0.02657859 0.022465587 -0.13116452 0.07232543 0.034479715 0.17864972 0.021192063 -0.0394192 0.03780558 0.044112742 -0.0036947182 -0.038656652 -0.08620763 -0.029880676 -0.07040328 -0.012626358 -0.011437786 -0.0957431 -0.06377505 -0.0033884856 0.07159405 0.04951749 -0.12374571 -0.10100175 -0.037965477 0.08891839 -0.043161947 0.0153724905 0.0021675956 0.06677844 0.037675057 0.102656715 -0.099232875 0.03948172 -0.0077632475 -0.044947684 -0.0015133753 0.077484995 -0.007427389 0.027373254 0.07946048 0.22137004 0.021886442 0.11708659 0.14510612 0.050236944 -0.00029790876 0.034459077 0.08071273 0.09294535 0.08445107 0.079022 -0.07347848 -0.018035013 0.07929595 -0.08451021 -0.10271749 0.034630854 0.0638049 0.05368403 0.00020403352 0.1411803 0.10901962 0.011459765 -0.061681893 0.0074622342 -0.036023904 0.07467332 -0.076237015 0.08176638 0.019238407 -0.015238766 0.18573397 0.017558366 0.04582776 -0.045725904 0.08246116 -0.07385701 0.022335721 -0.034904607 -0.0063440185 -0.013054583 -0.032528866 0.057112068 0.04350594 -0.035517257 0.06020932 -0.056077156 0.046622165 0.121580645 0.04213746 0.023407562 -0.119100675 0.0749683 -0.077826954 0.022811756 0.16616012 0.039003305 0.042112872 0.013089002 -0.019338304 -0.075350955 0.015024329 0.019655652 -0.015989495 -0.02290727 -0.04727861 0.08523307 0.041046824 0.08483618 -0.031685818 0.03590815 -0.07447778 -0.159861 0.10713226 -0.14349963 -0.14292537 0.016718097 0.00661464 0.072766356 -0.026757214 -0.09570282 -0.007974718 -0.013977753 -0.080478504 0.0424058 -0.089207955 -0.10207072 0.1942033 -0.05024452 0.08262533 0.04661046 -0.0725937 -0.037040267 -0.08421467 -0.030341195 0.06750887 0.0435575 0.02770024 0.10963551 0.06338711 0.025447529 -0.15028396 0.046690032 -0.10983929 0.08140155 0.040474582 -0.030087236 0.041478302 -0.041247617 0.051767036 0.052137595 -0.027062912 0.06791234 0.04715821
35 0.03497922 -0.09654174 -0.059668142 -0.027270177 0.05094054 0.022306584 0.028781116 0.18084598 -0.020104293 -0.030543698 0.025587514 0.031681888 -0.05471293 0.0250812 0.023823952 -0.08967291 -0.015886128 -0.06483316 0.023282751 -0.04392527 0.12942383 -0.02929242 0.07475391 0.08670009 0.028028427 -0.07622302 -0.23385422 0.021019638 -0.058598015 0.06996266 0.056453466 -0.045807526 -0.04627699 0.010975653 0.004524384 -0.08880093 0.01630781 -0.039630216 -0.10162684 -0.070011556 -0.13945037 0.06397644 0.08949592 0.057667088 -0.024623789 0.10529892 0.04871912 -0.04345059 -0.072539195 0.025095213 0.015357473 0.039838597 0.0071038674 0.049600244 -0.066610314 -0.11777579 0.01962245 0.04561649 0.00095947227 -0.015430392 -0.0136430105 0.10931094 0.017808156 0.02607541 0.019466318 -0.0010023438 -0.116129704 0.07943715 -0.008949281 -0.015030431 -0.08540485 0.08162735 0.038223546 -0.09425964 -0.060451727 -0.035179008 0.0723058 -0.054260112 -0.059291642 0.068775184 -0.049988862 -0.021232545 -0.0217544 0.095731966 -0.0805731 0.05520441 0.115604706 -0.05150809 -0.13923465 0.05989211 0.0032973946 -0.026564335 -0.04421029 -0.049287 -0.0976103 0.026240563 0.007684085 -0.13648789 0.09891947 0.01732811 -0.046595447 -0.022404041 0.01976697 -0.12624441 0.07036265 0.031766426 0.18657504 0.040091213 -0.029791513 0.036702562 0.03540019 -0.0021877224 -0.047320206 -0.08339392 -0.042206235 -0.06875883 -0.018733563 -0.010403147 -0.09563002 -0.07591748 0.0052923183 0.055338312 0.04636402 -0.13297322 -0.08987702 -0.03646631 0.086099744 -0.03826991 0.01762822 0.014349583 0.064943485 0.028549444 0.107595906 -0.108817525 0.029190563 -0.013173087 -0.05187247 0.004788073 0.07017692 -0.0044002305 0.037580896 0.078838944 0.22994958 0.01840072 0.10639321 0.15106943 0.03425064 -0.0028457078 0.031384278 0.096407294 0.108716026 0.08019126 0.06471185 -0.06573883 -0.028206296 0.0678141 -0.088207 -0.10458287 0.03425222 0.062862314 0.044548765 -0.0034555625 0.14381522 0.09825415 0.0138102155 -0.060267914 0.0071273046 -0.048473798 0.090909444 -0.072410874 0.06788976 0.03223748 -0.01658131 0.19982484 0.0071368665 0.05008989 -0.052110296 0.079317346 -0.06322797 0.026616022 -0.02879512 -0.0075334446 -0.00887295 -0.030249938 0.047674105 0.029686559 -0.031842273 0.050466295 -0.06711186 0.04994781 0.1211461 0.04951331 0.004199988 -0.10907161 0.06978017 -0.07150901 0.024954472 0.17533478 0.04140089 0.04004175 0.018808188 -0.020260297 -0.08013686 -0.0022930384 0.026740255 -0.0080757 -0.03385234 -0.0391387 0.092766546 0.04123243 0.06844482 -0.04648214 0.044752855 -0.06704837 -0.15055762 0.098303154 -0.14258249 -0.1493706 0.01967725 0.013067622 0.07992852 -0.031231811 -0.10644031 -0.0044358084 -0.026684223 -0.07945395 0.04720684 -0.09900505 -0.106923915 0.18370843 -0.045306858 0.0734885 0.04743108 -0.063133866 -0.015898665 -0.085390076 -0.024831593 0.05470446 0.044690207 0.028721858 0.10630316 0.058052316 0.024405729 -0.13710828 0.04769903 -0.10900761 0.08020851 0.0435478 -0.031587835 0.033096764 -0.033367764 0.050299056 0.05031099 -0.03200544 0.061854403 0.059990767
6 0.028588196 -0.10553899 -0.051714707 -0.022851141 0.06014744 0.019394474 0.03345447 0.19483913 -0.014793116 -0.04384305 0.029033374 0.048221387 -0.050438877 0.010626909 0.03693485 -0.10361186 -0.043013714 -0.07803877 0.011839001 -0.0375493 0.1523697 -0.037468683 0.09611556 0.089848705 0.022919374 -0.06874472 -0.26097912 0.0044828537 -0.06750055 0.06375506 0.056467216 -0.035506878 -0.046743743 0.018135836 -0.0057980223 -0.100668594 0.03684481 -0.044830557 -0.11715031 -0.082016475 -0.15997417 0.076363586 0.10877581 0.069001764 -0.036098864 0.12665804 0.04041531 -0.04427045 -0.08483407 0.0290778 0.010906977 0.04916317 0.015704451 0.044212688 -0.07372517 -0.12543093 0.017221097 0.053110383 -0.018413747 -0.03212245 0.0072281407 0.100919455 0.026113076 0.03286174 0.018256461 -0.0030562978 -0.12669031 0.07967769 -0.0054002022 -0.019845366 -0.08361324 0.07461025 0.044171598 -0.103177704 -0.044486668 -0.030002914 0.07989789 -0.06083556 -0.06632817 0.06839181 -0.044262014 -0.026042938 -0.017172461 0.08715318 -0.08540565 0.06606206 0.11692546 -0.05054898 -0.13592033 0.07007321 0.016130142 -0.009340711 -0.046916023 -0.055909533 -0.100362174 0.043059956 0.006538827 -0.14796627 0.108374886 0.029358624 -0.036035653 -0.022769565 0.020732122 -0.12673657 0.069590956 0.035873644 0.2116373 0.06611403 -0.024950098 0.031937536 0.026092248 0.0024320497 -0.059135128 -0.08497947 -0.058713235 -0.07499343 -0.026669478 -0.012925563 -0.103520036 -0.09673074 0.013230684 0.04055933 0.04494903 -0.15724023 -0.08694243 -0.042094618 0.09519671 -0.043897897 0.02846683 0.030028412 0.06584149 0.025048306 0.117985435 -0.12744458 0.015712926 -0.024181208 -0.066593595 0.015336205 0.06087901 -0.00034465615 0.04832764 0.08508604 0.26020986 0.013268001 0.10238964 0.1683302 0.016305521 -0.0067293243 0.034885842 0.1195274 0.13218121 0.08061905 0.054974854 -0.058995765 -0.04433514 0.060809087 -0.100213446 -0.117620125 0.038366463 0.0638203 0.034227297 -0.0050843903 0.16294388 0.095022686 0.01976659 -0.066411085 0.0035832527 -0.06337582 0.109453924 -0.07175579 0.058529463 0.047278963 -0.021345189 0.23167783 -0.0052403365 0.059411425 -0.067711756 0.08488853 -0.05970089 0.036423214 -0.025151853 -0.008754243 -0.0056067226 -0.032056138 0.046195433 0.011473522 -0.024291355 0.04645063 -0.088421054 0.060776375 0.1315501 0.06429853 -0.01869365 -0.108004875 0.06856695 -0.06875621 0.031805396 0.19773592 0.045480777 0.04493363 0.031947244 -0.022929685 -0.099824674 -0.017671697 0.036545873 -0.0028445947 -0.05287581 -0.032303568 0.1061509 0.04380199 0.060321387 -0.0672292 0.06407907 -0.06902288 -0.1547257 0.09910325 -0.14993894 -0.17421532 0.026726676 0.025161698 0.097845465 -0.045073733 -0.12834264 0.0026909532 -0.040358018 -0.08691816 0.058307353 -0.111081555 -0.11881267 0.19203857 -0.03976772 0.07259287 0.0527723 -0.055788606 0.005978563 -0.091162734 -0.024385154 0.03932844 0.054137435 0.033734597 0.11328376 0.062747866 0.026913451 -0.13726076 0.04906979 -0.11534067 0.082642764 0.045810405 -0.035977162 0.022965003 -0.03151151 0.047175493 0.055948228 -0.034542818 0.06469018 0.07521162
26 0.023368055 -0.13438192 -0.05127884 -0.027709216 0.08163195 0.016304128 0.046342865 0.24145286 -0.015765276 -0.06825016 0.034355927 0.08032573 -0.05203606 -0.0025856486 0.058584087 -0.14226726 -0.084440626 -0.107654825 -0.0047930847 -0.033129036 0.21646088 -0.0500607 0.14580217 0.117119364 0.017547699 -0.06830453 -0.3454686 -0.01032247 -0.09504683 0.06245273 0.06606548 -0.02358772 -0.058116395 0.026005248 -0.019558799 -0.13497773 0.0729156 -0.06712118 -0.15291104 -0.11195008 -0.21723358 0.103692695 0.15021998 0.09881089 -0.05416071 0.17499429 0.031471483 -0.04690646 -0.12474475 0.03973174 0.0112040145 0.06757717 0.032360673 0.043452796 -0.095984824 -0.1592925 0.019160217 0.0754303 -0.0534123 -0.058812454 0.031884197 0.10099398 0.042325776 0.04588911 0.01696277 -0.0041162 -0.1611747 0.09544676 0.0011215324 -0.028518166 -0.09902927 0.07880166 0.06166258 -0.14176914 -0.030532468 -0.033116665 0.10167154 -0.0847888 -0.090430886 0.07745683 -0.04308155 -0.042359553 -0.015463196 0.08826344 -0.10912316 0.101946644 0.13783467 -0.055767998 -0.15461889 0.09863846 0.031933393 0.008448205 -0.06281495 -0.07557056 -0.12267243 0.06874011 0.005075105 -0.18276845 0.13877442 0.049876254 -0.02640402 -0.023431858 0.024616405 -0.15283108 0.08616464 0.04416802 0.28572908 0.11011891 -0.021191617 0.038028654 0.013812292 0.0067248656 -0.08530215 -0.10123991 -0.09016779 -0.097837575 -0.042777304 -0.013739499 -0.13108064 -0.14335114 0.02589617 0.029356694 0.046547357 -0.21654652 -0.092107706 -0.053940743 0.11776483 -0.052147795 0.043771055 0.056924596 0.07876831 0.024420686 0.15632264 -0.17561497 0.00092956686 -0.041002624 -0.094107084 0.026454067 0.06071522 0.0063669123 0.07826279 0.10977288 0.34257096 0.013024759 0.11508323 0.21949652 -0.0008080682 -0.007873821 0.039816365 0.17824708 0.1915228 0.09353611 0.045756407 -0.058224015 -0.07642844 0.06289226 -0.13683988 -0.15300035 0.050806377 0.08162825 0.02583345 -0.010497879 0.21487792 0.10228332 0.030441523 -0.085865684 0.005517985 -0.096220486 0.16038473 -0.08672548 0.05659981 0.077686235 -0.032743573 0.31684774 -0.023241455 0.08541401 -0.09557625 0.10901358 -0.060802285 0.055214178 -0.0266817 -0.008713186 -0.004837793 -0.045618154 0.046652652 -0.0062733847 -0.026570251 0.046515234 -0.12671725 0.08134645 0.16424467 0.09037561 -0.058757056 -0.12088526 0.077727355 -0.07826077 0.04397127 0.26469183 0.064306974 0.054035492 0.048746202 -0.029538719 -0.13617435 -0.041227475 0.060079943 0.006755853 -0.08994879 -0.029820098 0.1432713 0.058343604 0.057695672 -0.10945231 0.09858339 -0.081036165 -0.18209417 0.116521046 -0.18508166 -0.2359917 0.044163696 0.038367856 0.13493195 -0.06601172 -0.18337326 0.012229671 -0.06442415 -0.10995481 0.078414164 -0.15319592 -0.15523344 0.22662263 -0.04026204 0.08239133 0.067072 -0.05091402 0.037988134 -0.11745753 -0.02695278 0.025776437 0.07107177 0.051761176 0.14445068 0.0716244 0.03472502 -0.15572123 0.061601683 -0.14326997 0.10468758 0.06109108 -0.05027764 0.016012294 -0.029688573 0.05510528 0.07167939 -0.0455076 0.07339808 0.11620058
40 0.021939384 -0.11472068 -0.04974999 -0.02380449 0.0680389 0.017768506 0.035535097 0.2096033 -0.013778542 -0.054975398 0.032102935 0.061436865 -0.049490828 0.0026398397 0.043244965 -0.119347684 -0.061206833 -0.088133864 0.002437244 -0.034119774 0.17651086 -0.041927747 0.11623022 0.09904633 0.018274516 -0.06373908 -0.28985193 -0.0036273652 -0.07883641 0.05641137 0.057126757 -0.027404862 -0.051351067 0.024699679 -0.010922271 -0.112472355 0.049655706 -0.052245315 -0.12689127 -0.08990918 -0.18083128 0.08647289 0.12391648 0.08255504 -0.042740706 0.13995217 0.033818204 -0.04499923 -0.09930784 0.032034945 0.008067526 0.052377626 0.02368425 0.042016976 -0.080028534 -0.13671553 0.015976442 0.060695514 -0.032657783 -0.043508247 0.017507952 0.09833811 0.031219667 0.035568986 0.016143374 -0.0033649174 -0.13737197 0.08316538 -3.417881e-08 -0.020600364 -0.08996997 0.07298645 0.052323088 -0.1189315 -0.037468452 -0.03086689 0.08786555 -0.070016526 -0.07538488 0.068479024 -0.039356235 -0.034072768 -0.016659303 0.08095337 -0.092180565 0.08197806 0.122553 -0.052586105 -0.13996232 0.08266501 0.020493811 -0.002653772 -0.05460045 -0.06478312 -0.105798915 0.05478366 0.0059416704 -0.15881705 0.117181376 0.038974367 -0.02880023 -0.023607884 0.023132024 -0.13415971 0.07578217 0.03657442 0.23769175 0.08208655 -0.024302443 0.03210582 0.018471163 0.0033421172 -0.068830274 -0.09029709 -0.070715174 -0.08396836 -0.031977862 -0.012282027 -0.11213087 -0.1139462 0.020232813 0.03665412 0.042521324 -0.17761536 -0.08635733 -0.045103844 0.10207753 -0.04574077 0.030054864 0.042797808 0.07205747 0.02373732 0.12955913 -0.14539137 0.006994707 -0.033204645 -0.0744554 0.019652175 0.058844034 0.0026045218 0.06038555 0.0935918 0.28806788 0.0106125185 0.103930175 0.18420535 0.004578246 -0.007388177 0.03652753 0.14041744 0.15647164 0.08117228 0.04697162 -0.055149473 -0.05992797 0.05802253 -0.11532713 -0.131928 0.040563907 0.06803631 0.02934049 -0.007663732 0.18040685 0.09171087 0.024198987 -0.07263894 0.008061735 -0.07616803 0.12490822 -0.07382804 0.056318197 0.055620547 -0.024296876 0.26154298 -0.011544857 0.06661812 -0.07895769 0.094520226 -0.055757213 0.04507816 -0.021979442 -0.008355939 -0.008158326 -0.03645634 0.046364862 0.0017400885 -0.024750864 0.044290073 -0.10379694 0.06622945 0.14307165 0.073035926 -0.035323046 -0.106860645 0.06933709 -0.07210326 0.039094523 0.22030324 0.053587295 0.04675845 0.03952256 -0.022960203 -0.114599675 -0.027673867 0.04373255 0.0055152765 -0.06742653 -0.028511263 0.11949062 0.046447624 0.05644897 -0.0851734 0.07478615 -0.07364873 -0.15983386 0.10469256 -0.15845293 -0.1958619 0.03337473 0.030533662 0.111595996 -0.04989272 -0.1499545 0.007857146 -0.049876504 -0.094443955 0.068310484 -0.1268662 -0.12937884 0.19855042 -0.03643031 0.074865006 0.05376685 -0.048807137 0.017876139 -0.09647642 -0.025038373 0.030950751 0.059041724 0.041708108 0.12679227 0.06529051 0.028711608 -0.13790846 0.05257249 -0.123415425 0.091650814 0.052981455 -0.03849924 0.020921966 -0.03217504 0.046397544 0.06207236 -0.036644112 0.0659926 0.09285336
10 0.012920228 -0.13441348 -0.04393841 -0.022423564 0.082532376 0.015204804 0.046850003 0.23565426 -0.006602594 -0.07549158 0.036428332 0.09504783 -0.04772919 -0.011584204 0.06551229 -0.1451561 -0.10236988 -0.10738966 -0.015886977 -0.0228439 0.22369123 -0.054289527 0.15344411 0.1153394 0.012001049 -0.053560507 -0.3421167 -0.022571918 -0.09723386 0.046690997 0.05798428 -0.01295681 -0.05590445 0.03427447 -0.025901759 -0.13457619 0.087141186 -0.07178899 -0.15437499 -0.11516143 -0.2228654 0.108109236 0.1610652 0.10592848 -0.056043413 0.17916092 0.023754677 -0.04366003 -0.1273983 0.034885585 0.0046243663 0.06807431 0.042466667 0.034803115 -0.09601086 -0.15410186 0.016495524 0.07464846 -0.06911337 -0.06927718 0.046332523 0.084533416 0.045046244 0.046609696 0.012695337 -0.0059298 -0.16110659 0.09048926 0.0032016314 -0.030733122 -0.09041966 0.06482064 0.06871126 -0.1418367 -0.014070888 -0.025334414 0.103776634 -0.08620953 -0.09175049 0.071893066 -0.034441214 -0.050024386 -0.011367403 0.07221158 -0.10927756 0.10685822 0.12991187 -0.052668404 -0.14152478 0.10221602 0.04238937 0.022295278 -0.06366597 -0.07904958 -0.11963229 0.079474315 0.0024387834 -0.18048897 0.1358449 0.062155955 -0.01543378 -0.022760786 0.021826318 -0.14506228 0.07988437 0.04112706 0.28868964 0.12810895 -0.018514995 0.032690685 0.007492195 0.0074652676 -0.08859851 -0.09965261 -0.09933111 -0.09686814 -0.046731237 -0.010391616 -0.13257365 -0.1506191 0.03225116 0.015604514 0.041940704 -0.21924944 -0.07917138 -0.05710208 0.11537587 -0.047873806 0.04518477 0.06979524 0.07674455 0.02038444 0.15442596 -0.18082547 -0.014777445 -0.047614247 -0.100561015 0.03430861 0.04943039 0.004630607 0.08665461 0.10668072 0.34522423 0.008119265 0.102556914 0.22307585 -0.019246032 -0.013260174 0.03944625 0.1861962 0.20321527 0.086265266 0.03373114 -0.050465554 -0.08745642 0.045666706 -0.13872692 -0.1524494 0.04758468 0.07675917 0.016338466 -0.012496221 0.21585464 0.08744365 0.035172384 -0.085917056 0.0069973846 -0.101197235 0.16488668 -0.078373 0.0438556 0.08509976 -0.034060083 0.3250554 -0.032595214 0.0871266 -0.10052297 0.10848528 -0.053527623 0.060231216 -0.017649312 -0.008763167 -0.0017284313 -0.04384864 0.04330684 -0.018646803 -0.016746467 0.040774554 -0.13676073 0.08828345 0.16419983 0.10135849 -0.0736447 -0.106595404 0.06865345 -0.07091421 0.050344106 0.2698248 0.06461481 0.056367613 0.055973545 -0.02811735 -0.1408748 -0.056672487 0.06536516 0.018708546 -0.09759551 -0.023303 0.1448608 0.05689552 0.045283962 -0.12009476 0.103175916 -0.07731595 -0.17416723 0.11386198 -0.177463 -0.24091303 0.04493205 0.046484236 0.13978603 -0.07096268 -0.18856752 0.012709757 -0.071552716 -0.108525716 0.08530758 -0.1551069 -0.1588571 0.21541344 -0.032509554 0.07528582 0.06620811 -0.03911469 0.054520447 -0.114645556 -0.024046198 0.0102992 0.07136283 0.0527685 0.14456679 0.06990586 0.0347327 -0.14097944 0.060827456 -0.14097163 0.101337075 0.06513336 -0.049263753 0.010236524 -0.024978667 0.047379687 0.069740035 -0.047864832 0.06825113 0.12371377
29 0.0425977 -0.09266211 -0.065398 -0.029873898 0.049484767 0.023884833 0.025866866 0.1779662 -0.021900343 -0.023564123 0.025782937 0.019458445 -0.058734175 0.03273881 0.01565773 -0.081696495 -0.000826897 -0.061709397 0.03277251 -0.051900778 0.11445863 -0.025796743 0.060881946 0.08256763 0.028977562 -0.086841576 -0.222899 0.028416133 -0.05018592 0.07964216 0.059618883 -0.056244817 -0.044047832 0.007890781 0.0067428313 -0.083394065 0.0031682814 -0.03245321 -0.0961148 -0.06409326 -0.12407262 0.0576886 0.07419259 0.04879967 -0.017383343 0.09940364 0.05644049 -0.046196796 -0.06285789 0.02485033 0.017693032 0.03699581 -0.00045253758 0.056029707 -0.06828155 -0.11068791 0.021883292 0.043211546 0.017221019 -0.0013103598 -0.025323683 0.11970676 0.010006463 0.02401939 0.022903414 0.0015507173 -0.111898005 0.07771764 -0.011188724 -0.011071743 -0.08885834 0.088277586 0.031522293 -0.08659387 -0.072732694 -0.034452036 0.0696343 -0.05154919 -0.053625446 0.07069179 -0.056718852 -0.012553389 -0.024325043 0.10588993 -0.079456575 0.045985337 0.11595483 -0.055367094 -0.1430403 0.04893087 -0.004590103 -0.03809014 -0.039742503 -0.04281044 -0.09313889 0.020149546 0.008169918 -0.13350476 0.095038384 0.0061815684 -0.059532143 -0.022454815 0.021930784 -0.12482806 0.07028018 0.031881746 0.17249617 0.01982604 -0.035372384 0.03792449 0.043378115 -0.0032020311 -0.042049523 -0.084477276 -0.03268049 -0.06918155 -0.015303932 -0.013223201 -0.09030789 -0.0647257 -0.0023106288 0.06604625 0.04768192 -0.122155346 -0.095114574 -0.033866588 0.08364817 -0.041630343 0.014426723 0.00088366494 0.06389226 0.033284746 0.09990099 -0.09720592 0.037352286 -0.0062557985 -0.04465036 -0.00060417654 0.074983075 -0.0064818393 0.027225092 0.07530788 0.21614204 0.022093633 0.112134 0.14033173 0.045117598 0.0015779086 0.031896308 0.07843399 0.094718285 0.07937916 0.07529232 -0.07050478 -0.01959036 0.07641953 -0.08181292 -0.09914666 0.034277864 0.0637719 0.04994433 -0.0019331333 0.13700505 0.10660971 0.012300061 -0.057576396 0.005754249 -0.036254235 0.07525483 -0.0724983 0.07482641 0.019447409 -0.01596031 0.18154073 0.018187128 0.044132832 -0.04359604 0.07879216 -0.07006233 0.022902712 -0.033130985 -0.008252071 -0.010460785 -0.029691612 0.052937534 0.03758437 -0.036309905 0.05763706 -0.05523283 0.045621123 0.11925263 0.041921888 0.020103501 -0.11541465 0.07167207 -0.07308348 0.022606 0.16150479 0.03610606 0.03926066 0.011577001 -0.018317465 -0.07390024 0.012509039 0.01765185 -0.016936641 -0.023913093 -0.04442504 0.08511624 0.03904362 0.079641126 -0.030446328 0.03605707 -0.07080513 -0.1522987 0.101398274 -0.14122 -0.13658208 0.014172027 0.005030934 0.072753504 -0.026436696 -0.09259811 -0.008206862 -0.01644421 -0.07959304 0.041160837 -0.089756586 -0.09927848 0.18939401 -0.049321417 0.07865879 0.045666534 -0.070563346 -0.033592816 -0.08350668 -0.029127387 0.066233344 0.04477952 0.025442021 0.10302005 0.061664615 0.022019116 -0.14287278 0.04522941 -0.10571351 0.076663874 0.037310347 -0.03017923 0.038509108 -0.039400492 0.050962217 0.049688034 -0.028023034 0.065359004 0.046564795
15 -0.0003546312 -0.12624303 -0.027892223 -0.019414349 0.079070196 0.009915789 0.045556985 0.21253513 -0.0035264825 -0.07763877 0.033634968 0.10034535 -0.035497274 -0.02343574 0.07075324 -0.14380951 -0.11803051 -0.10716439 -0.02748756 -0.013716899 0.22090428 -0.052523017 0.15547858 0.10512336 0.0035984255 -0.03547793 -0.32548073 -0.032301147 -0.0941911 0.030232437 0.049695663 0.0045081205 -0.04902859 0.03412178 -0.02948938 -0.12775111 0.09545686 -0.069024034 -0.14182808 -0.1092942 -0.2156958 0.10620454 0.15749787 0.10348135 -0.0593279 0.17418388 0.0057758368 -0.035925668 -0.12886451 0.033451777 -0.00031184833 0.06589328 0.045184653 0.025425892 -0.09014027 -0.1455383 0.00984923 0.07224258 -0.0809406 -0.07663912 0.060618456 0.062813155 0.050467186 0.04384336 0.007333433 -0.0057205083 -0.1486853 0.08036579 0.011122822 -0.02823999 -0.07793677 0.0492612 0.065963835 -0.13747579 0.0019654594 -0.019927684 0.098197006 -0.081569925 -0.08905946 0.05893717 -0.021167563 -0.048970655 -0.0054777926 0.04815955 -0.10056806 0.10556747 0.11478575 -0.044231415 -0.11850868 0.103532545 0.048266936 0.036182016 -0.06011915 -0.07926241 -0.109600626 0.083813086 0.0015687869 -0.16062546 0.12656012 0.06819346 0.0019938052 -0.017732983 0.016194696 -0.12787916 0.07308519 0.03662287 0.27627724 0.13676946 -0.008819891 0.022856638 -0.0058596833 0.011277607 -0.09053381 -0.08885482 -0.10562621 -0.08863588 -0.048023917 -0.00778575 -0.12411225 -0.14845826 0.038553808 -0.0028426556 0.035528604 -0.21185811 -0.06660555 -0.05354078 0.10836554 -0.04203445 0.047094945 0.076278016 0.067080334 0.012599458 0.14894786 -0.17774475 -0.026088385 -0.050590247 -0.09963912 0.038549747 0.033455644 0.009718807 0.08988122 0.09841711 0.32845595 0.005251635 0.08380834 0.20602793 -0.03551808 -0.011614289 0.033850837 0.18955244 0.19845784 0.076249436 0.017240614 -0.037038032 -0.090261646 0.032380406 -0.13524954 -0.14562118 0.04414783 0.0675603 0.0015427808 -0.012131361 0.20480931 0.07133124 0.032825913 -0.07940541 0.006643807 -0.10673969 0.16562022 -0.068980835 0.02829308 0.08736014 -0.03459754 0.3138281 -0.04326994 0.08334563 -0.10380202 0.10053461 -0.03561942 0.060859002 -0.01091836 -0.009451145 -0.0025136843 -0.03833459 0.030754756 -0.032153875 -0.012410611 0.027438425 -0.14095692 0.0862855 0.15047856 0.100653805 -0.08858826 -0.087095864 0.055824306 -0.05814409 0.050623573 0.2561487 0.06187336 0.05107905 0.05993134 -0.028587678 -0.13886517 -0.06613486 0.06522795 0.021386674 -0.10499669 -0.010793896 0.13916075 0.050163884 0.0265491 -0.12685652 0.1086522 -0.06672906 -0.15054286 0.09740868 -0.16246651 -0.23049092 0.04715594 0.05242459 0.13954835 -0.071346484 -0.18849736 0.017327446 -0.07795786 -0.09961255 0.08338811 -0.1478605 -0.15189138 0.18999843 -0.024337037 0.06427713 0.061392095 -0.022009261 0.068700336 -0.10199554 -0.018669218 -0.0076469835 0.06820386 0.05038276 0.13362218 0.063114844 0.029897483 -0.11832988 0.054286692 -0.12744348 0.09182983 0.062207 -0.047542594 -0.0034188523 -0.019032942 0.03942461 0.06672277 -0.04172037 0.060603507 0.12638912
17 0.030970652 -0.093507715 -0.05223382 -0.023491729 0.048906125 0.018006807 0.030011239 0.17539975 -0.015069272 -0.03174682 0.02432268 0.036446024 -0.04857262 0.020785658 0.026028737 -0.08740964 -0.024834318 -0.06880287 0.015543035 -0.03925174 0.12759069 -0.030795531 0.07951624 0.08013025 0.02543957 -0.06819286 -0.22915955 0.014328318 -0.05687377 0.06375752 0.05279447 -0.038761444 -0.042615797 0.011264788 -0.0008135438 -0.08840801 0.023870297 -0.038345944 -0.10171153 -0.06828291 -0.13705403 0.06240855 0.087592006 0.05941934 -0.026720628 0.105241455 0.044548865 -0.03827526 -0.072991334 0.026968172 0.013066257 0.040318802 0.010334374 0.043889407 -0.06476795 -0.11248096 0.014870701 0.048419464 -0.0037494495 -0.021434382 -0.00530372 0.098610386 0.019606395 0.025239991 0.019513616 0.0011084855 -0.11144023 0.074507885 -0.006782607 -0.015457977 -0.08079402 0.072902516 0.037969287 -0.093206786 -0.049871743 -0.028768253 0.06898996 -0.05646753 -0.05697936 0.06255546 -0.042250313 -0.021160673 -0.017512726 0.0887494 -0.07959907 0.05614871 0.109018065 -0.047239847 -0.12578362 0.057761576 0.0037592025 -0.01881007 -0.043090686 -0.045706935 -0.09177345 0.030739384 0.009765421 -0.13123101 0.09551357 0.020002807 -0.039906435 -0.020753372 0.020121964 -0.11752426 0.064692736 0.030044654 0.1827324 0.042365104 -0.028258316 0.034279983 0.028491138 0.001480645 -0.04739043 -0.07705804 -0.044183612 -0.06744652 -0.02198174 -0.008080528 -0.09189125 -0.08057972 0.00768019 0.049645174 0.042928606 -0.13168195 -0.084287286 -0.036844265 0.08352411 -0.035627265 0.022104014 0.018600062 0.061475627 0.026907764 0.10257504 -0.10632261 0.022336626 -0.01785421 -0.05322671 0.010732391 0.064005025 -0.00076683937 0.03848214 0.0731563 0.22403334 0.016528668 0.0992112 0.14643368 0.02423055 -0.0026216302 0.030824024 0.09762921 0.110572904 0.07479564 0.055376712 -0.057426933 -0.033905335 0.06332528 -0.089138225 -0.101898395 0.03619578 0.05752767 0.035834268 -0.0054483046 0.14076199 0.09247409 0.018160397 -0.060732014 0.006318687 -0.05257453 0.09033581 -0.06626499 0.061073024 0.034196727 -0.018456465 0.19531177 0.002635823 0.04942159 -0.052377127 0.075863294 -0.060102586 0.029741034 -0.02723486 -0.0086938385 -0.010193643 -0.03238459 0.044604395 0.0207472 -0.028847832 0.047047485 -0.06972724 0.050600585 0.11422862 0.049284056 -0.006949198 -0.09963295 0.06465595 -0.066676155 0.026232526 0.17091057 0.038891338 0.039178323 0.020274336 -0.019452093 -0.080096886 -0.0056914343 0.029262891 -0.005848496 -0.037465822 -0.035899747 0.090013735 0.040201537 0.062202852 -0.049610578 0.048425198 -0.06221359 -0.14281711 0.09202517 -0.13522804 -0.14695896 0.020784207 0.014538832 0.08220885 -0.03419309 -0.107126765 -0.0014440389 -0.028485594 -0.075937286 0.04642357 -0.096320234 -0.103755735 0.17580253 -0.036828607 0.06868077 0.048847165 -0.05832335 -0.008318834 -0.08361986 -0.023662088 0.04765813 0.04489076 0.028951047 0.10203307 0.05434687 0.026216488 -0.12855078 0.044563677 -0.10382558 0.07410616 0.039490856 -0.031271245 0.029076802 -0.031377483 0.0452651 0.047210384 -0.031523492 0.05898104 0.061773326
47 0.026058996 -0.11841846 -0.054462284 -0.027288511 0.0661113 0.018011458 0.037627038 0.215174 -0.017131804 -0.05072152 0.028402867 0.060742393 -0.052262217 0.008461217 0.046813253 -0.11894947 -0.057311326 -0.091689974 0.0059103537 -0.037961025 0.1763592 -0.040403623 0.11469103 0.10205013 0.024746941 -0.06966756 -0.29148284 0.0036983038 -0.08024121 0.05958219 0.058666702 -0.03139085 -0.052054327 0.016824113 -0.007337213 -0.11207994 0.05032027 -0.056343224 -0.13230169 -0.09370076 -0.18239588 0.08938298 0.123583965 0.08135306 -0.038782675 0.14156094 0.039685704 -0.044227198 -0.10317634 0.035393327 0.014851313 0.05638115 0.023244925 0.045767475 -0.0815748 -0.13983731 0.016764259 0.06320581 -0.027979344 -0.043644216 0.013019761 0.100504726 0.030009514 0.034018025 0.01714562 -0.004576322 -0.14028457 0.09149601 -0.0053849765 -0.02290753 -0.09199309 0.074687995 0.05404141 -0.119827524 -0.042947125 -0.03493528 0.0894634 -0.07237874 -0.07664152 0.0722611 -0.042268682 -0.035842456 -0.018569367 0.08781591 -0.095086165 0.082360394 0.12656626 -0.051713914 -0.14298405 0.07964513 0.016775852 -0.004724143 -0.057872433 -0.06326309 -0.11019205 0.052184895 0.0065872255 -0.1640414 0.11619999 0.035031073 -0.033114087 -0.021372074 0.025627855 -0.1414844 0.07493559 0.038295086 0.23749049 0.080290325 -0.026872281 0.038377173 0.024257353 0.0065216967 -0.06944444 -0.093317136 -0.06875995 -0.08331203 -0.034574304 -0.012043784 -0.116163194 -0.11256316 0.016263075 0.042649433 0.043394804 -0.1805135 -0.089653976 -0.04526405 0.10352714 -0.041925456 0.03047531 0.03954424 0.072132505 0.025535861 0.13434589 -0.14569177 0.009764129 -0.03134848 -0.076125704 0.020629782 0.063675456 -0.00020953886 0.06339767 0.090699926 0.289633 0.018857302 0.10866646 0.1910465 0.010561629 -0.0057188147 0.037350483 0.1429066 0.15627302 0.085330576 0.053737734 -0.062936716 -0.05732381 0.062025215 -0.118164144 -0.1330912 0.041052654 0.07216191 0.03304036 -0.0077858316 0.18120861 0.098599225 0.024788173 -0.07610906 0.010242779 -0.07616628 0.12949772 -0.079559825 0.06051158 0.058268126 -0.025340041 0.26500747 -0.008808057 0.068267025 -0.0775017 0.093577616 -0.06332232 0.043617673 -0.026444856 -0.007375224 -0.008149343 -0.039126754 0.049466755 0.008175617 -0.0286116 0.049042065 -0.10037396 0.06901319 0.14625052 0.07341192 -0.031152878 -0.11364471 0.07382908 -0.072185956 0.03298388 0.22649103 0.053308547 0.047255285 0.03685462 -0.027155057 -0.1120469 -0.028132493 0.04700479 0.002707644 -0.06658767 -0.032163274 0.120382376 0.050860334 0.06110233 -0.08048105 0.07767289 -0.07539341 -0.16561225 0.11000555 -0.1644435 -0.1961233 0.030292884 0.029647425 0.11196493 -0.049688425 -0.14949365 0.005292141 -0.043404363 -0.094804764 0.06515212 -0.12828715 -0.13432766 0.20608422 -0.038190525 0.07881923 0.058852807 -0.055111945 0.015248349 -0.103129715 -0.024753908 0.03867613 0.05726491 0.041873705 0.12800166 0.063788086 0.03112434 -0.14538363 0.051455278 -0.12524231 0.09207261 0.051441137 -0.043301374 0.025047611 -0.03248087 0.052790124 0.059838638 -0.04229127 0.07094202 0.089537375
20 0.025864381 -0.09316373 -0.04703427 -0.021802437 0.051054202 0.015151897 0.030289326 0.17188415 -0.015084712 -0.0384199 0.02352336 0.0398055 -0.042970818 0.011793408 0.029605381 -0.09094568 -0.03638453 -0.06649482 0.010518553 -0.03501714 0.13412008 -0.031977158 0.08489305 0.08077439 0.020825839 -0.059806496 -0.22759835 0.007030509 -0.058362156 0.054595783 0.048311137 -0.032465003 -0.042041488 0.014956496 -0.0029380906 -0.08722051 0.03174665 -0.042115197 -0.10263774 -0.07198119 -0.1407294 0.064625904 0.09163433 0.06112389 -0.028268455 0.10945988 0.03771231 -0.037600882 -0.07492794 0.02330048 0.008629459 0.04195867 0.01565583 0.03834065 -0.06620626 -0.10953434 0.015777817 0.045457613 -0.016351022 -0.024311583 0.0042670397 0.09081278 0.022816077 0.028522424 0.016203528 -0.0011480914 -0.10998733 0.07216792 -0.0057119755 -0.014650245 -0.07646996 0.06810476 0.038457345 -0.09270183 -0.042719375 -0.025946239 0.070633784 -0.0555855 -0.057014022 0.06180097 -0.038248114 -0.025330072 -0.01701728 0.07648107 -0.07565609 0.060863312 0.101119645 -0.043535892 -0.12199102 0.061747104 0.012471386 -0.010794229 -0.042151853 -0.050157964 -0.08834921 0.035877828 0.0066933604 -0.12915486 0.09269405 0.027009854 -0.035763986 -0.020921988 0.017063262 -0.1114357 0.06238052 0.03172746 0.18514384 0.054210596 -0.022494545 0.030963756 0.02197036 0.0023486644 -0.05089193 -0.07510587 -0.05130188 -0.06830906 -0.02202899 -0.009149888 -0.091081016 -0.08293408 0.010001128 0.040880725 0.038788646 -0.1371993 -0.07570826 -0.036193483 0.0808649 -0.036500204 0.02286847 0.026359674 0.059842348 0.025053257 0.1038041 -0.11057389 0.013666334 -0.021676613 -0.056010045 0.012333789 0.055063628 0.0009472899 0.043308906 0.07578896 0.22758813 0.011405099 0.09231042 0.14565362 0.016292071 -0.0047320477 0.029230319 0.10474484 0.11748038 0.06930022 0.050477043 -0.05107517 -0.038677715 0.053483654 -0.08659884 -0.10503516 0.034893647 0.057997454 0.031258766 -0.0038480065 0.14354469 0.08384224 0.01921707 -0.056708742 0.0055874763 -0.053867176 0.09576467 -0.066667125 0.05338016 0.038114935 -0.021457266 0.20304602 -0.002921932 0.051415637 -0.056427658 0.0744262 -0.052194003 0.03091014 -0.024397524 -0.009277594 -0.008187224 -0.031463515 0.041864667 0.015075242 -0.025256852 0.042490352 -0.076056905 0.052017942 0.113176174 0.05676986 -0.013755738 -0.09637352 0.06113307 -0.05999542 0.026804455 0.17283364 0.042801153 0.03985671 0.027170513 -0.018002963 -0.0867646 -0.012763204 0.032015987 -0.00010155213 -0.04550632 -0.032602306 0.092677854 0.037795063 0.054205813 -0.055692155 0.053287216 -0.060056657 -0.13689066 0.09015433 -0.13303006 -0.14977907 0.024832522 0.021177191 0.08571796 -0.037795942 -0.11267144 0.0032740603 -0.032265447 -0.0778662 0.051173836 -0.09730555 -0.10454433 0.1702197 -0.03354386 0.06630316 0.044836544 -0.047930688 0.0028883624 -0.079967625 -0.023021301 0.03738573 0.047609057 0.029085731 0.1028145 0.05328424 0.024172103 -0.11914576 0.045471307 -0.10181014 0.072851665 0.042127278 -0.031592768 0.021346647 -0.027787935 0.043285184 0.050138634 -0.029829271 0.05782755 0.06552829
41 0.0105910925 -0.1172354 -0.03857375 -0.019990912 0.07067794 0.012330062 0.040510688 0.2036627 -0.007011164 -0.06469749 0.029698946 0.07981264 -0.04287686 -0.008385097 0.05680893 -0.123854294 -0.08568767 -0.09359248 -0.010234315 -0.020603504 0.18897961 -0.048304506 0.128221 0.097400144 0.013783835 -0.04779439 -0.29765463 -0.01578252 -0.08321116 0.042805336 0.052193306 -0.009870481 -0.051630042 0.02792899 -0.020712085 -0.11433735 0.07215948 -0.060421176 -0.13417438 -0.097834274 -0.18946181 0.092467144 0.13666034 0.0868168 -0.048216518 0.15279312 0.023076119 -0.035551976 -0.110852465 0.030290477 0.005384848 0.057779152 0.03264936 0.030251529 -0.08043211 -0.13561052 0.014582048 0.06773827 -0.05483343 -0.061413992 0.037162382 0.0765211 0.040805556 0.041378934 0.012702046 -0.0048422907 -0.14076187 0.0801845 0.0046680397 -0.023809245 -0.07952516 0.057653133 0.057997175 -0.120096646 -0.017649127 -0.024429705 0.09103748 -0.07352822 -0.07632417 0.06607633 -0.027673041 -0.042364743 -0.010917839 0.06350162 -0.09090117 0.088209584 0.11427783 -0.043847617 -0.12454813 0.08706689 0.031853817 0.01707836 -0.056593228 -0.0700825 -0.10570052 0.06697379 0.0025769041 -0.15304445 0.11744024 0.05285723 -0.01694324 -0.020995157 0.021996086 -0.1287929 0.07181302 0.03733131 0.24564725 0.10456642 -0.017581781 0.029017268 0.0058127046 0.007088507 -0.07921284 -0.08756509 -0.08737836 -0.08525165 -0.042475056 -0.010222586 -0.11305847 -0.12787835 0.024813717 0.01536793 0.037052043 -0.18580154 -0.07313887 -0.04926356 0.1022421 -0.044481058 0.034824207 0.05655656 0.067681454 0.01881294 0.13379458 -0.15279086 -0.007281473 -0.03922042 -0.08632175 0.03140148 0.047284234 0.0035118647 0.072310254 0.091965914 0.29729632 0.010510155 0.092310086 0.19381432 -0.015099249 -0.010229727 0.034173798 0.16084875 0.17287609 0.07367263 0.033640012 -0.048068695 -0.07386084 0.045201994 -0.11871969 -0.1325935 0.041439474 0.0648239 0.014273672 -0.012880438 0.18640864 0.07975477 0.029852362 -0.0721949 0.0055949483 -0.08657707 0.14201412 -0.07189638 0.042367965 0.068689555 -0.02789697 0.27532738 -0.026832929 0.07460183 -0.084152654 0.09310897 -0.04470199 0.048748452 -0.016614376 -0.010410756 -0.002265031 -0.035818815 0.03766289 -0.013293973 -0.018166333 0.03540746 -0.1164203 0.07319238 0.13947842 0.08595342 -0.06134489 -0.095198065 0.06412985 -0.061400898 0.04257631 0.23145851 0.054283302 0.04593555 0.045621622 -0.025664276 -0.12203252 -0.0440066 0.054659415 0.014522867 -0.081988186 -0.021064887 0.122443706 0.04729787 0.03990038 -0.09950635 0.08738285 -0.064572364 -0.15124875 0.09908123 -0.15447809 -0.20696442 0.040862143 0.038298294 0.12270893 -0.059925318 -0.16203685 0.009664291 -0.062490195 -0.09637978 0.07404623 -0.1333445 -0.13714986 0.19146536 -0.026368538 0.06856738 0.05738542 -0.03916192 0.045361646 -0.09643896 -0.02126082 0.011642212 0.062875696 0.046368834 0.1256597 0.060854465 0.028933527 -0.1266642 0.05303504 -0.12150279 0.08881516 0.052839823 -0.04131941 0.0063130637 -0.024304576 0.041102987 0.060018502 -0.04083886 0.061235018 0.10445073
39 0.015493408 -0.11879795 -0.043793436 -0.02291256 0.07362293 0.015721345 0.040942308 0.21502759 -0.011294878 -0.061725553 0.029978406 0.07430039 -0.04597313 -0.0039097858 0.054347835 -0.12920655 -0.08149092 -0.09549351 -0.007628483 -0.026870664 0.19322586 -0.044737823 0.13200046 0.10368657 0.014094121 -0.055740234 -0.305271 -0.008821195 -0.0855774 0.05048348 0.05736305 -0.01990205 -0.05253941 0.023717286 -0.01508643 -0.11870331 0.06785537 -0.059488535 -0.13635583 -0.100947626 -0.19291492 0.09515646 0.13646495 0.087571084 -0.047505856 0.156021 0.028192334 -0.03943891 -0.11012539 0.035642277 0.00678862 0.060493685 0.031285863 0.036885988 -0.08419878 -0.13924244 0.014589007 0.068501316 -0.047148272 -0.055443678 0.028771618 0.08819467 0.036949746 0.038394906 0.0125110885 -0.0051011583 -0.14172143 0.087456994 0.002758779 -0.026208663 -0.08483033 0.06747438 0.055520456 -0.12497547 -0.023576563 -0.025882445 0.09272603 -0.075027466 -0.0783339 0.06714896 -0.032987207 -0.039222773 -0.013561692 0.07251056 -0.09659488 0.09114894 0.12438747 -0.046714254 -0.1343002 0.09015519 0.028587878 0.0110109 -0.0562951 -0.06879415 -0.109724075 0.06446591 0.0045822193 -0.16174318 0.12094503 0.04863789 -0.022684472 -0.018139116 0.019867135 -0.1361252 0.0760524 0.037211113 0.2514255 0.10233159 -0.019792086 0.029691631 0.011056474 0.009458449 -0.07714139 -0.09024591 -0.08435555 -0.086928606 -0.04064416 -0.012167104 -0.11994684 -0.12918429 0.024252309 0.024323165 0.042311892 -0.19260874 -0.07775173 -0.047757905 0.104899146 -0.04490904 0.03906075 0.052998014 0.06951426 0.0200267 0.13716231 -0.15710175 -0.0020242268 -0.038874727 -0.08445959 0.028760891 0.051378317 0.0055828546 0.0692675 0.09393149 0.30313593 0.010321232 0.09992306 0.19818075 -0.0044872668 -0.0077509014 0.03476119 0.15888008 0.17060702 0.080400065 0.038151875 -0.051008265 -0.06963395 0.050275546 -0.12118628 -0.13747972 0.043466963 0.071577735 0.018435378 -0.009107768 0.19006303 0.087401316 0.029545218 -0.07534729 0.006035051 -0.087436505 0.14284363 -0.076028444 0.046998557 0.07005549 -0.03075049 0.27970386 -0.023020029 0.07476156 -0.0847937 0.09458731 -0.051106047 0.051526804 -0.01962358 -0.010972127 -0.0047274483 -0.03816052 0.04106614 -0.010319915 -0.020745696 0.042602144 -0.11792806 0.07456236 0.14816286 0.08112674 -0.055897806 -0.10262404 0.06766144 -0.067163445 0.042000595 0.23469597 0.05720351 0.048427336 0.043239594 -0.027026871 -0.12020876 -0.04198095 0.051849898 0.010860195 -0.079519436 -0.026275463 0.1283555 0.04956282 0.049682315 -0.09922907 0.087249056 -0.07187853 -0.16178079 0.105069 -0.16263533 -0.21105765 0.038487766 0.037040614 0.123598635 -0.056713708 -0.16551958 0.008097948 -0.056117143 -0.09762064 0.07300418 -0.13745981 -0.14189373 0.19941114 -0.030974396 0.071198106 0.05805788 -0.04456171 0.037735123 -0.10261153 -0.021168182 0.020937875 0.061980616 0.043354753 0.130233 0.06405551 0.028853461 -0.1367873 0.054404806 -0.12697795 0.09122374 0.057380036 -0.042407963 0.014083935 -0.025627036 0.047331925 0.06240428 -0.03983338 0.06455814 0.102439635
18 0.014833856 -0.10299212 -0.039178908 -0.02000973 0.061760444 0.01138386 0.033296753 0.18447545 -0.007688079 -0.05093382 0.025522279 0.06746037 -0.037802983 -0.0038177106 0.04815829 -0.11259667 -0.07085504 -0.082486026 -0.00784193 -0.021892322 0.1674366 -0.039838303 0.114271745 0.08778232 0.015492149 -0.045987602 -0.26142728 -0.010258348 -0.07205973 0.042765424 0.047898013 -0.013555276 -0.044152237 0.02266275 -0.0138555225 -0.102682725 0.058597457 -0.05244604 -0.116647825 -0.08468312 -0.16829853 0.084002204 0.11678671 0.07644532 -0.041957457 0.13374646 0.021578183 -0.034107897 -0.09597092 0.02850127 0.0063026245 0.049628742 0.028922778 0.033954967 -0.07296643 -0.11878526 0.013389198 0.056340985 -0.043870218 -0.049704548 0.028550299 0.07075576 0.033417884 0.03322407 0.01348289 -0.0039828233 -0.12329702 0.07296893 0.0030809175 -0.020769589 -0.07525617 0.055800036 0.05055708 -0.10990206 -0.018296601 -0.021964641 0.08176066 -0.064395495 -0.06764527 0.058321644 -0.030168489 -0.034048147 -0.009698544 0.060587663 -0.084560014 0.07943584 0.10629989 -0.040809058 -0.1158357 0.07830785 0.025580566 0.008358027 -0.049271736 -0.061225597 -0.09559908 0.056159914 0.0033279636 -0.13796847 0.10449159 0.04007654 -0.017146565 -0.016044402 0.0191565 -0.11592092 0.063652426 0.032738924 0.21509741 0.08576096 -0.01635404 0.025730917 0.007848132 0.0059098764 -0.068707936 -0.07831119 -0.0714391 -0.07561335 -0.03451207 -0.010568003 -0.0996373 -0.1107401 0.020892745 0.019118514 0.034185883 -0.16608411 -0.06641679 -0.04408179 0.08880156 -0.038467154 0.030806417 0.04811888 0.061803464 0.017197376 0.118401535 -0.13474506 -0.0046202242 -0.03219752 -0.07469268 0.02272611 0.045889545 0.005245453 0.061334487 0.08011141 0.26252514 0.0109677175 0.08331619 0.1707149 -0.006812967 -0.007546098 0.03244207 0.13690652 0.15029894 0.06988824 0.030767359 -0.043421928 -0.061247595 0.042010196 -0.10423353 -0.11743879 0.035312768 0.058231167 0.017057681 -0.009497107 0.16352347 0.07408523 0.023119513 -0.06603568 0.006087252 -0.07508985 0.12238076 -0.06498927 0.04101465 0.061459437 -0.02598253 0.24228674 -0.020935845 0.06264434 -0.07266479 0.081883594 -0.046598196 0.044920947 -0.018586244 -0.007650724 -0.006205398 -0.03498532 0.03596332 -0.010016435 -0.017519847 0.033766568 -0.10234882 0.0646768 0.12555265 0.07340415 -0.04718251 -0.086554036 0.056944128 -0.057302468 0.032711867 0.2045052 0.04777713 0.042629343 0.038990848 -0.025105765 -0.10486235 -0.034404196 0.046419773 0.0073210606 -0.068710424 -0.020947391 0.10823138 0.04518391 0.04009553 -0.08486533 0.075080685 -0.05885139 -0.13605678 0.08787401 -0.13941932 -0.18025447 0.032604024 0.03171197 0.10617587 -0.052784145 -0.14090735 0.009974954 -0.049832687 -0.08559065 0.063190356 -0.1173106 -0.122263834 0.17337723 -0.027953094 0.063470565 0.048551638 -0.038122494 0.031215107 -0.08822237 -0.017591352 0.015987752 0.0524201 0.038878705 0.1110502 0.053776953 0.02567033 -0.11520688 0.047694325 -0.110119075 0.08033859 0.048586793 -0.038228557 0.011265076 -0.022021862 0.038235348 0.052797653 -0.036954686 0.05754045 0.091182105
13 0.023327172 -0.1397206 -0.05312993 -0.029684784 0.08008992 0.01704047 0.04909615 0.24813965 -0.014328174 -0.06703747 0.032286778 0.08462526 -0.055871084 -0.0005354338 0.06390297 -0.15006998 -0.09101969 -0.114609346 -0.0068450435 -0.039166298 0.22197853 -0.051732007 0.1473089 0.11875081 0.019567525 -0.06935136 -0.35063493 -0.007959991 -0.098005 0.05948764 0.0644445 -0.022900518 -0.062133133 0.024280917 -0.016110636 -0.13682637 0.078487255 -0.068662144 -0.15838261 -0.11792734 -0.22450086 0.11097211 0.15786706 0.10346922 -0.053484198 0.1779351 0.03783978 -0.04605856 -0.13090491 0.043584492 0.010651761 0.07030102 0.035097986 0.049207415 -0.09907678 -0.1657845 0.016640296 0.07771137 -0.05083579 -0.0654118 0.03369359 0.10319267 0.04125827 0.041263923 0.018651446 -0.007239166 -0.16933107 0.10208791 0.0011065867 -0.033558745 -0.103694096 0.077371255 0.065796725 -0.14778097 -0.030283071 -0.035988986 0.108949214 -0.09047028 -0.094547264 0.08000814 -0.040045585 -0.047908343 -0.016258158 0.08819859 -0.114472 0.10561115 0.14636321 -0.05573077 -0.15946116 0.10400614 0.031038752 0.007888666 -0.07136496 -0.08020232 -0.12769389 0.0711508 0.008270052 -0.1926168 0.13823682 0.050342824 -0.023711322 -0.023539154 0.028166685 -0.16185728 0.085444905 0.041640036 0.29185626 0.11034374 -0.023171581 0.03776054 0.01693013 0.010751038 -0.091043234 -0.10305963 -0.09430659 -0.10140044 -0.047206152 -0.009012851 -0.1360245 -0.147758 0.025818955 0.03573768 0.049638607 -0.22208337 -0.0950313 -0.05386318 0.12402423 -0.047419094 0.039357547 0.057625785 0.08066826 0.023531606 0.1631565 -0.1792973 -0.00082521496 -0.04401298 -0.097694725 0.033443414 0.06568035 0.002867925 0.081001684 0.10727415 0.35237268 0.016177028 0.11823238 0.22969298 -0.0046638544 -0.0064915274 0.043056313 0.18459775 0.19616722 0.0929417 0.046224955 -0.067507826 -0.07807222 0.06252908 -0.14208755 -0.16145702 0.04888577 0.08074013 0.02581187 -0.016631039 0.21665002 0.102614515 0.03111911 -0.090847485 0.009409361 -0.10183068 0.16351777 -0.085610844 0.060415253 0.079156 -0.031346556 0.32454672 -0.023148317 0.0857346 -0.096439324 0.10869007 -0.064498946 0.05865198 -0.028357143 -0.009825111 -0.007955859 -0.0462834 0.04873911 -0.005475719 -0.030433642 0.053178985 -0.1318963 0.08561552 0.1683539 0.09462847 -0.0604929 -0.12341833 0.082722574 -0.0773987 0.04551988 0.27319607 0.06746516 0.05646327 0.05090992 -0.0325237 -0.13929832 -0.045301337 0.06006292 0.00930112 -0.091401204 -0.029928714 0.1441339 0.05861403 0.058577623 -0.11203458 0.101053685 -0.08147575 -0.18855076 0.12139044 -0.18656653 -0.23826648 0.042149596 0.039795116 0.13926426 -0.06703112 -0.18892314 0.007908047 -0.06318119 -0.113560125 0.07955959 -0.16052605 -0.16461553 0.2361555 -0.036890943 0.08825504 0.06921665 -0.055092555 0.03780013 -0.12154042 -0.02293841 0.031332735 0.07328199 0.05271386 0.1464233 0.07556106 0.038447298 -0.15899445 0.06006311 -0.14603196 0.107733235 0.063433066 -0.050887905 0.017886177 -0.029382782 0.056684427 0.0704484 -0.05261887 0.07696708 0.12021171
14 0.019648122 -0.13172954 -0.04827028 -0.027739644 0.07671472 0.016866663 0.043701034 0.23221084 -0.014370667 -0.06267314 0.029533973 0.08073905 -0.053915568 0.0007510942 0.05881676 -0.13900065 -0.0818579 -0.105529286 -0.00501704 -0.036314297 0.20689815 -0.04622499 0.13891646 0.11137881 0.019285647 -0.06357684 -0.32707447 -0.0066546407 -0.09381299 0.057623293 0.06226646 -0.02190054 -0.058218174 0.026159177 -0.0137485545 -0.12719855 0.069941625 -0.065606296 -0.1485666 -0.10900414 -0.21195224 0.10351238 0.14837128 0.09698092 -0.05013376 0.16480187 0.035582148 -0.042517286 -0.12055767 0.041054234 0.010101918 0.06394041 0.031197967 0.04635492 -0.0914135 -0.15422165 0.015522706 0.07541532 -0.049779575 -0.060537234 0.029844891 0.09513257 0.040779646 0.0381611 0.0144705465 -0.0042965245 -0.15522271 0.09443944 -0.0004948537 -0.030289935 -0.09712311 0.074789025 0.06002002 -0.13448262 -0.027760701 -0.031082211 0.10295975 -0.08369101 -0.08701089 0.07404024 -0.03871958 -0.042739816 -0.013588583 0.085464 -0.10684963 0.10002133 0.13461499 -0.052847195 -0.1467736 0.0948595 0.02697011 0.0073112077 -0.065062486 -0.07403151 -0.12056514 0.069409914 0.006040303 -0.1763402 0.13233034 0.047662478 -0.025379673 -0.02249522 0.026165204 -0.1496393 0.07865987 0.04161954 0.2728751 0.105764106 -0.023615194 0.03607169 0.012353966 0.008183671 -0.085091904 -0.09679564 -0.084572695 -0.09404949 -0.043455657 -0.010613572 -0.12805662 -0.13560596 0.024119921 0.031097451 0.044476133 -0.20924391 -0.08719583 -0.052439775 0.113702446 -0.04584844 0.03927177 0.054669183 0.07548627 0.024861526 0.1519231 -0.16798513 -0.0012552381 -0.037405957 -0.09128994 0.02744491 0.0637601 0.004898933 0.07647499 0.10186133 0.32589585 0.01656285 0.11341754 0.21595003 -0.0010979667 -0.0075554713 0.040818837 0.17031842 0.18509758 0.08821251 0.046293847 -0.060030967 -0.07265374 0.057337634 -0.13376167 -0.14910406 0.045769982 0.07601405 0.024549268 -0.014676958 0.2042757 0.099612504 0.03009064 -0.08480126 0.0077550616 -0.09498238 0.15475065 -0.08200589 0.05573775 0.07352346 -0.031137794 0.30489823 -0.019598057 0.08090206 -0.092565715 0.10189889 -0.062038224 0.052170534 -0.024409967 -0.0091895135 -0.0061919848 -0.041153684 0.044916272 -0.005817802 -0.026484067 0.046621468 -0.12601973 0.08075072 0.15992849 0.08498839 -0.054320917 -0.11593568 0.077926844 -0.07491251 0.042933274 0.25734484 0.06108976 0.053285632 0.048207693 -0.028715871 -0.12804466 -0.04339372 0.057197597 0.006978094 -0.084231846 -0.02998716 0.13550344 0.05398612 0.052737955 -0.10144219 0.09387283 -0.074707896 -0.17537645 0.11274538 -0.17535697 -0.22421604 0.036268923 0.039325643 0.13153252 -0.060853343 -0.17295127 0.009382717 -0.058869045 -0.103652634 0.0745345 -0.14805591 -0.15255645 0.21805182 -0.033526715 0.082201146 0.06298542 -0.052803114 0.03229765 -0.1116419 -0.024803098 0.029554645 0.06805458 0.047377493 0.13596833 0.07113558 0.035489015 -0.14902574 0.057805676 -0.13555628 0.10081446 0.057943404 -0.04769987 0.02012786 -0.03033925 0.051484544 0.06814157 -0.046651192 0.074158765 0.111696415
1 0.0070672124 -0.11439832 -0.03277912 -0.02048511 0.06813905 0.00811684 0.03940489 0.19799066 -0.0057581565 -0.061898272 0.02622261 0.080077596 -0.03764967 -0.011322159 0.056853812 -0.12632981 -0.08835824 -0.09513586 -0.013058512 -0.021607067 0.18807982 -0.045136474 0.13076125 0.09481401 0.012012415 -0.042672344 -0.2857752 -0.01680215 -0.08179471 0.036114864 0.046903457 -0.0063264216 -0.048011236 0.025439445 -0.020632448 -0.11320674 0.07333324 -0.060907017 -0.12766495 -0.09961698 -0.18920285 0.09177779 0.13645248 0.08869574 -0.049242243 0.14686534 0.017684564 -0.033824064 -0.10883306 0.034738593 0.0033998918 0.059203725 0.033610415 0.032132383 -0.08039878 -0.13017385 0.012317881 0.0674877 -0.058951113 -0.061398745 0.0413056 0.06568193 0.03817763 0.036977157 0.008507701 -0.0058600795 -0.13448079 0.07949319 0.0021583468 -0.026411904 -0.07631662 0.05102136 0.057852164 -0.119837485 -0.011287054 -0.023723735 0.09004017 -0.0743296 -0.07522741 0.058240388 -0.025397524 -0.043692518 -0.00837558 0.055518854 -0.08998926 0.08966386 0.109753735 -0.04091642 -0.11481273 0.0876814 0.032769326 0.020073589 -0.05665106 -0.06678021 -0.10027448 0.066433094 0.0038605693 -0.15143573 0.113950245 0.050643444 -0.010338316 -0.015893448 0.02150205 -0.12359436 0.06736606 0.036295544 0.24098973 0.1075419 -0.013581632 0.027901014 0.002037216 0.009518278 -0.07700294 -0.07913585 -0.08532206 -0.08146845 -0.039332435 -0.0075157336 -0.1113624 -0.1281328 0.026686585 0.014552407 0.03214969 -0.18602934 -0.06676635 -0.046249967 0.09720029 -0.038205255 0.038022507 0.058434617 0.06431413 0.012883379 0.13008161 -0.15016277 -0.012009836 -0.0389104 -0.083336614 0.030649452 0.040777676 0.005936627 0.07254036 0.08480329 0.28959483 0.007869337 0.08508905 0.18867995 -0.01694309 -0.007453666 0.032884747 0.15794237 0.17123602 0.06882213 0.025499515 -0.0425403 -0.07455757 0.038225893 -0.11964802 -0.13158455 0.038150813 0.06146572 0.010942362 -0.012657945 0.17687833 0.07217012 0.026689665 -0.072493255 0.007819724 -0.08964183 0.14303963 -0.06744431 0.038378786 0.07126995 -0.02823989 0.27265424 -0.02948387 0.07181677 -0.08574731 0.08870338 -0.042001255 0.051508687 -0.013931402 -0.010269821 -0.0045784498 -0.03787474 0.032881547 -0.019816125 -0.017381923 0.033182766 -0.1184731 0.070375405 0.136638 0.082510635 -0.06503874 -0.09029514 0.059456244 -0.056437578 0.039732948 0.22428614 0.053078055 0.043629274 0.047762204 -0.026239693 -0.119697824 -0.049127888 0.054832093 0.016014002 -0.0819484 -0.019905625 0.11984751 0.048058018 0.03439895 -0.10175997 0.087958924 -0.061594073 -0.14133215 0.092116795 -0.14841773 -0.20163587 0.039116163 0.03852081 0.11963014 -0.061052825 -0.16272955 0.012473682 -0.059523016 -0.08972091 0.07098442 -0.13218714 -0.13507438 0.17865679 -0.021973858 0.06548803 0.056374893 -0.03319631 0.048783608 -0.09654521 -0.018622693 0.010069222 0.057558928 0.04275524 0.11812853 0.05781459 0.028591616 -0.11931333 0.04937498 -0.1148713 0.08438511 0.052510705 -0.040696632 0.005116238 -0.01812901 0.041590605 0.05967895 -0.04073778 0.058032904 0.107094415
25 0.017685397 -0.12725085 -0.049390752 -0.025975151 0.07162533 0.014762251 0.04283803 0.22402127 -0.010698386 -0.062458616 0.029521842 0.077065125 -0.05117647 0.002013521 0.057333086 -0.13789167 -0.08092235 -0.10433467 -0.0050166105 -0.03207314 0.20157325 -0.047534328 0.13720585 0.10822427 0.019747047 -0.063822 -0.31817174 -0.009743443 -0.091379955 0.054416336 0.059978146 -0.020770883 -0.055364586 0.021506593 -0.016726194 -0.12186352 0.068168335 -0.062341858 -0.14490335 -0.10763435 -0.20605953 0.1019967 0.14237888 0.091209956 -0.04752729 0.16173 0.034326088 -0.039988484 -0.11595938 0.03862475 0.00861745 0.06392651 0.032038156 0.04422745 -0.09029662 -0.14952883 0.018121382 0.06950246 -0.04820202 -0.057047334 0.029399958 0.093629 0.03942517 0.037691515 0.013514597 -0.006549768 -0.15236722 0.0941167 -0.0019972438 -0.028425714 -0.09239727 0.068774156 0.060893502 -0.13130814 -0.027689332 -0.03288128 0.09759775 -0.080023095 -0.08319085 0.07231351 -0.03581328 -0.043273117 -0.014085221 0.07796079 -0.10217678 0.095362574 0.13107774 -0.05207686 -0.14434457 0.090791665 0.025475757 0.007854594 -0.061517984 -0.0724888 -0.116485074 0.06683776 0.007537346 -0.17274742 0.12700836 0.046713594 -0.023847936 -0.020484135 0.024197211 -0.14542606 0.078659184 0.03834512 0.263521 0.10248267 -0.019007705 0.034723006 0.012212512 0.010254771 -0.081348024 -0.095200405 -0.08654523 -0.09096265 -0.039966594 -0.009902677 -0.12382438 -0.13386358 0.024067027 0.032173797 0.04235608 -0.2035315 -0.08561889 -0.047657628 0.10947499 -0.04437047 0.036573056 0.05147661 0.075421065 0.02053292 0.14553826 -0.16247454 0.0015456643 -0.036310013 -0.08743861 0.030669661 0.05793354 0.0024749814 0.074641794 0.0961727 0.31875652 0.016032897 0.10710356 0.20991768 -0.00350181 -0.006290039 0.041724127 0.16708449 0.1802944 0.08527306 0.04041246 -0.05897439 -0.07219391 0.054216366 -0.13128453 -0.14722136 0.044902258 0.073570035 0.024053471 -0.012003035 0.19462316 0.095193654 0.027387802 -0.08155267 0.008913702 -0.09339358 0.15180771 -0.077552505 0.051185016 0.07352216 -0.028664615 0.29498172 -0.02166108 0.07474144 -0.086650066 0.09881397 -0.056985863 0.051837172 -0.021670505 -0.011375688 -0.008224034 -0.041735914 0.045240093 -0.008897006 -0.026048012 0.047026936 -0.12246045 0.075827934 0.15336479 0.08263092 -0.05500574 -0.11000223 0.07567447 -0.07263678 0.040455792 0.25003827 0.06117862 0.05018788 0.04652594 -0.030279934 -0.12536149 -0.042189103 0.054904047 0.0063339244 -0.080762796 -0.027320324 0.1334081 0.05416134 0.05357774 -0.10058954 0.092638955 -0.074179254 -0.16893095 0.111853406 -0.1711103 -0.21779782 0.038612105 0.034302283 0.12827225 -0.06211955 -0.16827549 0.008019586 -0.05760029 -0.10237495 0.071896106 -0.14632316 -0.14775681 0.2113295 -0.03144367 0.08146045 0.06125852 -0.05129073 0.03441969 -0.10996989 -0.023405882 0.02691969 0.06615913 0.04608302 0.13120013 0.06693017 0.032195847 -0.14415857 0.054567546 -0.13168582 0.096951835 0.056268077 -0.046427432 0.01866927 -0.025500655 0.050256025 0.06270806 -0.0481588 0.07040247 0.109345004
