15 256
14 -0.10463762 -0.22728318 0.096559204 -0.10210067 0.09285027 0.08218863 -0.05098484 0.06737888 -0.008824377 -0.04538186 0.12803099 0.27088013 -0.14350438 -0.046992723 0.100814946 -0.06520817 0.019999249 -0.025048124 0.052924454 -0.16126797 0.16685037 0.14993273 0.022093976 0.06952906 -0.14366178 -0.046285953 0.09166573 0.04708467 -0.07829503 0.04366056 0.03196405 -0.10114841 -0.15603393 0.1972469 0.027742969 -0.06464112 0.2556273 0.09080366 -0.059985913 -0.010204512 -0.14110087 -0.078384526 0.35230604 0.29210734 -0.09621507 0.245053 0.19007327 -0.16085427 -0.04824307 0.028488882 -0.053486437 0.0037603225 0.031209113 0.053922035 -0.21799742 -0.16458456 -0.057002354 0.124851756 -0.2474153 -0.022714658 0.13093391 -0.15494907 -0.0208765 0.0689512 -0.12620638 0.10654928 -0.030050324 -0.19713959 -0.11951805 -0.31581074 0.03227698 0.07834797 0.0758058 0.080703914 0.3816292 0.03067895 0.21566038 0.00015848718 -0.21008286 -0.049435824 -0.16966014 -0.1143934 -0.0921407 0.1802808 -0.25354758 0.1906289 0.08419278 -0.16833887 0.13685559 -0.13869956 0.12711222 0.072837435 0.06683494 -0.0016815371 -0.18437415 0.14686324 -0.16584139 -0.28135583 0.18886983 0.15795816 -0.17162186 -0.17438422 0.006928574 0.09889419 -0.265797 -0.030511374 0.32800984 0.33416924 -0.15109222 -0.18112266 -0.06290693 -0.06829598 0.02330797 0.015349728 -0.009318185 0.11371296 -0.09270249 0.20012382 -0.22690968 -0.1305214 -0.10037407 -0.26404613 0.06977888 -0.32743913 -0.09923928 -0.0024413886 0.023651987 0.124465175 0.411149 0.10695804 -0.07888103 -0.0077877166 0.19869798 -0.09806769 -0.1035746 0.052364968 -0.053696346 -0.15746258 0.15411116 0.1519167 0.027531793 0.058694232 0.1647315 -0.07344458 0.110426284 0.19757211 -0.1684735 0.09715795 0.12795687 -0.0019391389 0.21684659 -0.072715275 0.110027134 0.010552213 -0.06256323 -0.110663615 -0.0076317135 0.007634963 0.0739891 -0.06543456 0.09995505 0.03548461 0.04986777 -0.011694315 0.10045569 -0.17030175 -0.26200226 -0.0901696 0.14842245 0.13788106 -0.1620356 0.2407328 -0.01088868 0.41442424 0.08240382 0.17829598 -0.01650463 -0.14029232 -0.1511616 0.044987738 0.07819473 0.033117767 0.20845282 -0.028246053 0.038730294 -0.09292998 0.05456062 -0.05820486 -0.21716547 0.14917322 0.10835584 0.07257135 0.046796717 -0.19817455 -0.12851267 0.06516232 0.2160934 0.30228263 -0.16834614 0.18993269 0.3165344 0.18913831 0.1530335 -0.30637783 0.1021484 0.19877617 -0.0010202897 -0.038150586 -0.040651668 -0.0152425645 0.09544633 -0.106336586 -0.08382298 -0.04812052 -0.15074264 -0.14828056 0.08924604 -0.0707852 -0.30467352 0.075210154 0.15664326 0.07066818 0.1338701 -0.15642959 0.0024334635 -0.12846917 -0.14817688 -0.06363501 -0.028218795 -0.018768098 -0.16645625 -0.108157404 0.12425703 0.059534002 0.12822275 -0.010762923 -0.05022154 -0.13367362 0.12733574 -0.13523181 -0.20426773 0.13173012 0.10106266 0.19128847 0.016944088 -0.033475246 -0.048541844 0.05294422 0.0762323 0.3192328 0.04767336 -0.1433565 -0.02451021 -0.05726767 0.053354442 0.07474507
10 -0.103989385 -0.22272429 0.09170774 -0.09886947 0.09232542 0.076209016 -0.046175167 0.06700432 0.00043242646 -0.049595226 0.12562986 0.26120684 -0.14142996 -0.04892022 0.09948561 -0.06967547 0.017093295 -0.027562084 0.048389938 -0.1594906 0.16352123 0.14466071 0.021240989 0.073089 -0.13800968 -0.049960647 0.08733939 0.043596834 -0.074195474 0.038090818 0.02616762 -0.09701505 -0.15290554 0.18663886 0.026595077 -0.06584392 0.2525389 0.090742566 -0.057934884 -0.008771553 -0.13319086 -0.07859471 0.34479257 0.28670004 -0.09668018 0.23911205 0.1886737 -0.15621653 -0.047696363 0.028023552 -0.052511554 0.010562683 0.030706955 0.053293783 -0.2135785 -0.16283713 -0.0541715 0.1185692 -0.2403855 -0.019235894 0.12666595 -0.15122563 -0.022868196 0.07386656 -0.12365302 0.10043794 -0.030166766 -0.18841287 -0.11258791 -0.3128684 0.033551693 0.072764404 0.07319006 0.07304837 0.37306112 0.024166979 0.20838079 -0.0048272302 -0.20682722 -0.0526857 -0.16380495 -0.108919084 -0.09430556 0.16743317 -0.2511043 0.1781015 0.084518805 -0.16000506 0.12964739 -0.12976617 0.1280216 0.06785303 0.06798987 0.0026378313 -0.17879944 0.13832319 -0.15890287 -0.27849227 0.18276913 0.1595992 -0.16730215 -0.16428994 0.0011318773 0.092300266 -0.25690064 -0.03135952 0.31901366 0.3199436 -0.14452408 -0.17993566 -0.054393377 -0.06315911 0.022888651 0.012735629 -0.014294973 0.1077422 -0.0902421 0.2012818 -0.21776128 -0.12855677 -0.09803912 -0.25412166 0.071173705 -0.3171479 -0.10247222 -0.0016827171 0.022040758 0.12738581 0.39433867 0.10104903 -0.07688156 -0.011049923 0.1898879 -0.09557737 -0.10083012 0.046948463 -0.053719506 -0.14632401 0.14215022 0.14394082 0.026672488 0.057867825 0.17006889 -0.07171909 0.10240852 0.18515655 -0.16886768 0.098280735 0.12334573 0.00079574063 0.21167956 -0.0731973 0.09892306 0.0077190557 -0.06920634 -0.104209885 -0.0092386855 0.0039963787 0.071987614 -0.069218114 0.102166906 0.030635426 0.047620084 -0.022096999 0.09311915 -0.16816424 -0.25041664 -0.08756179 0.14378029 0.1353941 -0.15507233 0.23396932 -0.008807391 0.40125543 0.077586524 0.17140436 -0.014161031 -0.13773154 -0.13853066 0.04315345 0.07653922 0.030830681 0.19980398 -0.031749185 0.0361978 -0.093571626 0.049803868 -0.05496093 -0.20431702 0.14130628 0.10411438 0.07616135 0.042309437 -0.1872289 -0.12756431 0.06899649 0.21089324 0.28972393 -0.16564907 0.17771819 0.30440238 0.18219428 0.14669876 -0.29814595 0.096022695 0.19712973 0.000450974 -0.032421585 -0.042803023 -0.01137803 0.096829206 -0.11204496 -0.08257876 -0.050550044 -0.149859 -0.141969 0.090266995 -0.06896638 -0.28807637 0.07036654 0.1533769 0.0650431 0.12096173 -0.15758488 0.0023787841 -0.13185924 -0.13857247 -0.06039538 -0.02798298 -0.0176844 -0.16129127 -0.10029262 0.1244722 0.06541306 0.12847826 -0.016995527 -0.041976977 -0.13230897 0.119335204 -0.1263342 -0.19884668 0.12559363 0.09969471 0.18872356 0.015545251 -0.033848256 -0.04373708 0.05593389 0.077169396 0.3062092 0.05218516 -0.1349453 -0.02307 -0.06207761 0.04318882 0.07491247
8 -0.1031593 -0.2182645 0.090598725 -0.09666056 0.08843752 0.06719416 -0.0426218 0.065687515 0.005871144 -0.047944512 0.115873165 0.24640936 -0.13721168 -0.053486574 0.10017461 -0.07734472 0.015463315 -0.032092437 0.047374565 -0.15619084 0.15683159 0.13983689 0.019198446 0.071993746 -0.12884358 -0.048925743 0.08158788 0.045723155 -0.07125131 0.036923088 0.023393633 -0.08701291 -0.14949253 0.17341805 0.028463649 -0.06727825 0.24434055 0.09154791 -0.050785232 -0.0023333875 -0.123962134 -0.076279245 0.32848945 0.27746913 -0.09848294 0.22831567 0.17998138 -0.14732468 -0.050824694 0.03350194 -0.05348963 0.015056089 0.02858365 0.056481253 -0.20693912 -0.161636 -0.056063455 0.115495756 -0.22962643 -0.01893974 0.117333464 -0.14909263 -0.019254753 0.07591816 -0.120429575 0.091598764 -0.024642082 -0.17702729 -0.10141177 -0.30580366 0.028103627 0.06953951 0.063272715 0.06653217 0.3569826 0.017540492 0.1973256 -0.009574522 -0.19827485 -0.05797502 -0.15170197 -0.101226844 -0.09552405 0.15284112 -0.246167 0.16593914 0.08668555 -0.146883 0.122699454 -0.11908367 0.12490218 0.059149552 0.06510492 0.0033815617 -0.1731569 0.12615135 -0.15135366 -0.26863408 0.17337695 0.15574834 -0.15924154 -0.1518923 -0.007403815 0.08332717 -0.24231803 -0.031423382 0.30558023 0.29743734 -0.13633971 -0.17968407 -0.052702248 -0.053760912 0.020276912 0.0114641385 -0.021576025 0.10054672 -0.089763336 0.19571722 -0.20655832 -0.120995246 -0.09557441 -0.2417757 0.07307182 -0.3038447 -0.1058374 -0.0029816565 0.022504738 0.12676498 0.37298012 0.09378993 -0.075335614 -0.013228776 0.18187821 -0.092063494 -0.09375277 0.042509157 -0.05102171 -0.13518944 0.13343668 0.13853216 0.021572558 0.056548607 0.1714282 -0.067624 0.095706254 0.17037666 -0.165238 0.102989525 0.116762064 0.0046988414 0.20381035 -0.07344163 0.0893139 0.0034914417 -0.0707304 -0.09419817 -0.013666555 -0.0011631561 0.06566019 -0.07474093 0.10194919 0.022781398 0.043533664 -0.027168367 0.08382586 -0.16210525 -0.23858336 -0.08423663 0.14238183 0.12838084 -0.14427897 0.22026828 -0.006353684 0.3817582 0.07445203 0.162587 -0.013243456 -0.13741133 -0.12137785 0.03776405 0.072953165 0.027610533 0.18744498 -0.03144068 0.03218258 -0.09443706 0.04038733 -0.051573455 -0.19230914 0.12850182 0.096938126 0.07268552 0.04015128 -0.17713796 -0.12436845 0.07285853 0.20120913 0.26919264 -0.1594875 0.16093281 0.28683043 0.17244223 0.13874544 -0.28426167 0.08506648 0.18793307 0.0010342872 -0.026088374 -0.04509289 -0.011237183 0.09439604 -0.11649927 -0.077742234 -0.046603136 -0.14460652 -0.13798584 0.087816425 -0.06197046 -0.26783788 0.066979624 0.153548 0.061627526 0.105654575 -0.15372254 0.002883577 -0.13219312 -0.12817517 -0.05493235 -0.023996133 -0.015102904 -0.15230587 -0.08928011 0.12109828 0.06955887 0.12237898 -0.016768392 -0.034458846 -0.1257218 0.111577444 -0.11867481 -0.19509885 0.11777692 0.09384872 0.17857891 0.01135509 -0.029914701 -0.03849235 0.057017457 0.077457726 0.28858745 0.054332953 -0.12643194 -0.018568574 -0.060902324 0.03839317 0.07401966
5 -0.16817017 -0.20126806 0.062782384 -0.10195602 0.11777577 -0.14378406 0.035302933 0.061362006 0.24164052 -0.13514996 -0.024295658 0.01481522 -0.116217114 -0.20268533 0.12973619 -0.30155006 -0.0542163 -0.1777881 -0.040675607 -0.21857905 0.12698768 0.100674115 -0.014722961 0.21635099 0.016514217 -0.14992794 -0.0075648623 0.060102064 -0.012333973 -0.046028264 -0.08128028 0.09484792 -0.16291355 -0.10659108 0.09347345 -0.15810512 0.17518257 0.17742118 0.027205385 0.09559064 0.0677183 -0.0918015 0.18967858 0.2104869 -0.21808296 0.08193286 0.16676323 0.004826781 -0.11485049 0.15207735 -0.08052587 0.23801251 -0.04225905 0.13246204 -0.12960407 -0.23725656 -0.069347546 0.07709538 -0.085450135 0.03448138 -0.015988603 -0.14395477 0.00947865 0.20797302 -0.14838627 -0.052668694 0.04209422 0.037069485 0.1366423 -0.33610877 -0.018552464 0.0063909367 -0.11552328 -0.09630269 0.21555896 -0.19031073 0.057042062 -0.17826462 -0.13254276 -0.26652917 0.008919225 0.091897786 -0.17636861 -0.1941973 -0.2802369 -0.1480819 0.15178269 0.09938265 -0.02637342 0.14851104 0.14700423 -0.11771252 0.085822634 0.08688459 -0.10847813 -0.07906797 -0.021310713 -0.1756582 0.08065726 0.26149255 -0.114684574 0.15761535 -0.22516441 -0.09610036 -0.06778629 -0.019111915 0.14312035 -0.05644784 0.0056792316 -0.26634625 0.09058361 0.11351864 -0.0545352 -0.029280864 -0.17841977 -0.08852465 -0.106340624 0.25774115 0.01055363 -0.02888744 -0.058700632 -0.017334001 0.14505869 -0.14637356 -0.29479593 0.00851307 -0.024303036 0.27660358 -0.01845511 -0.069387875 -0.0945801 -0.09168666 -0.00019235029 -0.10216835 -0.047786135 -0.07488538 -0.09368847 0.12776086 -0.12031928 0.045625433 -0.051302552 0.09462504 0.33854493 0.010690415 -0.063436374 -0.1859233 -0.1657811 0.24742009 -0.016467925 0.11212179 0.099366896 -0.10486084 -0.1990136 -0.07332093 -0.2822058 0.12268988 -0.11510396 -0.17133084 -0.0077980915 -0.25585845 0.21127467 -0.20469457 0.0015856692 -0.27824673 -0.16009976 -0.16886511 -0.0036832471 -0.07556997 0.123935975 0.000761367 0.084181465 0.039418966 0.0068694064 0.10341064 -0.018629594 0.036956184 -0.026359161 -0.19652729 0.30106223 -0.086855665 0.01687903 -0.06589197 -0.050570603 -0.09189296 -0.1082793 -0.16886063 -0.15167621 -0.0300681 0.053717136 -0.107722715 0.027178133 0.11090488 -0.07094093 0.034946475 -0.10618571 0.22602232 0.12824954 -0.05799235 -0.13251688 -0.23227936 0.02285839 0.007664709 0.0077760215 -0.105692 -0.113337345 0.114123456 0.022149717 0.15581948 -0.1699874 0.01676663 0.1155659 -0.31414592 -0.014126769 -0.066441275 -0.15207277 -0.079672486 0.13976802 -0.00015783563 0.16788568 0.03385753 0.22778088 -0.022404214 -0.2818049 -0.19784907 -0.0018647875 -0.27728838 0.10103687 0.042355884 0.0032214082 0.006070296 0.032960445 0.1623381 0.094208255 0.25112528 0.103716575 -0.14566977 0.21642913 -0.06861628 -0.085248075 0.06419808 -0.18702658 0.002852118 0.06615155 0.12039921 -0.06793475 0.02603592 0.1443966 0.11095433 0.15691166 -0.018451618 0.15429722 0.092578836 0.12242143 -0.18482554 -0.19282487 0.10046022
11 -0.16801949 -0.19671986 0.06364149 -0.09937048 0.11574913 -0.14509301 0.03310999 0.063486874 0.24100144 -0.13458943 -0.028226435 0.009303505 -0.11340185 -0.20105009 0.12860435 -0.30002615 -0.054251496 -0.17597407 -0.040783685 -0.2181384 0.124234535 0.09605755 -0.0121032 0.21336325 0.017762946 -0.1487747 -0.009758707 0.06091185 -0.011717961 -0.04752908 -0.07954209 0.09668391 -0.1579615 -0.11225872 0.092708334 -0.1536682 0.17197175 0.17608367 0.028483938 0.09727096 0.06951987 -0.08865305 0.18651502 0.20531645 -0.21574907 0.07859285 0.16471304 0.009262483 -0.11445929 0.15313597 -0.07825907 0.23655143 -0.044384707 0.13317268 -0.12689807 -0.23445158 -0.06889597 0.07674215 -0.08429447 0.037199125 -0.01759167 -0.14099371 0.010526898 0.20651814 -0.14615926 -0.053937085 0.039130345 0.040415794 0.13897128 -0.33083668 -0.01787591 0.0046771187 -0.11687469 -0.09651355 0.21036644 -0.18846446 0.055017255 -0.17779605 -0.12862417 -0.26434577 0.013666016 0.09542122 -0.1742931 -0.19748162 -0.27610025 -0.14947812 0.15086812 0.100488365 -0.02871931 0.15097962 0.14261295 -0.119556576 0.08455339 0.087755196 -0.10315127 -0.082952365 -0.015926508 -0.16975915 0.0751462 0.2584574 -0.10818172 0.16205537 -0.22480902 -0.095399894 -0.0622472 -0.018192543 0.1376933 -0.06323948 0.010487384 -0.26366514 0.09269543 0.1160413 -0.057374388 -0.029209808 -0.17696646 -0.09285898 -0.10772988 0.2547668 0.012326935 -0.028355196 -0.056151446 -0.015032257 0.1451392 -0.14080703 -0.29180527 0.005839344 -0.024924006 0.2724923 -0.027724277 -0.071371704 -0.09116742 -0.09231114 -0.004689146 -0.099716745 -0.046003897 -0.075994074 -0.08968012 0.1301769 -0.121544786 0.041789148 -0.05131962 0.09276348 0.33548847 0.011335231 -0.062305182 -0.18779066 -0.1604376 0.24689665 -0.018865226 0.113290325 0.096384645 -0.103625186 -0.20052843 -0.07186221 -0.2812842 0.12415252 -0.11621898 -0.16978365 -0.006697764 -0.25328085 0.20889664 -0.20468703 0.0031559037 -0.2790239 -0.16319373 -0.16459294 0.0014008416 -0.07572069 0.12369998 0.0013265609 0.08866265 0.034502033 0.008981983 0.095939316 -0.020507172 0.034075126 -0.0279714 -0.19680111 0.30237597 -0.08875383 0.017976651 -0.0660489 -0.05213085 -0.08929882 -0.1075797 -0.16684408 -0.1538498 -0.030475728 0.05438513 -0.10890623 0.028498616 0.11003122 -0.07116514 0.038992297 -0.10166149 0.22510642 0.12418995 -0.062633194 -0.13072394 -0.23619942 0.0145706665 0.004676828 0.00394147 -0.103321806 -0.11410874 0.10976129 0.021831566 0.15732796 -0.16671681 0.01800904 0.1103186 -0.31093103 -0.015560095 -0.06316775 -0.14877163 -0.07706385 0.13725157 -0.00032243508 0.17194666 0.03223153 0.22389327 -0.024031468 -0.28416622 -0.19667856 -0.004037739 -0.27444234 0.104766145 0.044403847 0.006410426 0.009487837 0.034401234 0.16511329 0.09094986 0.2488607 0.1028872 -0.14732443 0.2171032 -0.063019104 -0.09042098 0.069554046 -0.18616964 0.0003411054 0.067193724 0.11631935 -0.06649184 0.023613796 0.14630121 0.10855509 0.15574425 -0.025675133 0.15155028 0.0970862 0.12142202 -0.18661004 -0.19605282 0.09984284
7 -0.15941995 -0.19387332 0.06175155 -0.09908061 0.11035199 -0.13069633 0.030556653 0.061762024 0.22683188 -0.12756418 -0.021237213 0.020831946 -0.11160144 -0.1940697 0.1251042 -0.28315002 -0.048879012 -0.16634591 -0.037517373 -0.21121268 0.123590365 0.0964146 -0.011185301 0.20498815 0.012392093 -0.14237715 -0.006080306 0.058240466 -0.014428372 -0.042412788 -0.0731013 0.088218294 -0.15781334 -0.09664177 0.0859475 -0.14911325 0.1703203 0.16645442 0.0236119 0.08810671 0.05595565 -0.08763459 0.19017646 0.20755456 -0.20636156 0.08497794 0.16261637 0.0001169781 -0.10751458 0.14473443 -0.07795697 0.22359358 -0.040257365 0.12933494 -0.13069794 -0.22526896 -0.06736924 0.075330526 -0.08733802 0.035621915 -0.009825518 -0.13833335 0.0074772593 0.19716874 -0.14230868 -0.04568696 0.03789759 0.031469915 0.12419933 -0.32496125 -0.016168343 0.0092635285 -0.1064443 -0.08582679 0.21364614 -0.17581788 0.060586337 -0.1650017 -0.12890923 -0.25144944 0.0048338706 0.084402084 -0.16821331 -0.17520988 -0.270095 -0.13321537 0.14219858 0.08714793 -0.022633312 0.1364594 0.14228603 -0.10772775 0.08344345 0.08061294 -0.10641182 -0.0690004 -0.021889701 -0.17395537 0.07821494 0.24884035 -0.11182265 0.14349645 -0.21210033 -0.08621851 -0.070183545 -0.019943997 0.14175235 -0.042962003 0.004163709 -0.2543576 0.085153446 0.10636596 -0.051799715 -0.02738654 -0.16796428 -0.08156946 -0.10439547 0.24652825 -1.8508872e-05 -0.029874166 -0.05890092 -0.023103112 0.13935123 -0.14466538 -0.27939275 0.0058428766 -0.019593218 0.26330513 -0.0069935224 -0.061445877 -0.09119618 -0.084319346 0.007776689 -0.09532902 -0.045304995 -0.067433156 -0.0896345 0.11264334 -0.10693346 0.048029937 -0.045402493 0.091258645 0.3221928 0.008093427 -0.056052573 -0.16781475 -0.15893915 0.2377647 -0.009994078 0.10433474 0.10160827 -0.100048475 -0.18318489 -0.06868583 -0.2657159 0.108696975 -0.11017235 -0.15984075 -0.003646556 -0.24252996 0.19925465 -0.18945667 0.00588677 -0.26019186 -0.14835745 -0.16284725 -0.012397833 -0.07225119 0.12384885 0.0042368886 0.076378465 0.043663297 0.0071526174 0.10719205 -0.015571011 0.04077945 -0.026869912 -0.19169974 0.2769576 -0.07833628 0.02096526 -0.061741054 -0.04289656 -0.08665289 -0.10090163 -0.15995319 -0.14266017 -0.030503895 0.044706114 -0.098301314 0.03164282 0.10383122 -0.063544884 0.025626183 -0.100432694 0.21589077 0.12665626 -0.047502454 -0.12884572 -0.2129231 0.028730178 0.013812357 0.01038676 -0.10974137 -0.10535009 0.11279091 0.020663217 0.14594775 -0.15961422 0.018321177 0.11121648 -0.29643568 -0.016645467 -0.063885644 -0.14739133 -0.07699622 0.13149151 -0.0053031184 0.14893828 0.033554606 0.21721038 -0.022042824 -0.26237598 -0.1926777 -0.00478776 -0.26409975 0.09107122 0.03987909 0.004540469 0.0074877744 0.02625242 0.15088998 0.09340296 0.23676687 0.100998305 -0.13817155 0.20249738 -0.06690619 -0.07951242 0.057160888 -0.18412508 0.007755029 0.06805844 0.11655704 -0.060555395 0.021257248 0.13319565 0.1061769 0.15097114 -0.008570002 0.14344394 0.08487169 0.114123486 -0.17725484 -0.180406 0.098034956
1 -0.16498417 -0.20167717 0.06797414 -0.10230339 0.114716314 -0.129649 0.02791019 0.06422477 0.223787 -0.12723768 -0.016729634 0.029158784 -0.114778504 -0.1924451 0.12496338 -0.28402105 -0.0470659 -0.16615824 -0.032086365 -0.2150288 0.12819542 0.101241246 -0.01033224 0.20431699 0.0060615535 -0.14049779 0.00016639334 0.06200074 -0.014924945 -0.040725004 -0.07456039 0.08319388 -0.16033314 -0.08667548 0.08641996 -0.15113969 0.17690633 0.1689567 0.023804726 0.086166464 0.051268723 -0.091475315 0.2006751 0.21536532 -0.20812048 0.090248205 0.16556598 -0.0053209597 -0.10803442 0.14529872 -0.07930665 0.22144093 -0.03924933 0.1298767 -0.13714032 -0.22932488 -0.069135025 0.08165175 -0.09766011 0.033326756 -0.005050266 -0.14417928 0.004808827 0.1965161 -0.14574797 -0.04202116 0.03613798 0.023253832 0.116902724 -0.33100578 -0.014231346 0.00867096 -0.09941032 -0.08311956 0.22265142 -0.17467266 0.06912858 -0.16546877 -0.13390301 -0.2508531 -0.0019581907 0.07614323 -0.16907431 -0.17052121 -0.27615628 -0.12526378 0.14469421 0.079781175 -0.0153630795 0.12944615 0.14367846 -0.103798114 0.08346992 0.079960965 -0.11157588 -0.06515406 -0.029127209 -0.18142457 0.08673669 0.25196597 -0.11672268 0.13654095 -0.2068051 -0.08194447 -0.07688989 -0.017538587 0.15456408 -0.030334583 -0.0035845381 -0.25787812 0.080675885 0.10009668 -0.049041763 -0.023385607 -0.16636115 -0.077344626 -0.10467527 0.25292364 -0.0075254026 -0.03690748 -0.06103916 -0.03252375 0.13725083 -0.1547198 -0.27926755 0.0063836416 -0.02069029 0.26355344 0.008895108 -0.057370484 -0.09057309 -0.087319426 0.010771742 -0.09831809 -0.050484966 -0.0648765 -0.088271946 0.10758629 -0.10339343 0.05199249 -0.046014942 0.08879737 0.32557195 0.0018345967 -0.051108662 -0.1572014 -0.16278587 0.23819852 -0.007425346 0.10286738 0.107324935 -0.103282765 -0.1775368 -0.064732894 -0.265872 0.10467905 -0.10901937 -0.15809882 -0.00292165 -0.241268 0.20130722 -0.18671705 0.0042583384 -0.25990725 -0.14373952 -0.16790457 -0.019869534 -0.07639649 0.12690441 0.009071079 0.06984925 0.050328832 0.0059754075 0.121603765 -0.014516354 0.045210425 -0.026567252 -0.1921784 0.26978192 -0.07681206 0.024215147 -0.05956889 -0.034104194 -0.08828215 -0.09873756 -0.16316572 -0.13869247 -0.032638386 0.033693206 -0.09240282 0.034784358 0.107476935 -0.06222139 0.01776663 -0.10575728 0.21520647 0.13305853 -0.037276264 -0.13425876 -0.20510834 0.040986497 0.01953364 0.015187218 -0.119421944 -0.09936101 0.12029641 0.020888163 0.14035651 -0.15990533 0.016050946 0.11102258 -0.2973004 -0.021828681 -0.06426882 -0.14894424 -0.0830293 0.13384484 -0.007888934 0.13645938 0.034290034 0.22036175 -0.019450188 -0.25493813 -0.19472633 -0.0030488046 -0.26360196 0.08397534 0.035912506 0.0015248439 0.0046429364 0.020971097 0.1453444 0.09657632 0.23561758 0.10664049 -0.13780406 0.19618356 -0.070560336 -0.0741758 0.05103856 -0.18729006 0.012676715 0.06841151 0.120475955 -0.059857327 0.021742705 0.13087462 0.105481334 0.15178232 0.00020220026 0.14737517 0.07841947 0.11176141 -0.17664205 -0.17737414 0.10099596
3 -0.16074525 -0.1962322 0.067015626 -0.0987128 0.11211347 -0.121919796 0.027228422 0.061915137 0.21241371 -0.12457102 -0.011647565 0.0320641 -0.11614467 -0.18742031 0.12252569 -0.27526492 -0.044437688 -0.16137476 -0.03216412 -0.21034504 0.12443733 0.10113351 -0.010375329 0.19946697 0.004843882 -0.1379058 0.00034908636 0.06000225 -0.014592797 -0.035926674 -0.070351325 0.07600195 -0.15897144 -0.078890614 0.0841704 -0.14673597 0.17751661 0.1666421 0.020659572 0.08582245 0.048693623 -0.0899651 0.19927137 0.21328384 -0.20276569 0.092294484 0.165605 -0.009564774 -0.10858872 0.140304 -0.07401234 0.21130705 -0.038478374 0.12472859 -0.13564205 -0.22565114 -0.06811635 0.07980302 -0.097998105 0.03272269 -0.005023426 -0.13905941 0.0053665796 0.19265892 -0.14149785 -0.04010906 0.035424914 0.019407462 0.1128577 -0.3263604 -0.011793865 0.012025367 -0.09746858 -0.07745417 0.2237094 -0.16752778 0.07101812 -0.15875445 -0.13223526 -0.2413569 -0.0044659697 0.07453189 -0.16542253 -0.16064748 -0.26913443 -0.11530933 0.14166139 0.074784465 -0.014796251 0.12152964 0.1396552 -0.098019585 0.08091907 0.07755893 -0.112182364 -0.058331728 -0.032494493 -0.17726304 0.08723988 0.24537915 -0.11621468 0.12786369 -0.20190714 -0.07727407 -0.07940621 -0.017239355 0.15313298 -0.024428986 -0.0037829354 -0.2533246 0.07866573 0.09643268 -0.047132514 -0.02375445 -0.15927772 -0.070535004 -0.1043274 0.24757324 -0.008307071 -0.03676685 -0.061262432 -0.038779344 0.13449402 -0.15594801 -0.27202722 0.006921374 -0.01838352 0.25686932 0.014230167 -0.054862946 -0.08972161 -0.08100726 0.017674942 -0.097402856 -0.048480798 -0.064685926 -0.08661927 0.101058565 -0.09529979 0.05295827 -0.041058414 0.08928053 0.31709552 0.0030479103 -0.04568777 -0.1506831 -0.1622499 0.23100777 -0.0022946089 0.09995744 0.10704754 -0.098851345 -0.16887599 -0.06192004 -0.2567624 0.10136356 -0.10627551 -0.14961962 -0.0010467997 -0.23340994 0.19670537 -0.18141758 0.0072372467 -0.25073862 -0.13630646 -0.16418625 -0.026089454 -0.074538946 0.12511458 0.011541186 0.061832976 0.054251503 0.0067399493 0.12321815 -0.011963511 0.04609982 -0.024693957 -0.18807094 0.25740838 -0.074175656 0.02398539 -0.054613765 -0.028992936 -0.08501281 -0.09347425 -0.15968186 -0.13290232 -0.032681774 0.031681076 -0.086243615 0.035827983 0.10298905 -0.05766379 0.015697323 -0.10433787 0.20931697 0.13067062 -0.029560164 -0.13099262 -0.19403756 0.044475112 0.021994984 0.01920228 -0.11924094 -0.09525881 0.11795939 0.017848963 0.13770019 -0.1548014 0.015925802 0.11166755 -0.28998315 -0.02013903 -0.06373786 -0.14934556 -0.08326619 0.13041349 -0.008358286 0.123110846 0.035406545 0.21546964 -0.016839093 -0.24212132 -0.19229093 -0.0033565012 -0.25700223 0.07758214 0.034916714 0.0019770488 0.0036863764 0.016900638 0.13890986 0.093284 0.22899397 0.10404647 -0.1317825 0.19101512 -0.07143175 -0.06806808 0.04985017 -0.18402605 0.013633593 0.0677061 0.122631185 -0.058072988 0.019775132 0.12712668 0.10382719 0.14460579 0.0074373963 0.14162819 0.071071535 0.10563256 -0.1731428 -0.17143925 0.09848469
4 -0.11065552 -0.21269639 0.08681384 -0.09674727 0.09398704 0.04238386 -0.03711289 0.06690749 0.031362016 -0.05977788 0.10345055 0.22188649 -0.13235675 -0.070207536 0.101235844 -0.10056861 0.0071384264 -0.049044315 0.036795303 -0.1632449 0.15487789 0.13528189 0.0147971 0.08835396 -0.11283866 -0.061383195 0.070847265 0.047153506 -0.06212169 0.026177052 0.011725065 -0.069047906 -0.1517875 0.14184259 0.035132032 -0.07676028 0.23648672 0.102606416 -0.043334905 0.0075591626 -0.10206869 -0.07958897 0.3168886 0.27053457 -0.11110042 0.20962271 0.17954428 -0.13233495 -0.058405478 0.044048864 -0.053774387 0.038602237 0.019229334 0.064315036 -0.19838017 -0.16925071 -0.0547408 0.11223975 -0.21227412 -0.012666548 0.10617248 -0.14764258 -0.015954541 0.08972915 -0.123072006 0.07924108 -0.021077026 -0.1521871 -0.0755264 -0.3083233 0.025109662 0.06420143 0.046395995 0.04737867 0.34321862 -0.0059872414 0.18559489 -0.025958445 -0.19159059 -0.0783862 -0.13488974 -0.0805257 -0.10363067 0.114930175 -0.24697092 0.1300734 0.094341084 -0.12198845 0.10722958 -0.08834264 0.12481382 0.041037317 0.0656552 0.0117771365 -0.16607931 0.10601657 -0.13815796 -0.25799632 0.1646991 0.16848512 -0.15716085 -0.11643629 -0.027016897 0.066409685 -0.22654568 -0.027686441 0.28572685 0.26190406 -0.120648004 -0.18871838 -0.033543862 -0.03719168 0.011292186 0.0080607375 -0.03645899 0.08007271 -0.09106949 0.20387428 -0.1825631 -0.111326 -0.08953405 -0.21572497 0.07759256 -0.28913134 -0.12907378 0.0005355467 0.018008092 0.14517945 0.3305296 0.0764682 -0.07676935 -0.023305768 0.1621384 -0.09423264 -0.08866884 0.031015055 -0.05552022 -0.1079071 0.10615696 0.1305722 0.015571315 0.06161537 0.18727052 -0.05831088 0.07921171 0.13120884 -0.16497509 0.11924709 0.103494085 0.015220738 0.19001162 -0.07592468 0.05714529 -0.0021108976 -0.093926065 -0.06960483 -0.022735683 -0.021216342 0.058671024 -0.092820205 0.11359247 -0.000564521 0.040803842 -0.05413611 0.055669565 -0.16226535 -0.21381743 -0.08510389 0.13969368 0.11479423 -0.117002696 0.20210667 -0.0071937824 0.3506632 0.061419703 0.14795008 -0.017352665 -0.14409639 -0.07500933 0.026019651 0.06530199 0.014875957 0.16015069 -0.03954214 0.016679259 -0.1032067 0.018694228 -0.051988997 -0.16763842 0.10223237 0.09226898 0.07651168 0.025690297 -0.15613833 -0.12151693 0.09057476 0.19475311 0.23539607 -0.15886767 0.119486555 0.26116586 0.15425853 0.122925766 -0.2652573 0.06540573 0.18126836 0.0032636514 -0.005947676 -0.058929633 -0.0090144435 0.09848432 -0.13758682 -0.072333634 -0.04989554 -0.14654753 -0.13380627 0.09437576 -0.057356905 -0.22086406 0.06482075 0.16034225 0.052233562 0.0639093 -0.15919067 0.002763537 -0.14963686 -0.10513978 -0.047267932 -0.022359475 -0.013018724 -0.13250615 -0.06252515 0.11540299 0.087878145 0.1220368 -0.03246259 -0.005055427 -0.119287975 0.089099124 -0.099292204 -0.19397573 0.10795812 0.09124725 0.17582859 0.0023714819 -0.023938825 -0.018869825 0.060482245 0.084564164 0.25480074 0.06298557 -0.10231684 4.7481255e-05 -0.075388975 0.013384925 0.07726831
2 -0.10082146 -0.20244668 0.08206092 -0.09218957 0.086184464 0.04690844 -0.034710392 0.06248384 0.021036077 -0.053251836 0.09920762 0.21577846 -0.12530722 -0.06285279 0.0944705 -0.089586176 0.0072625703 -0.04011679 0.03610716 -0.15314898 0.14636785 0.12925634 0.017254757 0.079846956 -0.11249771 -0.055872574 0.06940548 0.04327681 -0.060127497 0.028332377 0.016068678 -0.06968419 -0.14397973 0.14304732 0.030391509 -0.06821944 0.22372124 0.09185975 -0.042823218 0.002974451 -0.10092455 -0.071890175 0.3015836 0.25468948 -0.10325044 0.20225349 0.16882199 -0.12800877 -0.05138716 0.038225736 -0.05063119 0.02995816 0.02045125 0.059641592 -0.18986063 -0.15795551 -0.050770998 0.10813714 -0.2055793 -0.010856756 0.10078375 -0.13708301 -0.016840206 0.07925817 -0.11672518 0.078540094 -0.020472018 -0.1506625 -0.079294376 -0.28955334 0.024247544 0.06125454 0.04908993 0.050299425 0.3253587 0.0017406901 0.1777462 -0.021628225 -0.1809449 -0.07000398 -0.1330154 -0.080420494 -0.09662024 0.11739411 -0.23112607 0.13286883 0.08491783 -0.12085059 0.10538067 -0.09224049 0.11905395 0.04537811 0.062791586 0.0074949353 -0.1595235 0.10538091 -0.1330613 -0.24536575 0.15630992 0.15735535 -0.14682354 -0.1195956 -0.020253258 0.06409162 -0.21691519 -0.028764136 0.27641198 0.25747168 -0.118178904 -0.17443016 -0.038100395 -0.03838138 0.013409247 0.0074420054 -0.03134906 0.07894704 -0.08458792 0.19051641 -0.17879075 -0.107870474 -0.08674167 -0.21053308 0.073167354 -0.27652445 -0.11403656 0.0007832395 0.018585503 0.13178699 0.32181656 0.074524336 -0.070359364 -0.018975133 0.15838125 -0.089869946 -0.08754782 0.029143637 -0.054648466 -0.10925134 0.10743637 0.12328271 0.014128026 0.056835677 0.17318204 -0.05823716 0.079580724 0.13264257 -0.15504204 0.106604315 0.100842275 0.013660294 0.18393901 -0.070977025 0.06256707 -0.0011537579 -0.085246064 -0.07386977 -0.021098912 -0.016736388 0.05758231 -0.08358338 0.10323617 0.0036524802 0.03840943 -0.043100726 0.059835885 -0.15504685 -0.20644093 -0.08145239 0.13104354 0.11019493 -0.118505485 0.19626798 -0.0056768362 0.33874822 0.060142625 0.14446415 -0.01418772 -0.13331912 -0.08391279 0.026505107 0.063767456 0.015777439 0.15794028 -0.034383625 0.019631295 -0.095411494 0.024628257 -0.047600653 -0.16463745 0.105429955 0.08899738 0.073704876 0.0267528 -0.15286607 -0.115466036 0.078203276 0.18469687 0.23211011 -0.14888549 0.12162386 0.25333393 0.14945734 0.119932555 -0.25432548 0.06810117 0.1731081 0.0013705749 -0.012194845 -0.0527977 -0.007604657 0.092075005 -0.12244067 -0.06867177 -0.04865958 -0.13907348 -0.124484114 0.08587565 -0.056993417 -0.21781513 0.06197266 0.1503457 0.0535131 0.069254376 -0.14613292 0.0014560906 -0.13719447 -0.10440348 -0.04746446 -0.0210341 -0.011167509 -0.12891215 -0.064427 0.111070886 0.076855764 0.11729196 -0.027947346 -0.0110997595 -0.11404268 0.09062137 -0.09700802 -0.18170257 0.10194375 0.08660444 0.16617827 0.004718811 -0.02352731 -0.02040375 0.0575894 0.07703735 0.24815857 0.05851504 -0.10234935 -0.0051617473 -0.06711354 0.016377416 0.072257556
6 -0.099480726 -0.19407009 0.07877847 -0.08623839 0.083992414 0.039533634 -0.03087452 0.05995026 0.028248895 -0.052906334 0.092232265 0.19894528 -0.12116688 -0.06410895 0.09292685 -0.09086958 0.005520845 -0.04485205 0.03355423 -0.1496614 0.13835962 0.12112358 0.013807682 0.078932196 -0.10086645 -0.056936942 0.06545591 0.03998687 -0.05712793 0.02582249 0.011443995 -0.062286876 -0.1357203 0.12734823 0.033105 -0.06892272 0.21258433 0.09337609 -0.041190214 0.004318616 -0.0931888 -0.0694847 0.28599435 0.24135394 -0.10298447 0.19082764 0.16347595 -0.11956306 -0.049982995 0.042589813 -0.049952473 0.03758102 0.015140642 0.057731673 -0.17664735 -0.1544871 -0.05042443 0.10012051 -0.1907807 -0.012326885 0.09573518 -0.13124847 -0.014910114 0.081223205 -0.11198361 0.068041936 -0.018572396 -0.13745761 -0.06892593 -0.2789686 0.023380458 0.056889318 0.03928731 0.04573324 0.3095755 -0.005564316 0.16660003 -0.02292538 -0.17241798 -0.071855344 -0.123521835 -0.06927503 -0.09236531 0.10314457 -0.2220316 0.11526602 0.08510007 -0.10935857 0.09476841 -0.079718694 0.11513738 0.037679974 0.06169301 0.012565473 -0.14925854 0.09508441 -0.12242187 -0.23372018 0.14955252 0.15135787 -0.13920367 -0.10577529 -0.026358474 0.058292873 -0.20378666 -0.024409324 0.25814506 0.23673664 -0.106824376 -0.17062007 -0.030119235 -0.031819094 0.009639425 0.0077438382 -0.03287678 0.07251183 -0.08130258 0.1823717 -0.1639954 -0.10058633 -0.08123163 -0.19566034 0.07296533 -0.2607824 -0.116968736 0.00056231197 0.016583588 0.12838896 0.29857364 0.067355454 -0.07048808 -0.021392046 0.14538707 -0.08509876 -0.080041304 0.02619238 -0.0524715 -0.094807774 0.094290726 0.11618713 0.012246513 0.054691557 0.17166056 -0.05342168 0.07074745 0.117692 -0.14831199 0.10478209 0.09266081 0.013766239 0.17041154 -0.06667498 0.05215695 -0.0046642297 -0.084735334 -0.063001156 -0.021240141 -0.01922995 0.05317555 -0.08546396 0.102998555 -0.00067163294 0.03541545 -0.04813337 0.04881172 -0.14761962 -0.19274545 -0.07779351 0.12532023 0.10289948 -0.1068512 0.18269944 -0.0040902696 0.31733832 0.056356918 0.1330891 -0.016533524 -0.13088028 -0.068386644 0.02234978 0.060044702 0.013923648 0.14570664 -0.032822087 0.0141308885 -0.09339157 0.019590406 -0.045680184 -0.15180199 0.09394868 0.08308574 0.07021176 0.02520407 -0.14075267 -0.10816036 0.080531664 0.17377365 0.2120559 -0.14348672 0.10650061 0.23545574 0.13684203 0.109897055 -0.23924826 0.05838676 0.16059943 0.0034198433 -0.0042089317 -0.05271076 -0.007499381 0.08707225 -0.1233359 -0.06195827 -0.04546585 -0.13246116 -0.12025126 0.08360707 -0.051962685 -0.19927607 0.06004427 0.14609031 0.045866728 0.05680133 -0.14248702 0.00031393763 -0.13345216 -0.09191351 -0.039737012 -0.021032339 -0.01003861 -0.11839916 -0.05551018 0.10586917 0.07837009 0.110787 -0.029720822 -0.0048454204 -0.10705589 0.08103101 -0.09006195 -0.17655525 0.09748605 0.083722286 0.15542471 0.0020132568 -0.022414101 -0.0160156 0.05379107 0.077325545 0.22773269 0.05775009 -0.09083745 -0.0013238495 -0.06910129 0.011943017 0.06782995
12 -0.09030034 -0.17869923 0.07265406 -0.0813218 0.07422645 0.04356751 -0.03344584 0.051675204 0.014999608 -0.043489985 0.091126025 0.19322833 -0.111369476 -0.050324176 0.082597874 -0.07209409 0.0066539315 -0.033053666 0.03455272 -0.1343802 0.12863123 0.11477931 0.015097188 0.06652983 -0.100977555 -0.047527984 0.06392291 0.037920285 -0.054613292 0.025300138 0.015393271 -0.062229868 -0.12596506 0.12859312 0.027755221 -0.05779607 0.19559838 0.081317954 -0.03930711 0.0026433386 -0.09200179 -0.06371604 0.26556444 0.2231713 -0.087769315 0.1812371 0.1493695 -0.11399791 -0.04610673 0.031841893 -0.045096695 0.024999585 0.01792008 0.04725367 -0.16674739 -0.13840838 -0.045064695 0.093848124 -0.18094043 -0.011312587 0.09223386 -0.12010285 -0.01601926 0.06953806 -0.10272068 0.06959662 -0.017058073 -0.1345686 -0.06979979 -0.24986364 0.024168272 0.055904776 0.0446433 0.047482062 0.28742775 0.0035596853 0.15841788 -0.013923859 -0.15915143 -0.05560276 -0.11821394 -0.07177515 -0.08317873 0.106821716 -0.20404005 0.12134127 0.07308714 -0.10953235 0.0917494 -0.08538305 0.10263987 0.04239536 0.053883854 0.006399839 -0.13779041 0.093590215 -0.11626617 -0.21669312 0.13982995 0.13437313 -0.13206103 -0.110105805 -0.015021889 0.0608237 -0.19182336 -0.025797676 0.24252269 0.22850709 -0.1024901 -0.15297163 -0.036367353 -0.036970247 0.012142051 0.008973775 -0.023154203 0.073904835 -0.07479481 0.16614269 -0.16018409 -0.096652955 -0.07671158 -0.18766093 0.06318821 -0.24116537 -0.09788711 -0.00019334149 0.01320616 0.11240143 0.2881418 0.06928609 -0.06392338 -0.016386563 0.14158861 -0.07667118 -0.0762231 0.029104529 -0.044485737 -0.09944845 0.095712245 0.11172966 0.01470148 0.048153143 0.14736106 -0.04990687 0.07044667 0.121024065 -0.13576482 0.09197315 0.08720396 0.0077690477 0.16010098 -0.06183458 0.05900314 -0.00085026905 -0.068631776 -0.066500366 -0.015044255 -0.010563189 0.05308868 -0.06849249 0.08838372 0.009302527 0.032616526 -0.035399277 0.054420996 -0.13380353 -0.18277739 -0.07201772 0.1142982 0.096080005 -0.106888145 0.17223567 -0.0044731004 0.3008923 0.056454573 0.12845173 -0.0126494225 -0.11554767 -0.08014578 0.026300605 0.057055365 0.017595366 0.13988285 -0.028420264 0.020185985 -0.07967964 0.023508215 -0.043613344 -0.14865436 0.09275269 0.075970225 0.06252523 0.027858341 -0.13661565 -0.0998812 0.066160075 0.1630102 0.20744708 -0.13125212 0.11203125 0.22431014 0.1312297 0.107419096 -0.22446664 0.06210035 0.15250708 0.001013492 -0.013083981 -0.04547076 -0.00769211 0.08082234 -0.10248337 -0.06076317 -0.039525583 -0.11777322 -0.112694114 0.07705478 -0.04775768 -0.19855306 0.05292155 0.12873395 0.048583157 0.06667334 -0.12668376 0.0009447054 -0.11605831 -0.09478201 -0.04108878 -0.02093349 -0.011938346 -0.11597408 -0.0630183 0.09572632 0.06565712 0.10260803 -0.019982286 -0.016054839 -0.10187438 0.08060676 -0.08966143 -0.15935662 0.09097113 0.078164175 0.14587703 0.0069894544 -0.023552693 -0.022238635 0.048847254 0.069325 0.2222591 0.047824785 -0.09142902 -0.008319179 -0.059258353 0.019139009 0.062291324
9 -0.13791656 -0.173624 0.057127412 -0.08772315 0.09713167 -0.09834464 0.019534433 0.055651437 0.18053056 -0.10560232 -0.004828811 0.040846247 -0.1011809 -0.15920119 0.10664494 -0.23220968 -0.03866201 -0.13336648 -0.025328375 -0.18119399 0.11052124 0.09192045 -0.005397126 0.16628101 -0.004408276 -0.115194045 0.003548081 0.049339443 -0.01740209 -0.028576337 -0.056076948 0.06205891 -0.13922267 -0.060124688 0.07363764 -0.12536843 0.1602224 0.14201187 0.012532314 0.07173798 0.032613248 -0.078825906 0.18185553 0.19100636 -0.17423101 0.08666054 0.14537735 -0.014835132 -0.092075676 0.115585364 -0.06690887 0.17782322 -0.030612243 0.10686246 -0.12010646 -0.19514823 -0.05955649 0.071463615 -0.09210993 0.023889499 0.0029223736 -0.12360806 0.0022991842 0.16311873 -0.12248235 -0.028873641 0.027818609 0.006797989 0.08808996 -0.28480068 -0.008726149 0.014484372 -0.07532812 -0.06310918 0.2039172 -0.13909133 0.065712295 -0.13046136 -0.12227067 -0.20240414 -0.00935287 0.055637967 -0.14344127 -0.12789358 -0.23698309 -0.08914235 0.12208769 0.054928392 -0.0067675263 0.096937254 0.12390656 -0.080263086 0.072762765 0.066162586 -0.10058959 -0.045612227 -0.031686265 -0.16133715 0.07935032 0.21252468 -0.104642935 0.09745336 -0.16855727 -0.05952473 -0.07776116 -0.017260956 0.1412484 -0.004368612 -0.012786014 -0.22012734 0.0636851 0.07782914 -0.03688354 -0.019975647 -0.13402393 -0.056274418 -0.0924794 0.2162689 -0.01872413 -0.035047576 -0.055520717 -0.043157287 0.11509439 -0.14321756 -0.23153053 0.007133269 -0.014562413 0.22011867 0.030450393 -0.039640892 -0.07707084 -0.0695168 0.022590086 -0.08507237 -0.04550327 -0.049763683 -0.07603413 0.077669926 -0.07468098 0.052032467 -0.03345887 0.07727827 0.27210853 -0.0029122985 -0.033329654 -0.11856565 -0.14330202 0.19577132 0.0027075866 0.08192943 0.09988688 -0.084033415 -0.13661839 -0.053659968 -0.21828124 0.07696852 -0.08865938 -0.12672876 0.0028130966 -0.1993596 0.16766381 -0.1472747 0.00707079 -0.21045126 -0.109831944 -0.14607574 -0.031411935 -0.06492256 0.11113368 0.018384293 0.0476225 0.053702623 0.0064541125 0.11978766 -0.005565143 0.04484991 -0.020328237 -0.1651382 0.2066583 -0.060173824 0.022350667 -0.0460507 -0.015329042 -0.07053561 -0.0744458 -0.13483682 -0.10961499 -0.028700776 0.015352852 -0.06422888 0.032435216 0.08956425 -0.04691252 0.0054143267 -0.0921603 0.17621493 0.11720418 -0.010706225 -0.11754747 -0.15499574 0.05019504 0.025896456 0.021223307 -0.11428816 -0.07303878 0.10662004 0.016441615 0.110474944 -0.12908098 0.013660433 0.09702706 -0.24651836 -0.020670915 -0.05539939 -0.13157155 -0.07514186 0.11426207 -0.00947336 0.090845525 0.032715473 0.18697724 -0.008524596 -0.19673309 -0.16710424 -0.0035671787 -0.22162327 0.060621474 0.025494479 0.0013555005 0.004458801 0.0045738434 0.112142995 0.08413612 0.19514655 0.093628086 -0.11251897 0.15505949 -0.06651967 -0.04957471 0.03660295 -0.16386847 0.018567236 0.061662693 0.10939638 -0.04900274 0.0152019765 0.10337115 0.08828433 0.124271676 0.020363336 0.12206564 0.053377923 0.087186866 -0.1469081 -0.139083 0.0843331
13 -0.14211628 -0.18004489 0.061277557 -0.09182991 0.10049548 -0.105352506 0.022295605 0.05534705 0.1891326 -0.109103315 -0.008528785 0.036102626 -0.104197636 -0.16684866 0.11226474 -0.24383838 -0.04164837 -0.14240254 -0.02711936 -0.19087921 0.11775552 0.09296778 -0.009775894 0.17680654 -0.0035319107 -0.12215152 0.0049983826 0.05456855 -0.016375812 -0.03173643 -0.061512962 0.06626055 -0.14387639 -0.066324376 0.07561208 -0.131301 0.16548558 0.15044911 0.016307117 0.07412614 0.039423704 -0.07993685 0.18570109 0.19629316 -0.18093832 0.090586305 0.15102823 -0.011569719 -0.09651023 0.12480125 -0.06975477 0.18847138 -0.030394822 0.112630665 -0.1264398 -0.20417525 -0.06275965 0.072375044 -0.09197671 0.02536649 0.002011166 -0.12773526 0.0032237747 0.1689072 -0.12721814 -0.032744028 0.027768236 0.00890012 0.097026095 -0.29769585 -0.011798224 0.011557919 -0.08264255 -0.068153605 0.20846559 -0.14790733 0.06676242 -0.14052989 -0.1258004 -0.21545178 -0.008529208 0.059724715 -0.14863357 -0.13666819 -0.24743544 -0.09673963 0.12870438 0.06020334 -0.009468738 0.10544482 0.12966728 -0.08599646 0.07254659 0.066468045 -0.10265223 -0.049505346 -0.03204843 -0.16783415 0.07963425 0.22102831 -0.104506575 0.10727457 -0.17709176 -0.06482954 -0.0789583 -0.01970486 0.14659627 -0.012694389 -0.009279604 -0.22987568 0.06824974 0.08269385 -0.04153952 -0.019239398 -0.14280513 -0.0612867 -0.09597609 0.22508246 -0.014768477 -0.037565477 -0.055852167 -0.03927516 0.123178534 -0.14590678 -0.24225184 0.007028452 -0.015147944 0.23090199 0.02357312 -0.044479884 -0.08272192 -0.07401667 0.01988249 -0.08968274 -0.04845131 -0.05604434 -0.07916119 0.08659158 -0.079926245 0.049970314 -0.038390845 0.07950419 0.28446487 -0.0017536483 -0.03917428 -0.12641324 -0.14756575 0.20723456 -0.001398552 0.08971533 0.09879291 -0.09016926 -0.1473427 -0.05716672 -0.22764355 0.08477129 -0.09067092 -0.1343121 0.00080674235 -0.20751853 0.17596528 -0.15935887 0.0060487087 -0.22263595 -0.11712736 -0.15099911 -0.030070934 -0.06881631 0.11180557 0.016752664 0.051380605 0.054639213 0.005558676 0.12087896 -0.0082348045 0.047158767 -0.021970937 -0.17211267 0.22270027 -0.06293534 0.021130431 -0.04686957 -0.018952971 -0.075402856 -0.08165067 -0.14085168 -0.116295114 -0.028255407 0.020556573 -0.07002846 0.032396965 0.09617156 -0.051547635 0.006804461 -0.09575465 0.18646455 0.123899296 -0.017707884 -0.118990205 -0.16467218 0.04909878 0.024665615 0.02036522 -0.11461302 -0.080602065 0.11014071 0.015389083 0.120971665 -0.13830091 0.01089963 0.09987523 -0.2591743 -0.02062722 -0.05660603 -0.13597912 -0.07767444 0.120081 -0.007192528 0.10242126 0.033237312 0.19402242 -0.011894813 -0.21026957 -0.1745399 -0.002666432 -0.2312748 0.06320493 0.026862353 0.0002841448 0.0052088257 0.009148278 0.11763502 0.08606145 0.20316927 0.09608948 -0.11719356 0.16732696 -0.06572803 -0.0542032 0.038947124 -0.16985159 0.01765183 0.06435259 0.11307606 -0.052223332 0.016461665 0.110098764 0.09231628 0.1321254 0.014198356 0.12737662 0.059187923 0.09181678 -0.15469024 -0.14907172 0.088172786
0 -0.09282996 -0.18289606 0.074092135 -0.08429429 0.07652276 0.041557856 -0.03178794 0.054585177 0.022101395 -0.04818944 0.08974004 0.19096102 -0.11317866 -0.056650575 0.087344855 -0.08211949 0.008359537 -0.038448174 0.031009853 -0.13851686 0.1298753 0.11415654 0.01377571 0.07360846 -0.10029907 -0.050821327 0.063019946 0.037437066 -0.056561057 0.022487286 0.01330746 -0.058940336 -0.1276129 0.12383501 0.030974314 -0.06404725 0.20182922 0.08516451 -0.03716916 0.0027089282 -0.09154749 -0.066880986 0.2677173 0.22973654 -0.09288725 0.18268406 0.15207553 -0.11410182 -0.048692912 0.03729956 -0.04734323 0.029837912 0.016048688 0.051015925 -0.16883193 -0.1429728 -0.048586864 0.097123206 -0.18472685 -0.010158388 0.09044181 -0.12585719 -0.014408943 0.07483243 -0.104570106 0.06630546 -0.01740474 -0.13499281 -0.06886767 -0.2594166 0.020128334 0.055758003 0.042397708 0.04525975 0.29263783 -0.0022777691 0.1575407 -0.020571863 -0.1628275 -0.06471264 -0.11617362 -0.07055303 -0.08416186 0.104026094 -0.21098058 0.116158605 0.07717854 -0.10695894 0.09284365 -0.079363 0.10620927 0.03950311 0.05711604 0.008213788 -0.14158112 0.09304361 -0.11878098 -0.21837035 0.14226954 0.1400879 -0.131846 -0.10491337 -0.019295912 0.058992893 -0.19317797 -0.023459567 0.24738817 0.22846672 -0.10199394 -0.15635854 -0.033567667 -0.03299342 0.010710779 0.0055220737 -0.03010757 0.0680473 -0.07634082 0.16978684 -0.15845339 -0.09508547 -0.07907738 -0.18639016 0.0647264 -0.24628554 -0.10608809 0.0007932623 0.014730023 0.12037728 0.28610754 0.06842049 -0.06476323 -0.018747192 0.14035386 -0.08102602 -0.07785722 0.026231633 -0.045848913 -0.09322048 0.093232326 0.11184976 0.013086096 0.05028759 0.15609941 -0.052170046 0.069813 0.11636597 -0.13959704 0.096984364 0.089047246 0.011310707 0.16492939 -0.063861005 0.052939754 -0.0034966336 -0.07523657 -0.06236042 -0.020370608 -0.016478723 0.05213568 -0.07795505 0.09362683 -9.372714e-06 0.034233827 -0.043498296 0.050499246 -0.13897921 -0.18360949 -0.07062333 0.11904951 0.09599988 -0.10282142 0.17134692 -0.0052739666 0.3026719 0.054288693 0.12906146 -0.01177644 -0.1204166 -0.069895685 0.021740017 0.056706674 0.013103093 0.1383497 -0.03318148 0.015174951 -0.08319471 0.021357186 -0.042416938 -0.14546207 0.09208512 0.07916906 0.06562142 0.026222851 -0.13201737 -0.1033618 0.07321652 0.16698627 0.20438673 -0.13187169 0.10725132 0.2253509 0.13431351 0.106525026 -0.2249972 0.058201358 0.15541516 0.0031566115 -0.010247048 -0.047526237 -0.0055784765 0.08086315 -0.11352535 -0.059865505 -0.044162795 -0.123883575 -0.11199253 0.077142686 -0.04853688 -0.19471042 0.05721295 0.13698302 0.04511263 0.059472617 -0.13440372 -0.00010582359 -0.124828786 -0.09282026 -0.041012414 -0.020948736 -0.0124715585 -0.11321507 -0.05739542 0.10017065 0.07324757 0.103372745 -0.023586502 -0.009828098 -0.103917345 0.07782492 -0.08643337 -0.1654821 0.0918068 0.07700304 0.14889275 0.0049349 -0.022583 -0.015776573 0.05111684 0.07325509 0.22110993 0.05270637 -0.08721941 -0.0058848057 -0.06112451 0.012959446 0.06362012
