15 256
10 -0.09386858 -0.28180352 0.1239401 -0.11837461 0.017395472 0.04782174 0.0026933013 0.087283514 0.02268324 0.011536737 0.070485 0.20158738 -0.102592744 -0.073617704 0.11684803 -0.1359397 0.050847743 -0.03043742 0.11479551 -0.12167541 0.116659924 0.090469204 0.021243112 0.013266318 -0.12074058 0.012414138 0.09684485 0.0813278 -0.059561122 0.024647987 -0.02265253 -0.030403411 -0.12411277 0.18219359 -0.017683156 -0.1024842 0.22629675 0.040159687 0.057647508 -0.028369648 -0.15054618 -0.08900204 0.24803148 0.28541392 -0.094824985 0.22128414 0.07252692 -0.15351565 -0.024125 0.07582197 -0.12859045 0.013547503 0.06606586 0.10747803 -0.27153292 -0.12720858 -0.1000238 0.120917976 -0.25427058 -0.008167057 0.09197652 -0.19491196 -0.06456253 0.08049044 -0.094276205 0.027016127 0.022145402 -0.17381397 -0.15190102 -0.27876052 -0.023990866 -0.009568136 0.10985937 0.05251339 0.24520376 -0.0043362784 0.15476312 -0.04433733 -0.15056947 -0.086495966 -0.111498006 -0.19325428 -0.11534834 0.12267051 -0.26719025 0.16355382 0.0889575 -0.12492873 0.14760786 -0.13325089 0.16419563 0.061916836 0.056668587 -0.033034362 -0.17639045 0.04793163 -0.14497583 -0.33330664 0.1362655 0.09648397 -0.08731237 -0.17999418 -0.007776089 0.026147522 -0.12560454 -0.058734834 0.34039786 0.24379689 -0.13541986 -0.15329342 -0.1263471 -0.022301912 0.07765259 0.027639886 -0.13338214 0.0935354 -0.043372616 0.16792883 -0.25398597 -0.13537993 -0.1405265 -0.21303295 0.07431428 -0.23234574 -0.08570158 -0.029121684 0.068168715 0.086459726 0.3927507 0.10598968 -0.027148597 -0.06831264 0.17149295 -0.023497446 -0.055067632 0.038940586 0.0097120255 -0.11192719 0.10116199 0.10356894 -0.04928975 -0.036472596 0.24177822 -0.15587915 0.052231137 0.22069323 -0.19313148 0.1480421 0.114341296 0.0018132881 0.25213453 -0.14292243 0.09494512 -0.03814624 -0.033911303 -0.12761383 -0.059047014 -0.020699454 0.0028392146 -0.13254794 0.07100989 0.030205298 -0.048367653 -0.04716897 0.09363085 -0.15213752 -0.2230299 -0.04067899 0.1749007 0.11445403 -0.14769222 0.15637608 0.038376823 0.37053853 0.059395727 0.14393245 0.058776718 -0.10303843 -0.09812849 0.064504385 0.11868561 0.014376297 0.16622533 -0.078482434 0.04148293 -0.10981552 0.024490371 0.023572592 -0.17243724 0.07141382 0.038017135 0.09280952 0.078205936 -0.18686445 -0.16893686 0.09710224 0.17015852 0.15454431 -0.11815549 0.14452465 0.25977257 0.17966291 0.10235087 -0.2572366 0.028741578 0.23318917 0.0345866 -0.0870829 -0.046584677 0.027028378 0.07551034 -0.15693592 -0.09959594 -0.04179017 -0.08615126 -0.09531113 0.0313095 -0.03128689 -0.22382385 -0.005772411 0.15933843 0.0011893802 0.044493333 -0.13636777 0.01144374 -0.10908546 -0.12073464 -0.046871267 -0.018516168 -0.007387964 -0.14739624 -0.06734414 0.2243626 0.092930876 0.13038783 0.014912889 -0.08527603 -0.12833154 0.10045201 -0.14936905 -0.17236185 0.08163442 0.020581057 0.057578646 0.01969504 -0.007549823 -0.07369228 0.11213654 0.117276706 0.2311258 0.15149336 -0.11997103 -0.06703156 0.010799351 0.046652663 0.111693315
14 -0.08974863 -0.28590435 0.1305981 -0.11925242 0.011090143 0.058610108 -0.0025732168 0.08447593 0.0014338801 0.022692695 0.07573021 0.21169987 -0.10411871 -0.06372564 0.12030557 -0.12682894 0.05386769 -0.023734387 0.124011226 -0.118898846 0.11757576 0.09222409 0.02087109 -9.4739065e-05 -0.13139425 0.020670578 0.10318194 0.08578313 -0.06417281 0.032238714 -0.013197463 -0.039019085 -0.12240467 0.19834302 -0.018545486 -0.09452148 0.23164158 0.0397826 0.059791375 -0.02871571 -0.15677692 -0.083387375 0.24843618 0.28477645 -0.08888003 0.23203649 0.068385795 -0.15979186 -0.027015248 0.074550025 -0.1275286 -0.0036969276 0.07186516 0.1026244 -0.27763787 -0.1267306 -0.103722006 0.12663826 -0.26247334 -0.013998976 0.09538947 -0.19630638 -0.06092254 0.070841014 -0.09234179 0.03141218 0.020339359 -0.18963906 -0.16088104 -0.27503178 -0.027374351 -0.005527925 0.11459244 0.06290902 0.24881859 0.008286435 0.16118658 -0.036522754 -0.15188338 -0.07484205 -0.11655104 -0.2042566 -0.11032229 0.14311354 -0.2657394 0.18725957 0.09037165 -0.13667525 0.15780865 -0.1506979 0.15985015 0.0712728 0.04941021 -0.043524135 -0.17992084 0.055833768 -0.15383527 -0.3362627 0.13861695 0.085033685 -0.08149675 -0.1993607 0.004663369 0.034762487 -0.13224646 -0.06274292 0.35213086 0.25609624 -0.1399519 -0.15061256 -0.14390272 -0.027298978 0.079537675 0.030888464 -0.12861636 0.105553314 -0.044422384 0.16008936 -0.26542503 -0.14106838 -0.14352734 -0.22763634 0.07451652 -0.24155092 -0.07416258 -0.031287726 0.07241646 0.07356617 0.41356745 0.11456916 -0.026347654 -0.06604914 0.18485078 -0.025413547 -0.057215758 0.04110723 0.017877162 -0.124725826 0.12153628 0.10827558 -0.052119408 -0.041921515 0.23048067 -0.15936717 0.06320235 0.2418634 -0.1925223 0.14265287 0.119447775 0.0004555613 0.25516647 -0.14418809 0.11366891 -0.037409663 -0.014995208 -0.13490196 -0.05402547 -0.012044215 0.0050667454 -0.12219577 0.06278198 0.038662948 -0.04997722 -0.03055903 0.1076953 -0.14766683 -0.23723963 -0.043664504 0.17579815 0.1204866 -0.16266212 0.1630957 0.040642835 0.38651848 0.06698237 0.15259449 0.061627235 -0.10007666 -0.120461516 0.068985075 0.119277865 0.021420192 0.18024866 -0.072097845 0.051115803 -0.10523464 0.03403307 0.02520329 -0.18962501 0.08478369 0.037574206 0.09055101 0.08764355 -0.19944446 -0.17092733 0.08733774 0.17309578 0.17022288 -0.115140475 0.16794689 0.27277765 0.18742721 0.109965935 -0.26258588 0.037897293 0.23405874 0.030893277 -0.09607553 -0.040351707 0.0207711 0.071032144 -0.14595398 -0.10044998 -0.034543995 -0.08191705 -0.102076426 0.02619197 -0.025706854 -0.2488333 -0.0032150259 0.15790722 0.010111385 0.066572875 -0.12912159 0.012864097 -0.09920828 -0.13657877 -0.053314198 -0.01847722 -0.005740189 -0.15790047 -0.083984435 0.2231626 0.080860235 0.1284634 0.031059364 -0.099919684 -0.12757824 0.114283755 -0.1612249 -0.17429215 0.08338697 0.01817123 0.057660747 0.02185587 -0.010082144 -0.082936555 0.10929141 0.11329551 0.24604587 0.14493637 -0.13333331 -0.078449935 0.023218261 0.062674314 0.10833408
11 -0.15662941 -0.20670106 0.058680113 -0.116347305 0.10494357 -0.121216714 0.04119176 0.11114641 0.27165034 -0.109249376 -0.04736688 0.038635798 -0.06346856 -0.21946962 0.06908588 -0.25681818 0.008876789 -0.13599484 -0.00071076304 -0.16538662 0.094707966 0.08588489 0.019143336 0.17783971 0.040706336 -0.0807638 0.0071218996 0.0552762 -0.00758213 -0.043762177 -0.112538636 0.117458194 -0.15036623 -0.058494397 0.035553966 -0.20088945 0.10223932 0.065804645 0.03243051 0.0040510586 -0.055230796 -0.1428501 0.20554072 0.25404873 -0.18861844 0.029624822 0.10136788 -0.03017324 -0.009643556 0.12873589 -0.13874406 0.23475918 -0.048501894 0.18622957 -0.14574721 -0.14569896 -0.06999807 0.079452336 -0.108580045 0.04314932 0.02462472 -0.1738267 -0.06188752 0.17338774 -0.13072626 -0.025744699 0.06950164 0.058197238 0.006916257 -0.29092535 -0.012231304 -0.023049872 -0.011940782 -0.06850273 0.16634466 -0.17128511 0.061123934 -0.13550515 -0.100460544 -0.25261924 -0.016696151 -0.0018165678 -0.15570422 -0.16013959 -0.2531994 -0.15989439 0.073111236 0.056315914 0.010321874 0.123611145 0.1730578 -0.08549594 0.12562254 0.088252194 -0.12388708 -0.056587286 -0.021930426 -0.20992213 0.103251114 0.22877158 -0.16503648 0.113484226 -0.17637654 -0.08488891 -0.031691834 0.025924327 0.1409169 0.048761494 -0.06572676 -0.19356556 0.078289665 0.055467006 0.014519961 0.0006005746 -0.17016762 -0.08732132 -0.04978968 0.2283267 -0.07164729 -0.013663198 -0.07981768 0.0032028514 0.05903132 -0.10781629 -0.24701053 -0.00023316519 0.003911999 0.24281599 0.07470221 -0.022512421 -0.053117607 -0.08208033 -0.013701672 -0.016354224 -0.018323574 0.02576537 -0.10309807 0.051812306 -0.14598046 0.07641902 -0.026950646 0.05499807 0.32807693 -0.07121688 -0.06974771 -0.09317082 -0.14511521 0.22579731 0.021595174 0.022953764 0.16779439 -0.09934995 -0.14633636 -0.03619204 -0.26190418 0.004024665 -0.13152201 -0.15285677 -0.03962933 -0.26131797 0.16769482 -0.10857063 -0.016210247 -0.21799505 -0.12190922 -0.19240212 -0.027624134 -0.017484458 0.17218246 -0.01207276 0.09549346 0.028026184 -0.014576562 0.11139303 -0.03506793 0.01968751 -0.024376327 -0.16687998 0.22906192 -0.033153627 0.08176938 -0.094346635 -0.049852885 -0.121532455 -0.11385096 -0.163815 -0.12730283 -0.029388396 0.028256569 -0.12580481 0.050993882 0.06577901 -0.048236 -0.03053782 -0.10370542 0.21247125 0.112216815 -0.079347715 -0.14807175 -0.20420381 0.06360602 0.04743958 -0.007650741 -0.14770146 -0.104316115 0.15041867 0.0696056 0.044346284 -0.13319764 0.06610187 0.09914399 -0.26621443 -0.055722035 -0.095858224 -0.12050105 -0.03795909 0.0889144 -0.088221565 0.13068198 0.0016576573 0.20390539 -0.08419809 -0.2526281 -0.190339 -0.01010751 -0.21721725 0.09176047 0.047563702 -0.0042468817 -0.026646158 0.03512096 0.17180398 0.17459257 0.22179067 0.11165586 -0.1678852 0.11450592 -0.09372954 -0.0854383 0.00053347176 -0.16396528 0.06727324 0.041829232 0.0299121 -0.029526262 0.057511073 0.07050311 0.10258091 0.1582138 0.0034589516 0.18900436 0.06814819 0.13479823 -0.13110307 -0.13001412 0.13605449
8 -0.09762103 -0.28370926 0.124886 -0.119777806 0.018924685 0.04071036 0.004172462 0.08959874 0.030731337 0.009882288 0.06490829 0.19662987 -0.10236823 -0.08162153 0.11831868 -0.1449069 0.05032394 -0.035884663 0.114530884 -0.12385051 0.11548829 0.09188297 0.02087572 0.01614881 -0.11463733 0.011559438 0.093730755 0.08407689 -0.05841711 0.024867192 -0.025502026 -0.023221333 -0.12712102 0.17513703 -0.015004594 -0.10793509 0.22450985 0.042708226 0.060409088 -0.023869697 -0.1481743 -0.09167118 0.24626671 0.28754824 -0.10057989 0.21582837 0.071264334 -0.15051642 -0.02669551 0.08105522 -0.13170236 0.020392679 0.06287306 0.11378368 -0.2707812 -0.1305086 -0.10270082 0.1218467 -0.2510252 -0.008242502 0.08847296 -0.19788235 -0.06327193 0.085113406 -0.09590591 0.02338209 0.027058143 -0.1665485 -0.14609191 -0.28235075 -0.026456 -0.009436634 0.103902325 0.048519958 0.2429113 -0.010950462 0.15181836 -0.047890723 -0.14909038 -0.09391732 -0.10620914 -0.1888482 -0.11978896 0.11267003 -0.26990664 0.15469877 0.09194182 -0.117697865 0.14458413 -0.12554997 0.16576602 0.05542952 0.058012906 -0.03031123 -0.17737018 0.041890383 -0.14242035 -0.33238843 0.13501382 0.10001934 -0.08951277 -0.17191194 -0.016322631 0.02093758 -0.12084519 -0.057194185 0.33597875 0.23554379 -0.13413288 -0.15883857 -0.12354841 -0.017013019 0.07648467 0.027504142 -0.13896032 0.08917881 -0.045506194 0.17047612 -0.25046235 -0.13086015 -0.14083308 -0.20820946 0.07591933 -0.22989322 -0.09368182 -0.029494755 0.068750456 0.091829404 0.3856134 0.10227342 -0.028345682 -0.069920056 0.16883765 -0.022287872 -0.051127113 0.03899884 0.007826194 -0.10741802 0.09498886 0.10510885 -0.051049 -0.03420994 0.24867833 -0.15438253 0.04887248 0.2112978 -0.19456661 0.15560149 0.11261071 0.0031826042 0.2520235 -0.14383273 0.08822324 -0.040041436 -0.040228076 -0.12289561 -0.06394616 -0.026064688 -0.0010717748 -0.14076717 0.07482225 0.02508842 -0.049520187 -0.052543323 0.08653898 -0.15361331 -0.2196926 -0.03980162 0.17935733 0.11114263 -0.14011428 0.15110561 0.038641807 0.36380264 0.057915717 0.13981052 0.057175312 -0.10808946 -0.08568211 0.061028574 0.11843698 0.010783293 0.15951476 -0.079701476 0.03729844 -0.11440502 0.016364913 0.022871748 -0.16746384 0.06230722 0.03635009 0.09015581 0.07635013 -0.1842446 -0.16904943 0.103660695 0.1676301 0.14424786 -0.11985055 0.13204141 0.25367352 0.17601584 0.099033065 -0.25502148 0.02158989 0.23079647 0.03607499 -0.08289239 -0.05039648 0.02769787 0.07731916 -0.16438988 -0.0981328 -0.04121966 -0.08701712 -0.096129015 0.03264339 -0.030433634 -0.21304777 -0.0061945785 0.16472706 -0.0009289824 0.032902434 -0.13872789 0.011559797 -0.113956116 -0.11403882 -0.0429003 -0.01598218 -0.006859735 -0.14285779 -0.057970487 0.2251764 0.09936583 0.1293396 0.011566034 -0.079432845 -0.127254 0.0959087 -0.14629991 -0.17537902 0.0810306 0.01916743 0.05400184 0.016323466 -0.0035580685 -0.070227854 0.11385253 0.119723104 0.22438015 0.15533568 -0.11590558 -0.06017011 0.0083618285 0.043596543 0.11424261
5 -0.15841159 -0.19643703 0.048589785 -0.114946514 0.11239071 -0.13553421 0.047726803 0.1082183 0.2921372 -0.11923188 -0.056140117 0.023165103 -0.05920585 -0.23094842 0.06224012 -0.26449534 0.0044064946 -0.14523262 -0.013022071 -0.16447772 0.090826556 0.08634158 0.015701545 0.1931417 0.057115756 -0.08903106 -0.0010993021 0.050005395 -0.0013964662 -0.048714425 -0.12192692 0.12943225 -0.15300696 -0.07812907 0.040111396 -0.2106197 0.087168306 0.06664663 0.028809158 0.00540819 -0.044493556 -0.14773005 0.19535196 0.24709879 -0.19529386 0.009537332 0.10159121 -0.019551089 -0.0073297503 0.12983955 -0.13857183 0.25383577 -0.05724564 0.1891458 -0.13003817 -0.14493234 -0.06512373 0.07204308 -0.08952172 0.04536636 0.016857522 -0.16882549 -0.061673664 0.17985526 -0.13220607 -0.030852975 0.07667377 0.07997738 0.021724408 -0.2872909 -0.011714638 -0.023667317 -0.023379639 -0.08023028 0.15468282 -0.18697178 0.04941936 -0.14262132 -0.09415412 -0.2659496 -0.009504697 0.015344099 -0.15771644 -0.1848217 -0.2472126 -0.19057123 0.069368884 0.07479382 -0.0034001642 0.1462569 0.17349692 -0.09759385 0.13063288 0.09795091 -0.119136326 -0.06404568 -0.012290494 -0.195473 0.10080436 0.2384924 -0.17396362 0.13858196 -0.19053814 -0.09689979 -0.023117444 0.03339893 0.11895395 0.030452501 -0.060370363 -0.19373502 0.09624046 0.060411457 0.010877435 -0.0024314832 -0.17189004 -0.100896224 -0.046423618 0.23023912 -0.050430547 0.00011158611 -0.07346433 0.026260402 0.05513865 -0.093820386 -0.25967047 0.0054702885 -0.00226036 0.2561323 0.044845164 -0.034695435 -0.05685848 -0.08080059 -0.030308133 -0.016096635 -0.014535584 0.024172287 -0.11608135 0.06692216 -0.16925412 0.07361932 -0.024371041 0.06413761 0.33139127 -0.061132886 -0.083549015 -0.123798065 -0.14066693 0.22813427 0.012640193 0.023367273 0.15626037 -0.09324518 -0.16771409 -0.036740348 -0.28002203 0.016894279 -0.13517636 -0.16454725 -0.045500826 -0.27082536 0.17512816 -0.120841205 -0.015087206 -0.22995707 -0.13921817 -0.1948006 -0.008815142 -0.013104221 0.16654567 -0.027200814 0.1154295 0.0163171 -0.02154989 0.084703825 -0.043282975 0.007084595 -0.0300366 -0.1673495 0.25809819 -0.040878654 0.07451862 -0.10354196 -0.07198689 -0.1259331 -0.12848566 -0.16693617 -0.13847952 -0.032700494 0.050832994 -0.14418723 0.04835483 0.06167869 -0.060451176 -0.015476382 -0.09806782 0.21980621 0.10500663 -0.10103575 -0.14744717 -0.234137 0.046502646 0.033583645 -0.016699087 -0.13181894 -0.116437815 0.14097093 0.0720357 0.05551619 -0.14211446 0.06805643 0.10386156 -0.27369946 -0.0476067 -0.10245904 -0.122932374 -0.031527102 0.094123445 -0.09145185 0.16405089 0.002553494 0.20589235 -0.09073261 -0.27712578 -0.19099015 -0.009873533 -0.22467057 0.10972788 0.055132415 -0.0055719977 -0.03149433 0.053803053 0.19143239 0.16807014 0.23187283 0.10674198 -0.18139094 0.13233574 -0.09245804 -0.098936036 0.0122511955 -0.15734126 0.06504553 0.040518884 0.02779451 -0.03547838 0.066036485 0.08233371 0.10167888 0.15908673 -0.016688278 0.19161637 0.082932785 0.15362592 -0.14024046 -0.14299805 0.13568518
7 -0.1533401 -0.18774696 0.0461749 -0.11218966 0.107777975 -0.13270208 0.045850586 0.10780409 0.2885026 -0.11712351 -0.05876219 0.018685337 -0.054986212 -0.2297228 0.060097385 -0.2572485 0.0049954033 -0.14180349 -0.015543232 -0.16191293 0.08749151 0.08136945 0.016925067 0.19022346 0.059273772 -0.08819574 -0.0041101165 0.048712116 -0.0010194437 -0.04886854 -0.11788576 0.13058373 -0.14953424 -0.08253068 0.0373952 -0.20551607 0.0813175 0.06273839 0.02733342 0.0044525866 -0.045284092 -0.14387845 0.1910666 0.24141078 -0.19019023 0.006947281 0.09974363 -0.016799903 -0.0053550457 0.1283305 -0.13583247 0.25053376 -0.05909133 0.18882419 -0.126951 -0.13896647 -0.06369846 0.06848413 -0.08420031 0.04846323 0.016946793 -0.16251951 -0.060772154 0.1761129 -0.1280723 -0.03036978 0.074414045 0.08399358 0.023255754 -0.27988008 -0.011077949 -0.02211673 -0.024920423 -0.07790537 0.14941572 -0.18286328 0.047150023 -0.1376038 -0.089294024 -0.26108646 -0.006080795 0.019312982 -0.1538805 -0.18251224 -0.23976296 -0.19052202 0.064646564 0.07435992 -0.007604726 0.14791925 0.16949123 -0.096849464 0.12888817 0.09619473 -0.11415676 -0.063074395 -0.0070373276 -0.18891072 0.09436321 0.2326366 -0.16959454 0.14019755 -0.18893693 -0.09467522 -0.019889977 0.03281327 0.110024415 0.026717823 -0.05441946 -0.18825835 0.09932257 0.0617128 0.008235792 -0.0029531417 -0.16798624 -0.10299101 -0.04734275 0.2235887 -0.049217 0.0033324324 -0.071177036 0.03021935 0.054421928 -0.08684068 -0.25513357 0.00396836 -0.00042305814 0.25179708 0.036608767 -0.03515232 -0.056010135 -0.07683363 -0.030256623 -0.012073344 -0.010794376 0.024721393 -0.11492132 0.06518819 -0.16710012 0.072124355 -0.021296965 0.064680785 0.32311726 -0.058045294 -0.08301824 -0.124612726 -0.13445932 0.2259172 0.012536903 0.022111822 0.15229313 -0.08922176 -0.16672215 -0.035945732 -0.27467898 0.015349096 -0.13424866 -0.16148284 -0.04362543 -0.26590377 0.16984344 -0.118144326 -0.011149903 -0.22502357 -0.13994175 -0.18948269 -0.0069897166 -0.010843513 0.16503087 -0.028759157 0.118598826 0.013316111 -0.02090668 0.075828455 -0.04422926 0.0055771554 -0.032271042 -0.16725816 0.25520295 -0.03931668 0.07439079 -0.103275076 -0.07513122 -0.12275557 -0.12795754 -0.16174182 -0.13923724 -0.03317907 0.05335998 -0.14502874 0.050123453 0.056929402 -0.059226338 -0.014036003 -0.091208264 0.21769355 0.10119888 -0.10418206 -0.14322074 -0.23366159 0.04019433 0.031594176 -0.01954495 -0.12792332 -0.11750596 0.13540968 0.07044982 0.05709911 -0.13840234 0.069574915 0.10135922 -0.26657042 -0.046411105 -0.100575805 -0.1205362 -0.027802723 0.09029655 -0.09284646 0.16545327 0.0023604946 0.19973883 -0.092801124 -0.2759888 -0.18930921 -0.013063759 -0.22032852 0.11047834 0.057026178 -0.0028703995 -0.02852427 0.05544285 0.19171146 0.16377948 0.22682661 0.10323532 -0.18046692 0.13286479 -0.08787319 -0.10217677 0.015151068 -0.15572718 0.06481793 0.04278488 0.024512101 -0.032860823 0.06321772 0.081407614 0.09892902 0.15674578 -0.020657232 0.18412039 0.085745506 0.15268967 -0.14081496 -0.1426211 0.13383871
1 -0.15736455 -0.19373009 0.051953368 -0.114464685 0.10918958 -0.1333082 0.04448343 0.10927288 0.28531155 -0.11479245 -0.05712178 0.022139987 -0.055753842 -0.22737443 0.059482478 -0.25858358 0.0067294524 -0.14123306 -0.009596422 -0.16318999 0.08918771 0.08318375 0.01750684 0.18732853 0.05457538 -0.084677696 0.0010907052 0.05283426 -0.00051874074 -0.048065957 -0.12005089 0.12820108 -0.14926125 -0.07557007 0.037099835 -0.20657647 0.0843601 0.06363949 0.030759355 0.0030768286 -0.04759571 -0.14611003 0.19455503 0.24464415 -0.1905785 0.009170456 0.09806776 -0.019451458 -0.0056093046 0.1296467 -0.1375853 0.24801773 -0.05762397 0.18918522 -0.13155946 -0.14068227 -0.06570343 0.073440865 -0.09162221 0.046709556 0.018865207 -0.16695014 -0.06329837 0.17457686 -0.12943223 -0.02964485 0.07385582 0.0781999 0.017727008 -0.28086624 -0.010937576 -0.025120229 -0.01888761 -0.07666863 0.15090051 -0.18237223 0.051644627 -0.13911076 -0.09045021 -0.260359 -0.009210032 0.011528449 -0.15389997 -0.18108638 -0.24300456 -0.18468645 0.066524886 0.07010072 -0.0018917075 0.14253086 0.16939391 -0.09416334 0.12733382 0.094580755 -0.11644986 -0.063278265 -0.011612152 -0.1931541 0.09898686 0.23233677 -0.16980226 0.1353545 -0.18399864 -0.09293484 -0.020520546 0.03450464 0.11908315 0.03245798 -0.05937412 -0.18914802 0.093700975 0.05760526 0.011104768 0.00091584446 -0.16853589 -0.1007155 -0.046038188 0.22656663 -0.05412656 -0.002318596 -0.07267707 0.024792423 0.052166697 -0.09092837 -0.25311366 0.0037859767 -0.0013504415 0.2493564 0.046263512 -0.03259473 -0.05347546 -0.08091724 -0.030179597 -0.012960632 -0.014129853 0.025709953 -0.11113114 0.063244976 -0.16584171 0.07297186 -0.024170442 0.059628673 0.32524198 -0.06437295 -0.08019479 -0.1162559 -0.1362645 0.22608131 0.012670675 0.021455342 0.15546583 -0.093019 -0.16267644 -0.033308227 -0.27309078 0.013045854 -0.13387434 -0.16030976 -0.044808388 -0.2646031 0.16990624 -0.116495416 -0.015248861 -0.22524557 -0.1367593 -0.19153224 -0.010051228 -0.013404109 0.16635996 -0.026119377 0.114243634 0.0150552085 -0.020724338 0.08412717 -0.044290856 0.0074830395 -0.030261828 -0.16531307 0.25092223 -0.038499333 0.0770269 -0.1015386 -0.06962276 -0.124386296 -0.12592684 -0.1636712 -0.13659853 -0.03297061 0.045621064 -0.14208885 0.050277274 0.06027035 -0.05780849 -0.018742332 -0.09547582 0.21635 0.10401503 -0.10031369 -0.14510523 -0.22905293 0.046788536 0.034510095 -0.017465865 -0.13236488 -0.11401287 0.14058462 0.07091381 0.0514428 -0.13828054 0.067823514 0.09908969 -0.26667517 -0.050648082 -0.0995162 -0.11860784 -0.031166317 0.09052159 -0.09285669 0.15842284 0.0007377119 0.2009347 -0.09158064 -0.27176955 -0.18850885 -0.011213768 -0.217765 0.10564224 0.05405636 -0.005088367 -0.030501524 0.052539308 0.18788317 0.16646707 0.22533366 0.10704025 -0.17880982 0.12666543 -0.08920381 -0.09893098 0.0108436905 -0.15579708 0.06633722 0.040453926 0.023721397 -0.032358244 0.064240955 0.0796643 0.098592564 0.1574041 -0.017714234 0.18881696 0.08174555 0.14934233 -0.13815774 -0.14056996 0.1361486
3 -0.1502306 -0.19196823 0.054910388 -0.11032325 0.10132228 -0.11854737 0.042490587 0.10425162 0.2604794 -0.10590911 -0.046706446 0.030426402 -0.06005745 -0.21466984 0.06131809 -0.24607156 0.009891966 -0.13250677 -0.004395542 -0.15729173 0.08610051 0.082555555 0.016589478 0.17438617 0.045231994 -0.07868567 0.0051875184 0.052801438 -0.0024560269 -0.03997881 -0.110948384 0.114056855 -0.14595729 -0.058018867 0.033589587 -0.19598323 0.092402786 0.06292461 0.030514155 0.004115505 -0.050597142 -0.14002252 0.19224374 0.24153534 -0.18133497 0.021442536 0.096723 -0.028022207 -0.010074443 0.123672895 -0.13052408 0.22682303 -0.050924286 0.17887032 -0.13574123 -0.1383104 -0.066817 0.07345852 -0.0981651 0.043629106 0.019695835 -0.16182896 -0.060961105 0.16714576 -0.1231748 -0.02762568 0.07074803 0.062902614 0.009956871 -0.27553025 -0.010040308 -0.021528892 -0.014268681 -0.066106655 0.15450844 -0.16791429 0.05674064 -0.12985921 -0.09061477 -0.24328348 -0.014236458 0.0030390269 -0.14879312 -0.15964183 -0.23682733 -0.15879883 0.06669992 0.058558226 0.0039931475 0.12289785 0.16385926 -0.08236304 0.11963956 0.08577334 -0.118465334 -0.053809974 -0.020299802 -0.19335581 0.09922934 0.21874243 -0.16182865 0.11391411 -0.17258714 -0.08430497 -0.025962485 0.029124789 0.12694122 0.042317096 -0.059811343 -0.18410125 0.08104256 0.05286883 0.014429497 0.0011382182 -0.16127968 -0.08559818 -0.046467632 0.21802767 -0.06087977 -0.008487216 -0.0755085 0.008091345 0.05286944 -0.09739558 -0.23874098 0.0026909234 0.003648979 0.23468606 0.06279732 -0.025719712 -0.05159843 -0.07493109 -0.01457257 -0.013986734 -0.013954582 0.022668757 -0.102305055 0.052208375 -0.1456574 0.073088914 -0.0222554 0.055276692 0.31330603 -0.06562986 -0.06916488 -0.09737824 -0.13844196 0.21594696 0.020596279 0.020556564 0.15697716 -0.09151442 -0.14401819 -0.03230265 -0.2525809 0.0073360596 -0.1279339 -0.14592314 -0.04088795 -0.25071403 0.16119756 -0.10780468 -0.014714649 -0.20991911 -0.12030212 -0.18421045 -0.023935506 -0.013833315 0.16319402 -0.017667744 0.09424709 0.02374101 -0.015681546 0.096536964 -0.036994677 0.01406563 -0.02325988 -0.1581084 0.22563097 -0.03300373 0.07702341 -0.09034319 -0.05472415 -0.118266895 -0.112727575 -0.15765166 -0.124505535 -0.02922254 0.03542977 -0.12682094 0.048805892 0.05855169 -0.0471089 -0.025540998 -0.0974062 0.20519505 0.1035105 -0.083083056 -0.13856451 -0.20285223 0.056802895 0.04144711 -0.008525827 -0.13466248 -0.10483744 0.14071995 0.06489051 0.04534901 -0.12982911 0.064771086 0.09816057 -0.25565016 -0.049657933 -0.09489552 -0.11694415 -0.034582403 0.08461149 -0.08686878 0.13022512 0.001322756 0.1942612 -0.083727725 -0.24654292 -0.18279538 -0.010257657 -0.20674452 0.08981537 0.048853952 -0.004748518 -0.029180607 0.04013995 0.17020732 0.16376181 0.2133339 0.104776874 -0.16244125 0.114403725 -0.09029531 -0.08432518 0.0047758636 -0.1527529 0.06469573 0.038087286 0.027655015 -0.029325923 0.058365393 0.07128763 0.09815878 0.1482679 -0.0021400657 0.18126136 0.066550165 0.13193147 -0.12837797 -0.12829703 0.13150373
4 -0.0988302 -0.28142595 0.124131076 -0.12000342 0.022206452 0.037915736 0.0017898371 0.09192939 0.033169404 0.006542907 0.067132995 0.19732584 -0.10015196 -0.083532006 0.1167819 -0.14570272 0.0496316 -0.03815615 0.11327265 -0.12492058 0.117543094 0.091993794 0.019993238 0.018423922 -0.11383165 0.009434946 0.09260813 0.083949156 -0.056029707 0.022517063 -0.026828064 -0.024041673 -0.12865967 0.17320722 -0.015018531 -0.109200075 0.22461003 0.04469446 0.059532356 -0.024892246 -0.14733727 -0.09416617 0.2506744 0.2894002 -0.10146367 0.21299545 0.07277988 -0.15194392 -0.026945405 0.07963311 -0.13018449 0.021761907 0.061116192 0.11455132 -0.27108526 -0.13067812 -0.1002662 0.12305688 -0.24968725 -0.0078077805 0.09184262 -0.19845551 -0.06323723 0.08575043 -0.0964716 0.026476186 0.02387805 -0.16444835 -0.14599419 -0.28362933 -0.024884574 -0.008269995 0.106075294 0.04626322 0.24535215 -0.01329858 0.15514563 -0.047278427 -0.15040739 -0.09393157 -0.10696673 -0.18904284 -0.11988923 0.11135909 -0.2687911 0.15105565 0.093034565 -0.11879819 0.14551134 -0.12259668 0.16467881 0.055550866 0.05744661 -0.030172775 -0.17808837 0.043667104 -0.14348048 -0.33317098 0.1371052 0.10298221 -0.09330495 -0.16884097 -0.013597054 0.022649784 -0.12431723 -0.05451367 0.3345778 0.23853831 -0.13454321 -0.15945134 -0.11937681 -0.018180637 0.07565111 0.028242737 -0.1381761 0.088408016 -0.044958707 0.17310263 -0.25010186 -0.13093619 -0.13916397 -0.20585854 0.07299298 -0.23298807 -0.098121695 -0.027248112 0.069238015 0.09581213 0.3858423 0.10246725 -0.028212257 -0.07205393 0.16812266 -0.023653708 -0.051325385 0.04059737 0.0069986223 -0.10787039 0.09397565 0.107490286 -0.0495348 -0.032792896 0.24858701 -0.15391842 0.04873337 0.20991085 -0.19498743 0.15744337 0.11373951 0.0022786267 0.25056604 -0.14357492 0.08599336 -0.037781127 -0.042536836 -0.12160946 -0.06276536 -0.02904243 -0.00055646384 -0.1412482 0.07594688 0.025424024 -0.047814168 -0.053800646 0.08401291 -0.1543969 -0.22024184 -0.041466273 0.17960659 0.11113468 -0.13668175 0.15262528 0.03589416 0.36354607 0.05477389 0.13888586 0.05420326 -0.10929003 -0.083055235 0.062365305 0.117131874 0.0072603067 0.15756871 -0.08220838 0.03579886 -0.116209745 0.0148492595 0.020078713 -0.16884017 0.06084486 0.039475705 0.09039293 0.07325888 -0.18610421 -0.16892396 0.10621301 0.16991532 0.1451322 -0.1231241 0.13173246 0.25691867 0.17605542 0.09724985 -0.25609106 0.022626963 0.23294404 0.03682212 -0.08210059 -0.05161609 0.027173014 0.07950604 -0.16603996 -0.099772096 -0.043140877 -0.088926725 -0.09822232 0.03415699 -0.033039145 -0.21177568 -0.0045041787 0.16501546 -0.0019842233 0.03131511 -0.1405963 0.01210294 -0.11727965 -0.11488658 -0.045479063 -0.017468646 -0.0074171033 -0.14255333 -0.057243075 0.22377367 0.09965609 0.13135421 0.008592074 -0.07635068 -0.12760791 0.094123356 -0.14690898 -0.17612593 0.08408078 0.019653045 0.05767548 0.01556507 -0.0030303323 -0.06994738 0.11208158 0.119475484 0.2237652 0.15448204 -0.114790194 -0.055482507 0.0068165553 0.04289833 0.11521498
2 -0.098456144 -0.2686645 0.11496377 -0.11724274 0.025948556 0.02612052 0.007146444 0.08974166 0.047985047 -0.0015219987 0.054131787 0.17938967 -0.094418414 -0.09212586 0.10962656 -0.15051083 0.04385362 -0.04228241 0.10013689 -0.1252196 0.11157624 0.08931963 0.02166731 0.030425936 -0.10071178 0.0016021443 0.0835229 0.07844562 -0.05082588 0.018366873 -0.030173233 -0.012031762 -0.12760283 0.15196237 -0.011542403 -0.11120715 0.207384 0.042448934 0.055808235 -0.023356007 -0.13554992 -0.09223119 0.23845953 0.2757655 -0.10673166 0.19344018 0.07198468 -0.1371362 -0.023025375 0.08115114 -0.12762496 0.03686621 0.051163536 0.11757644 -0.2540055 -0.12834461 -0.09476637 0.117234305 -0.23291378 -0.0011538914 0.08087802 -0.18827759 -0.06212386 0.088114224 -0.097516745 0.021334117 0.028032351 -0.14392018 -0.13143663 -0.27525938 -0.023999596 -0.009951816 0.094041005 0.03765378 0.22987644 -0.023111345 0.14211719 -0.05417868 -0.14046316 -0.10493856 -0.09816113 -0.16809487 -0.11992377 0.08713714 -0.25873336 0.12469433 0.086370714 -0.10098724 0.13084354 -0.101827666 0.16226181 0.045019597 0.062353503 -0.021614524 -0.16971752 0.03462968 -0.12909961 -0.31305742 0.12884815 0.11052377 -0.093246184 -0.14373463 -0.026488055 0.010484355 -0.11196513 -0.049046665 0.3122286 0.21765892 -0.12550491 -0.15607482 -0.10338695 -0.01065488 0.06931962 0.023965755 -0.13763367 0.07064241 -0.04333936 0.17176093 -0.22967541 -0.1182597 -0.13189225 -0.18485305 0.07181321 -0.21590039 -0.10392698 -0.023890514 0.062564075 0.10295089 0.34991035 0.08790237 -0.027937543 -0.069510214 0.14997333 -0.023601023 -0.04978015 0.03490915 -0.004964601 -0.09279004 0.073483236 0.09961682 -0.048752394 -0.025281493 0.2481468 -0.14400329 0.03890532 0.17973086 -0.18473211 0.1559934 0.10297409 0.005975169 0.23867954 -0.135964 0.066674106 -0.037916876 -0.060046718 -0.1106672 -0.06865887 -0.038742837 -0.003207869 -0.1471333 0.07965662 0.012324989 -0.045037992 -0.063438475 0.0665219 -0.15477674 -0.19754934 -0.03916932 0.17261118 0.096752174 -0.11689244 0.13914537 0.032542303 0.33381495 0.04617541 0.12723035 0.04843435 -0.109595574 -0.05852872 0.051679317 0.111623675 -0.0013056829 0.13745475 -0.0813051 0.023362271 -0.11622903 0.0053690113 0.017747218 -0.14851257 0.047406245 0.03926534 0.08809657 0.06166193 -0.16837484 -0.15908538 0.108093254 0.1594048 0.1247905 -0.11939314 0.10049544 0.23417263 0.16052589 0.086882174 -0.23932905 0.013092161 0.21954338 0.03699591 -0.071522444 -0.056786086 0.031022647 0.07825034 -0.16668512 -0.09189456 -0.04789648 -0.08973323 -0.087395884 0.035433795 -0.037351396 -0.17729951 -0.0037996115 0.1642558 -0.0062811677 0.007325558 -0.13749488 0.008571362 -0.12124018 -0.09476984 -0.0370085 -0.015062648 -0.006987197 -0.12356258 -0.036718644 0.21474591 0.10488598 0.12732555 -0.005655771 -0.059101548 -0.12115891 0.07886468 -0.12961441 -0.16869347 0.07732435 0.020627707 0.052476995 0.012075864 0.0021254085 -0.05470512 0.10996761 0.11835325 0.19986278 0.15407065 -0.09726861 -0.040934563 -0.0033112662 0.02598614 0.11334151
6 -0.09317186 -0.24708094 0.105524704 -0.10615624 0.026435358 0.021131752 0.0076841284 0.08354358 0.0510142 -0.003532202 0.049029034 0.16120657 -0.08790815 -0.08787591 0.10163692 -0.14024027 0.040106375 -0.043534793 0.09133583 -0.11764942 0.10166472 0.08080496 0.018122751 0.030123442 -0.0870258 -0.0011643685 0.07678178 0.069854036 -0.046791986 0.016315863 -0.030943135 -0.008812455 -0.11601553 0.13371097 -0.007600386 -0.105920956 0.1892145 0.042586755 0.048690997 -0.022515383 -0.12507963 -0.086732194 0.22045335 0.25344375 -0.10119187 0.17580903 0.069174066 -0.12558153 -0.019822547 0.0783196 -0.11875775 0.041257627 0.042531107 0.108575396 -0.22912751 -0.119837865 -0.08806974 0.105003774 -0.20998436 -0.0032533745 0.07639459 -0.17347021 -0.05721188 0.084890336 -0.0901601 0.015639478 0.025927078 -0.12731649 -0.118013695 -0.25517228 -0.020360248 -0.009560024 0.08216634 0.034194756 0.21253727 -0.026361639 0.12971371 -0.049442157 -0.12968025 -0.099262565 -0.089521796 -0.14930487 -0.109196015 0.07506129 -0.23827027 0.10519191 0.08121064 -0.090146534 0.11610723 -0.087604105 0.15065862 0.03800395 0.0599762 -0.014581554 -0.15407765 0.02990601 -0.11550486 -0.28809607 0.12089122 0.10265817 -0.08780295 -0.12668991 -0.028451778 0.0092757745 -0.1025124 -0.040776882 0.28230527 0.19743705 -0.11221883 -0.14587197 -0.08874255 -0.008200932 0.061865676 0.023287533 -0.12643823 0.06368705 -0.039665937 0.15823871 -0.20721364 -0.106652915 -0.11979692 -0.16633126 0.06656581 -0.19719249 -0.10184356 -0.021630578 0.05661262 0.096568465 0.31807056 0.07914977 -0.028770054 -0.06563316 0.13353457 -0.020463046 -0.042861868 0.033468332 -0.006025989 -0.07990065 0.061090905 0.092162564 -0.04375061 -0.022315713 0.23209064 -0.13127175 0.03222939 0.16014087 -0.16965106 0.14422628 0.09312031 0.0035381217 0.21592028 -0.12257131 0.05679269 -0.03633835 -0.057460006 -0.09796313 -0.06301445 -0.037177615 -0.0037727393 -0.1389009 0.07656591 0.010736623 -0.04124217 -0.062058985 0.055392306 -0.14289439 -0.17998654 -0.035652146 0.15944815 0.087552704 -0.10272723 0.12580296 0.029768778 0.30368587 0.041764583 0.11320516 0.04066397 -0.10377034 -0.04717341 0.046427995 0.102762654 -0.0022553066 0.12339267 -0.07460704 0.01760671 -0.108366095 0.003336451 0.01470397 -0.13388497 0.03930248 0.03635562 0.07961422 0.05681727 -0.15262331 -0.14387332 0.10355406 0.1451421 0.10945993 -0.11247761 0.08680923 0.21284296 0.14393981 0.0766335 -0.21932195 0.008207891 0.19841172 0.036436465 -0.061221056 -0.053033013 0.02861946 0.07141188 -0.15680909 -0.08201108 -0.04413697 -0.08280513 -0.08202163 0.033862427 -0.03496954 -0.15919515 -0.0018057354 0.15253124 -0.010679258 0.0018900085 -0.12941648 0.006596508 -0.112409025 -0.08172195 -0.029590003 -0.015552368 -0.0069766487 -0.110452645 -0.029927 0.19770087 0.09925579 0.116436556 -0.008481397 -0.051598087 -0.11094278 0.06880572 -0.11895821 -0.15805489 0.07423824 0.020881316 0.046078756 0.009878068 0.0019303501 -0.04914736 0.09863819 0.11142686 0.17862615 0.14219624 -0.08493405 -0.033947866 -0.007274687 0.02292206 0.10317409
12 -0.10448366 -0.25604808 0.1065379 -0.11479644 0.032584876 0.009846023 0.008491399 0.08634378 0.06893979 -0.010617977 0.04494753 0.1613936 -0.08988641 -0.10027239 0.1025702 -0.1541047 0.03821253 -0.05073154 0.08872049 -0.12721509 0.107139505 0.08781356 0.020157227 0.043446895 -0.084286034 -0.0070538693 0.075459935 0.07437213 -0.045650214 0.010975722 -0.037979368 0.0024730498 -0.12704618 0.12621205 -0.004632276 -0.11672458 0.19001101 0.045978297 0.05124055 -0.018629624 -0.12434284 -0.09601945 0.22856712 0.2654924 -0.11131986 0.17357722 0.07449345 -0.12266625 -0.023250649 0.08357673 -0.12619756 0.05769204 0.038731426 0.11759444 -0.23595908 -0.12795348 -0.09026855 0.108950645 -0.212786 0.002472717 0.075233236 -0.18143757 -0.0614983 0.0961848 -0.09910516 0.015055285 0.033085417 -0.11920796 -0.11088484 -0.26636747 -0.019743819 -0.009571579 0.080246955 0.02682898 0.21792668 -0.03856004 0.13129503 -0.058339845 -0.1324288 -0.11429022 -0.08701974 -0.14557585 -0.12027599 0.05876702 -0.25308362 0.09317668 0.08238914 -0.08270552 0.11249975 -0.07705588 0.15773574 0.0310555 0.06596684 -0.009283475 -0.15801536 0.023168543 -0.11304393 -0.2948649 0.12452163 0.11789703 -0.101148546 -0.11486707 -0.04103581 0.0026358862 -0.100585714 -0.040648367 0.2848042 0.19311264 -0.11320901 -0.15727614 -0.08287287 -0.004873342 0.061350785 0.02299465 -0.13516141 0.05492298 -0.043734357 0.17350069 -0.20794278 -0.10556281 -0.123241715 -0.16091286 0.06858481 -0.19625302 -0.11656181 -0.02107585 0.051471137 0.11386769 0.3135168 0.07591337 -0.0323053 -0.069841005 0.1300404 -0.020638103 -0.044351798 0.0346335 -0.012397311 -0.075882934 0.04743045 0.09714889 -0.043911863 -0.01739146 0.24768062 -0.1306263 0.025386631 0.146976 -0.17605963 0.15968506 0.0891697 0.005013913 0.22246033 -0.1287578 0.043363165 -0.037440326 -0.07601313 -0.09482602 -0.07101962 -0.04782455 -0.005263774 -0.15249753 0.085982166 0.0024475174 -0.042527705 -0.07857288 0.04424517 -0.15279087 -0.17398493 -0.036749866 0.16690788 0.08090704 -0.09228204 0.12242477 0.027394963 0.30264625 0.03876816 0.11315177 0.03940018 -0.11206282 -0.028509734 0.043296024 0.10575687 -0.008344794 0.112887315 -0.082651146 0.009830085 -0.11532555 -0.009058144 0.010835007 -0.12764089 0.025707096 0.03659928 0.08221955 0.051374257 -0.15006503 -0.14791942 0.11568509 0.1508443 0.100591205 -0.11956635 0.06703539 0.20995137 0.14277163 0.07556435 -0.2228186 0.00063687534 0.20689826 0.03909774 -0.057604156 -0.06435417 0.03296003 0.07934426 -0.17045686 -0.08552927 -0.049055528 -0.08697603 -0.08305609 0.0426721 -0.038686838 -0.14297248 -0.0049064667 0.16196404 -0.013315737 -0.018712293 -0.13854022 0.006172848 -0.12596397 -0.07393106 -0.026058156 -0.015871977 -0.01066586 -0.10464917 -0.017696127 0.2027896 0.11467102 0.12232195 -0.019416425 -0.042218268 -0.116472274 0.058867164 -0.11507066 -0.16360277 0.07448274 0.024099063 0.048857044 0.009075534 0.005730388 -0.042209346 0.105534844 0.121894695 0.17524141 0.15158175 -0.07691472 -0.023659261 -0.018545523 0.010806591 0.11222052
13 -0.14036979 -0.20522083 0.06375041 -0.11353883 0.08917617 -0.096904606 0.036724776 0.10105023 0.23108932 -0.08816264 -0.03294752 0.05375604 -0.06349938 -0.19641975 0.07069915 -0.23137537 0.012198717 -0.11876881 0.011653486 -0.15359062 0.093772195 0.08338457 0.015806552 0.15169053 0.019434879 -0.06581704 0.019384805 0.05717752 -0.011574662 -0.032647386 -0.09941483 0.09717163 -0.14267044 -0.028448049 0.02768234 -0.18379845 0.11222073 0.061249178 0.034258373 -0.001168571 -0.06341824 -0.13162404 0.1999038 0.24763721 -0.16972639 0.050483588 0.092954196 -0.04348938 -0.011660817 0.11792676 -0.13362078 0.20061584 -0.03259618 0.17075042 -0.15484801 -0.1378471 -0.07250195 0.078695856 -0.117560506 0.033522375 0.032215096 -0.16762218 -0.061910573 0.1529606 -0.11858573 -0.020649133 0.061854124 0.028656058 -0.010565427 -0.27742743 -0.014622708 -0.020932281 0.0031309463 -0.05257108 0.16725963 -0.14740543 0.06802584 -0.119059935 -0.1021426 -0.2239433 -0.026879208 -0.025986819 -0.14482325 -0.122070715 -0.24430151 -0.11639822 0.07170903 0.03327092 0.023282565 0.09099193 0.16698976 -0.06496912 0.110483505 0.06788675 -0.1250653 -0.04264971 -0.035830297 -0.21622032 0.101733 0.20279494 -0.14922318 0.0741615 -0.14998709 -0.069200195 -0.04094004 0.013616509 0.15796912 0.06855738 -0.07165677 -0.18193151 0.053448778 0.042871434 0.022119364 0.0059349844 -0.16023813 -0.06374431 -0.04749373 0.2125218 -0.088033855 -0.026778508 -0.083355024 -0.019073416 0.05862167 -0.11517324 -0.21865448 -0.0006410388 0.012886823 0.21608946 0.106836535 -0.0071213613 -0.04992158 -0.07686048 0.009275643 -0.016452268 -0.022033438 0.024612783 -0.088463776 0.032140188 -0.11265615 0.07666417 -0.02929846 0.04216655 0.30438644 -0.07990468 -0.055026986 -0.054076217 -0.14579017 0.20836231 0.030196352 0.019776491 0.16809224 -0.09970071 -0.11365913 -0.036346953 -0.22287469 -0.011888621 -0.115628384 -0.1324247 -0.03554995 -0.235456 0.14903425 -0.08979167 -0.021195974 -0.18934904 -0.09176485 -0.1813445 -0.050447185 -0.018234989 0.16255756 0.0025616614 0.06360919 0.041428708 -0.008519942 0.13413142 -0.023935076 0.03299215 -0.012256137 -0.15349664 0.18286765 -0.018793514 0.08024697 -0.07647157 -0.024627354 -0.1126146 -0.09251542 -0.14912948 -0.10561581 -0.020033969 0.0059695905 -0.09889702 0.04494136 0.06635113 -0.032343555 -0.04897217 -0.10732376 0.19122551 0.11516597 -0.051652953 -0.13503596 -0.15550458 0.0851539 0.059851497 0.00526474 -0.15201503 -0.08666898 0.15369551 0.060777277 0.028357007 -0.11966505 0.056785043 0.09404859 -0.24346426 -0.056762643 -0.08658752 -0.11279208 -0.043307535 0.0801178 -0.076844186 0.08562978 0.00048799394 0.18989612 -0.07124488 -0.2086407 -0.17707004 -0.0069498806 -0.19528963 0.06074922 0.033815112 -0.0071978164 -0.02359406 0.013902464 0.13674718 0.17240044 0.1971601 0.10890274 -0.13914311 0.088161014 -0.094351456 -0.05740342 -0.017568024 -0.15775219 0.06885963 0.0373438 0.031144975 -0.024557948 0.049724523 0.051093575 0.09940203 0.1469946 0.02777491 0.17851694 0.042242285 0.10526661 -0.10980141 -0.10384346 0.12809469
9 -0.13187529 -0.17591587 0.048801895 -0.1001478 0.08724955 -0.10006767 0.03539189 0.09395401 0.2282781 -0.09022398 -0.037894797 0.036574874 -0.053644963 -0.1876393 0.05749498 -0.21613221 0.007856292 -0.112591125 -2.85661e-05 -0.13844699 0.07805141 0.07540809 0.017396085 0.14692114 0.031928632 -0.065317646 0.007365847 0.045495898 -0.0065628393 -0.03399541 -0.094598934 0.09974712 -0.12981772 -0.04577009 0.030572066 -0.172089 0.08907737 0.054689188 0.026159577 0.0030637595 -0.051181905 -0.12377196 0.17505084 0.2185863 -0.16025853 0.02615676 0.0848813 -0.029827911 -0.008905979 0.10632696 -0.11989399 0.1966708 -0.040978715 0.15792266 -0.12433312 -0.12345757 -0.061321963 0.06725 -0.09364573 0.034528088 0.022091651 -0.14747019 -0.05576524 0.14607847 -0.10857837 -0.022500806 0.0610529 0.04636248 0.0018675552 -0.24608448 -0.009855559 -0.017590787 -0.005495971 -0.056659076 0.1430176 -0.14481543 0.051821288 -0.11104466 -0.08664496 -0.21096817 -0.0148469545 -0.006241035 -0.13353798 -0.13370655 -0.21516553 -0.13126898 0.061086074 0.045244347 0.008947082 0.101823054 0.14883448 -0.07001418 0.107349776 0.07397691 -0.10741169 -0.047612883 -0.020285541 -0.1802663 0.08889026 0.1924754 -0.14254741 0.08912537 -0.148766 -0.07057203 -0.02742478 0.021082824 0.12133607 0.047338 -0.059585348 -0.16490597 0.06519366 0.04500637 0.016620535 0.0010873434 -0.14425221 -0.07202728 -0.042964216 0.19449341 -0.0642112 -0.011193985 -0.07025409 -0.0006883867 0.048272368 -0.09176713 -0.20863073 0.0024954914 0.0053917794 0.20513332 0.070100196 -0.016330145 -0.044271998 -0.06867797 -0.0066471915 -0.01256752 -0.01468694 0.023158982 -0.088769004 0.040569656 -0.12274907 0.0681689 -0.021492682 0.046333335 0.27853304 -0.06432777 -0.05734223 -0.07640566 -0.12680896 0.18985204 0.021110471 0.016281897 0.14559948 -0.082498424 -0.1203367 -0.031856906 -0.21939614 -0.0013649849 -0.11163004 -0.12841876 -0.034270972 -0.22214332 0.14033042 -0.08855366 -0.015571733 -0.18257682 -0.10016575 -0.16554351 -0.027402231 -0.01245621 0.14722335 -0.007970215 0.07832475 0.02447393 -0.010679447 0.096528575 -0.028344097 0.016429123 -0.01697922 -0.14191979 0.1882267 -0.02608292 0.06959221 -0.079092465 -0.04065128 -0.10270489 -0.09323033 -0.13710989 -0.10692389 -0.023223497 0.021755854 -0.104732424 0.04119318 0.054316614 -0.03819439 -0.028313002 -0.08955737 0.17854474 0.09430424 -0.06420758 -0.12478072 -0.16970126 0.058201265 0.041843478 -0.004836545 -0.12718277 -0.0866786 0.12927397 0.058823545 0.03282038 -0.111341946 0.057581257 0.086796254 -0.22533238 -0.04665433 -0.08298781 -0.10395855 -0.03278851 0.0754567 -0.0750136 0.10444622 0.0010112323 0.17341597 -0.06918472 -0.21032457 -0.16185956 -0.009220854 -0.18342738 0.074912176 0.039221242 -0.0038754104 -0.022999002 0.026285741 0.14420886 0.15014154 0.18821593 0.09614894 -0.14081705 0.09264763 -0.08353643 -0.066880494 -0.001094222 -0.13947114 0.060088005 0.034420263 0.024825763 -0.0256562 0.04977652 0.05755052 0.087829664 0.13232845 0.0076300357 0.16294856 0.05293885 0.11096331 -0.10959573 -0.10634893 0.115856
0 -0.10171873 -0.2570571 0.10759024 -0.11537416 0.030236803 0.014990507 0.008206327 0.0872172 0.065022014 -0.009435266 0.047069166 0.16284524 -0.08974774 -0.098404124 0.10516784 -0.15391342 0.04210212 -0.04947222 0.08879615 -0.124905616 0.10583433 0.08514558 0.019255338 0.041512497 -0.08743395 -0.004593167 0.076610886 0.072820574 -0.048581548 0.010729619 -0.03610487 0.00030699847 -0.12436608 0.12933446 -0.0046801823 -0.11709157 0.19460343 0.04494004 0.052994024 -0.021481048 -0.12793104 -0.09606357 0.22726923 0.2678536 -0.109070204 0.1771623 0.0725794 -0.1257955 -0.023385556 0.08382567 -0.12642746 0.052055206 0.040382057 0.11621634 -0.23750861 -0.12630215 -0.09263758 0.11116034 -0.2175044 0.001390968 0.07565626 -0.18436605 -0.060188483 0.09460025 -0.09665789 0.014466536 0.030885877 -0.12548834 -0.11674833 -0.26735705 -0.023400847 -0.009215057 0.08359517 0.02953276 0.21990076 -0.036176126 0.1311664 -0.058220692 -0.13420954 -0.11299693 -0.08731054 -0.15085664 -0.11622247 0.06699386 -0.25366947 0.09856867 0.08311276 -0.086593255 0.11725903 -0.08033273 0.15754227 0.03419469 0.06573726 -0.012044628 -0.16033089 0.026883624 -0.1176959 -0.295226 0.12598829 0.114411004 -0.097178556 -0.12013742 -0.036135312 0.005808685 -0.102627434 -0.039682396 0.29027587 0.19902575 -0.11460046 -0.15345491 -0.08678428 -0.0055290586 0.06275867 0.020865768 -0.13676363 0.05552174 -0.04257015 0.1696251 -0.210722 -0.10578968 -0.12553678 -0.16395101 0.06671191 -0.20059904 -0.11430121 -0.02089373 0.054830663 0.111851476 0.31942686 0.07987746 -0.03047404 -0.069664024 0.13305745 -0.02247115 -0.045408666 0.034486085 -0.009016713 -0.07673112 0.05323135 0.09732011 -0.04447296 -0.019393047 0.24612308 -0.13477618 0.02887769 0.15372567 -0.17706189 0.15703505 0.09349593 0.004890591 0.22675905 -0.12909 0.04754045 -0.038381215 -0.07068427 -0.09669741 -0.071759164 -0.046689898 -0.004996628 -0.15292904 0.083967276 0.0017523351 -0.04165366 -0.07601148 0.04894813 -0.15293524 -0.17909634 -0.03394676 0.16887605 0.08353749 -0.095454544 0.123391956 0.027458869 0.30775955 0.039397657 0.11552993 0.04258044 -0.110814154 -0.032945417 0.04323545 0.10577185 -0.008951718 0.11717558 -0.08420588 0.011000561 -0.11346254 -0.0043163695 0.013655436 -0.13033785 0.031726588 0.03866578 0.08284953 0.054327145 -0.14996146 -0.15020666 0.114746794 0.15299821 0.10428453 -0.11670762 0.075670466 0.21492085 0.14857037 0.07695384 -0.22339165 0.002545918 0.20892528 0.040149704 -0.061639767 -0.06039188 0.03380898 0.076383784 -0.17137788 -0.085289605 -0.050789464 -0.08849068 -0.0819761 0.038377486 -0.03816138 -0.1511959 -0.0016349644 0.16367435 -0.014204141 -0.012369099 -0.14023241 0.005737316 -0.12570287 -0.07904557 -0.029077522 -0.016380703 -0.011114404 -0.1069374 -0.021451656 0.20601824 0.11350987 0.120918445 -0.015387863 -0.04595523 -0.11791429 0.06227438 -0.11708756 -0.16544585 0.07581903 0.020961115 0.049669735 0.009776493 0.0046486305 -0.042864494 0.1052466 0.121226616 0.17999563 0.15170711 -0.079204544 -0.028338188 -0.012766115 0.013730798 0.11052652
