10 256
4 0.010151779 -0.10225886 -0.00894852 -0.028507575 -0.02493415 0.015790513 0.091801375 0.16271718 0.04283091 -0.080754876 0.10327443 0.06334731 -0.022952555 -0.27878714 0.09945586 -0.24278174 0.089492135 -0.13735186 -0.007181193 -0.03328745 -0.07269709 0.00016259015 -0.017780472 0.03753702 0.12281403 -0.07242477 -0.098846324 -0.05786081 0.060314573 0.061843805 -0.0006148997 -0.00893263 -0.18014778 0.052789677 -0.04265021 -0.1751603 0.1290636 0.02734264 0.055455953 -0.057582054 -0.116230145 -0.13389528 0.13940145 0.2288977 -0.18451174 0.006549422 0.0025439733 -0.25084302 -0.018106313 0.0528025 -0.056244146 0.0024601475 -0.07444689 0.15755951 -0.16838554 -0.06545667 -0.04108344 0.07738142 -0.04468572 0.05875949 0.01933003 -0.082190886 -0.012874515 0.1640504 -0.012437371 -0.035392057 0.073195 0.0522679 -0.14882568 -0.24625677 -0.03455719 0.07676832 0.037776943 0.03869695 0.12981778 -0.09199036 0.10532152 0.03430003 -0.022502197 -0.08777955 -0.028941227 -0.05322079 -0.11393092 0.06521575 -0.0072167604 -0.060730908 0.079740524 0.0011328007 0.07101878 0.002447022 0.14509477 0.09357243 0.08120331 -0.030626755 -0.24812688 0.10210441 -0.13817729 -0.21824966 0.11671561 0.059827976 -0.110343896 -0.08575178 -0.05504318 -0.07597566 -0.062778845 0.04822941 0.0623052 0.2189806 0.002640395 -0.07897119 0.015083567 0.13173842 0.10391672 -0.073611446 -0.20921196 0.096793465 0.05118838 0.0373747 -0.11423341 0.07631741 -0.15710743 -0.067212574 -0.010726399 -0.22666278 -0.2827345 0.0787683 0.26961812 0.15105772 0.25535586 0.02411011 0.010531129 -0.02154699 0.26324296 0.013716854 0.16288278 -0.0014744941 -0.07841447 -0.07780226 0.07390286 0.15152271 0.012582211 0.049485173 0.27705657 -0.08272221 0.016987436 -0.003978524 -0.25042757 0.15025875 0.29379776 -0.046506945 0.2146797 -0.020509237 0.03708227 -0.088140294 -0.035651077 -0.042012487 -0.18257646 -0.13043839 -0.063079 -0.30793598 0.043232232 -0.012319732 0.005753021 0.0292596 -0.025069116 -0.10818287 -0.24917735 0.058092907 0.23671448 -0.014376709 -0.031612024 0.110290214 0.050527155 0.12602995 -0.054016437 -0.020539135 0.04353413 -0.10308488 0.062458716 0.07274559 0.06173854 -0.1860313 -0.043829966 -0.13115935 -0.017516056 -0.2050729 -0.024292817 0.04304418 0.013348393 -0.07462264 0.09556599 -0.05737365 0.08588597 -0.13222522 -0.122169234 0.19500521 0.005657244 -0.019325593 -0.093063496 0.035586573 0.22792025 0.102056645 -0.036961123 -0.07296645 -0.10363422 0.14065336 0.073135965 -0.027474077 -0.03694626 0.15884729 0.22976899 -0.2566133 0.06740654 -0.19899599 -0.2061389 -0.02913713 -0.13439623 -0.10140816 -0.09530048 0.09681953 0.22462478 -0.12477844 -0.115104154 -0.13967621 -0.035616778 -0.21927315 -0.026675683 -0.0131977955 0.010104092 0.021307332 -0.04274945 0.12942731 0.24742638 0.13031526 0.07734836 -0.0009314899 0.103657246 -0.15273955 0.042925015 -0.084346555 -0.14278072 0.08162851 -0.10817527 0.02813638 -0.047624044 0.057773396 -0.027066633 0.13521029 -0.0063877027 0.10997969 0.12969312 -0.06879993 0.08220366 0.08177564 0.049277082 0.087362655
8 0.00675595 -0.10417745 -0.009772158 -0.030395135 -0.024616648 0.01573945 0.093805075 0.15440188 0.04723393 -0.078407206 0.097010344 0.06110908 -0.027214633 -0.27378097 0.096838415 -0.23768897 0.088821426 -0.13368073 -0.008561485 -0.033501785 -0.072473615 0.004191493 -0.015986495 0.042013336 0.12280044 -0.07103409 -0.095586784 -0.056710776 0.055679224 0.061589204 -0.0026871643 -0.0032064233 -0.17863798 0.05155996 -0.040029418 -0.17508745 0.12226868 0.023595188 0.05279787 -0.054788426 -0.11602907 -0.13286687 0.13265295 0.22543754 -0.18168612 0.0074921385 0.004335305 -0.2413396 -0.016769517 0.05386176 -0.059308544 0.009166736 -0.073444 0.15404856 -0.16303377 -0.06503041 -0.04299268 0.07299309 -0.043948 0.059101608 0.013867792 -0.08126279 -0.015004785 0.16444983 -0.015484725 -0.03814193 0.08110467 0.054013673 -0.14218225 -0.2410792 -0.033638634 0.074991025 0.03195959 0.039036043 0.12564518 -0.09180152 0.0981747 0.030600673 -0.020297743 -0.09141654 -0.027724534 -0.04747722 -0.11371324 0.05927448 -0.013067779 -0.061756887 0.0729892 0.0063675703 0.06424777 0.0033646629 0.14534144 0.08843532 0.084227316 -0.025512861 -0.24215157 0.09746321 -0.13199067 -0.21133697 0.1149631 0.060832087 -0.1133929 -0.08183322 -0.063618295 -0.07854051 -0.056611236 0.046063505 0.05979781 0.20917721 0.0026122541 -0.078799054 0.01389086 0.12883918 0.102506906 -0.07326025 -0.20461108 0.092615545 0.048825823 0.0378818 -0.109772876 0.077689305 -0.15632707 -0.06465163 -0.008437818 -0.21439648 -0.27531213 0.07452789 0.25769672 0.14991148 0.2460252 0.022062836 0.0063653295 -0.016085945 0.25522214 0.016274955 0.15930623 -0.0004338693 -0.08069258 -0.074698165 0.06544937 0.14817563 0.014212748 0.05092335 0.273662 -0.0780753 0.012553921 -0.009348271 -0.24479134 0.14769363 0.2832403 -0.04675085 0.21301241 -0.02002192 0.03336828 -0.08784096 -0.039755717 -0.041626427 -0.18208066 -0.12560162 -0.062448997 -0.3037474 0.04491941 -0.014692951 0.0047194823 0.024771322 -0.025505966 -0.10873055 -0.23900856 0.06063695 0.23257409 -0.020272052 -0.030834887 0.10407125 0.049293038 0.12087429 -0.048826832 -0.019516457 0.044502575 -0.10054462 0.06491466 0.067960225 0.063066594 -0.17839682 -0.046534024 -0.12799348 -0.020314053 -0.19900967 -0.025513196 0.041973673 0.020736108 -0.07788275 0.089569725 -0.058623303 0.08589897 -0.1240352 -0.11917765 0.19087474 0.004267298 -0.023538725 -0.089274906 0.026202077 0.21613263 0.09854293 -0.032761358 -0.069672324 -0.10601822 0.13610153 0.07175697 -0.026276056 -0.039332245 0.1579994 0.22551934 -0.2512907 0.068329304 -0.19493291 -0.20006603 -0.025204757 -0.1287391 -0.09914065 -0.08834049 0.09158664 0.22119747 -0.122434296 -0.117113955 -0.13742225 -0.035800178 -0.21304747 -0.020831345 -0.005763482 0.010141827 0.016121823 -0.03716317 0.13031505 0.2437832 0.13310881 0.07268895 -0.001841348 0.10010014 -0.152567 0.03920613 -0.08037128 -0.13846791 0.07709104 -0.10390065 0.024402563 -0.044551216 0.057808552 -0.02435129 0.13599835 -0.0020664406 0.10836832 0.12907344 -0.06503382 0.079973415 0.0760486 0.044797435 0.086761236
7 -0.028626837 -0.087856404 -0.030785149 -0.047619447 0.00225945 -0.0036981616 0.087383166 0.08786673 0.097978495 -0.08259542 0.05992242 0.04404831 -0.04203133 -0.23319316 0.051516328 -0.17920011 0.07558514 -0.111183174 -0.038128354 -0.038928285 -0.05606532 0.039647937 -0.006189217 0.10228614 0.128032 -0.07696887 -0.0762793 -0.051746715 0.033587184 0.036895037 -0.02622543 0.041105155 -0.17380702 0.022627532 -0.017365603 -0.17463282 0.046222817 -0.00043247308 0.015583159 -0.041174103 -0.10519218 -0.13896099 0.09819253 0.19480802 -0.15260759 -0.012601792 0.03190773 -0.16008602 -0.004022443 0.042680994 -0.06735618 0.076545574 -0.08122411 0.11646431 -0.106742285 -0.05308657 -0.032674544 0.038758248 -0.016998999 0.07054549 -0.008460631 -0.065449774 -0.03302408 0.16536547 -0.046128344 -0.031599224 0.12549877 0.09061496 -0.07682417 -0.18396167 -0.00818351 0.073330715 -0.0026908221 0.027094377 0.09838817 -0.10270686 0.058362152 0.009057477 -0.0027401543 -0.114353195 -0.022922272 0.0106993 -0.10286227 -0.0014890432 -0.044252858 -0.099217504 0.00750691 0.044038337 0.0045626867 0.035129983 0.12747017 0.04784838 0.103077166 0.018939376 -0.184211 0.07603102 -0.07871704 -0.13717803 0.11290038 0.08801188 -0.17404778 -0.018690718 -0.1105205 -0.08279467 -0.028273141 0.049363475 0.012006795 0.14247619 0.0063076694 -0.06897945 0.0382334 0.08692664 0.07854433 -0.06470326 -0.14185655 0.046135306 0.034729145 0.054365207 -0.060058903 0.09354235 -0.12997165 -0.013944277 -0.01913455 -0.11643517 -0.2331977 0.05600447 0.1449567 0.16668887 0.15088858 0.005167277 -0.03101934 0.023575561 0.17289598 0.02902996 0.12263556 0.023847714 -0.10859345 -0.054290432 -0.019130826 0.1367753 0.048154153 0.0777307 0.21843691 -0.021537963 -0.028881978 -0.073009014 -0.18367304 0.12842476 0.19021979 -0.060433444 0.17481668 -0.006402684 -0.0171577 -0.06140057 -0.08898535 -0.027406292 -0.16154717 -0.101372324 -0.046195246 -0.2539898 0.060869828 -0.029933086 0.014291972 -0.018024957 -0.049988396 -0.112432145 -0.1417647 0.07076816 0.18565986 -0.08510258 0.007084725 0.055639695 0.009850365 0.060147382 -0.02790201 -0.017077267 0.025522493 -0.077936284 0.10216318 0.036430947 0.059807576 -0.1366104 -0.09481467 -0.116009355 -0.058722787 -0.14569262 -0.044842158 0.0044281315 0.07970682 -0.118735336 0.06178205 -0.0735967 0.059378333 -0.0600436 -0.080264114 0.16298808 0.008188581 -0.051712252 -0.07435635 -0.05947236 0.12917076 0.06217028 -0.009017218 -0.036960863 -0.11402512 0.10569076 0.061310645 -0.010703193 -0.06911062 0.1450176 0.20176016 -0.19710363 0.06642263 -0.17276439 -0.15316299 -0.0018480173 -0.06569224 -0.1010483 -0.012407901 0.05848287 0.17980377 -0.10602884 -0.1416752 -0.12235668 -0.035320964 -0.17415428 0.022804338 0.03957752 -0.0048665637 -0.039723795 0.022508098 0.13765278 0.18481463 0.15101832 0.040917154 -0.03061782 0.09087256 -0.15086739 -0.013876763 -0.047197368 -0.094139546 0.057741765 -0.057967264 0.022932395 -0.016599026 0.05881754 0.0034567744 0.12187408 0.031468254 0.08708867 0.100787096 -0.016842531 0.09770749 0.010825502 -0.0017553807 0.083345465
5 -0.030466996 -0.09185481 -0.031711463 -0.04807263 0.0052796 -0.0056598797 0.090808235 0.08821256 0.099957146 -0.08547498 0.06403903 0.046507332 -0.044744752 -0.23639758 0.052675314 -0.1858791 0.07584536 -0.11531073 -0.037958004 -0.03822196 -0.056788553 0.04297141 -0.008486132 0.104615316 0.1300479 -0.07864739 -0.07679718 -0.05358684 0.035235766 0.03826446 -0.029161865 0.039329935 -0.177785 0.025933148 -0.015532758 -0.17995653 0.04955085 0.0023677137 0.01638585 -0.04078459 -0.103894144 -0.14304224 0.09898088 0.19821627 -0.15760745 -0.013709784 0.031960927 -0.1648206 -0.005834666 0.04221492 -0.06795089 0.07786821 -0.081141934 0.115945995 -0.10707583 -0.05665441 -0.032486267 0.040439207 -0.017584402 0.06818625 -0.009955206 -0.06850933 -0.032801494 0.16954441 -0.04782693 -0.032743245 0.12894577 0.090129584 -0.078482576 -0.18871479 -0.008787449 0.07397367 -0.0022551836 0.025182968 0.10076263 -0.107003845 0.059244495 0.00685836 -0.0047774967 -0.11714577 -0.025121914 0.008940996 -0.10576874 -0.0029612372 -0.045497935 -0.10167013 0.0110248905 0.04621678 0.007174903 0.034492042 0.13021183 0.048530832 0.10451377 0.020060316 -0.1899503 0.07706507 -0.08408503 -0.14048487 0.11858991 0.0915006 -0.1788161 -0.020204114 -0.11195175 -0.086143725 -0.030545462 0.051336184 0.01484944 0.14597015 0.0028663578 -0.07170458 0.036953542 0.087478034 0.08203824 -0.06616278 -0.1456028 0.04970214 0.03777368 0.057034153 -0.0584592 0.0944968 -0.13232122 -0.0154877985 -0.020565223 -0.122409575 -0.23928124 0.059538238 0.14660756 0.17072934 0.15698257 0.004757934 -0.031361543 0.021839285 0.17539725 0.026091859 0.1231599 0.022901045 -0.11099737 -0.053101342 -0.020527901 0.13916568 0.047059916 0.078793235 0.2246511 -0.022413282 -0.02978991 -0.07533764 -0.19035092 0.12893648 0.19371922 -0.060775653 0.17728104 -0.007401492 -0.017742919 -0.062885486 -0.09216638 -0.024845999 -0.16346888 -0.10481832 -0.048975725 -0.2599727 0.06440555 -0.0320819 0.0115343435 -0.019578038 -0.049799062 -0.11568641 -0.14438456 0.07097807 0.18701373 -0.08603159 0.004648993 0.058014676 0.009239541 0.06420496 -0.028175006 -0.018364832 0.0280089 -0.07650952 0.105644025 0.035766087 0.058284186 -0.13934831 -0.09514504 -0.11945921 -0.05933192 -0.15113138 -0.04387283 0.0054323873 0.08082096 -0.11976487 0.060249757 -0.07259116 0.058950584 -0.06053795 -0.08577746 0.16522413 0.008433855 -0.05064524 -0.07695699 -0.059795074 0.13489236 0.06282751 -0.007896695 -0.036560826 -0.1146103 0.10882755 0.06301632 -0.011793937 -0.071889035 0.14547707 0.20719063 -0.20393927 0.0688295 -0.17701358 -0.15695556 -0.0041198414 -0.06515547 -0.10025574 -0.013158093 0.06030864 0.18548937 -0.10541622 -0.1431623 -0.1228193 -0.03267126 -0.17879741 0.022611195 0.038027547 -0.0072270655 -0.04267238 0.022253582 0.1391434 0.18842627 0.15537034 0.042280138 -0.0301448 0.092481345 -0.15604338 -0.010522905 -0.049475893 -0.09372802 0.05768442 -0.06281529 0.025890019 -0.020040518 0.06252276 0.0040635415 0.12472081 0.030416653 0.09011859 0.10634044 -0.019946333 0.10022967 0.013783691 -0.00050341536 0.08382906
1 -0.029899139 -0.097234614 -0.02705173 -0.049532007 0.0017967557 -0.0048825615 0.092953645 0.10187752 0.098137684 -0.08702959 0.06778497 0.0482463 -0.042215794 -0.25148264 0.057610907 -0.19870006 0.08234772 -0.12150685 -0.034167953 -0.041429393 -0.06103721 0.038847502 -0.0076138624 0.101328254 0.13433562 -0.07955868 -0.080462605 -0.053018168 0.040238418 0.041626833 -0.02824033 0.038051866 -0.18440981 0.029423608 -0.020705903 -0.18694578 0.056973454 0.0031974667 0.023077322 -0.046355538 -0.11239517 -0.14893495 0.1090577 0.21043418 -0.1663444 -0.013507814 0.029033342 -0.17932183 -0.005339499 0.04764251 -0.07100865 0.07398503 -0.08609905 0.12826043 -0.120222084 -0.05848424 -0.036043726 0.048095584 -0.023689851 0.07283319 -0.006103606 -0.07324972 -0.034781925 0.17466083 -0.046539262 -0.034307342 0.1279417 0.09127268 -0.09110553 -0.20072354 -0.010920808 0.07520037 0.0043637776 0.029283062 0.10591177 -0.10959575 0.06857182 0.009949528 -0.0040055527 -0.11950855 -0.026124844 0.0016203637 -0.11000645 0.002192484 -0.043487743 -0.10153182 0.016253415 0.041845046 0.014116434 0.03303207 0.13613798 0.055956285 0.10623976 0.015220524 -0.2025221 0.08176825 -0.09144298 -0.1539618 0.12321746 0.09113879 -0.17861854 -0.026289646 -0.109150775 -0.087651424 -0.03199214 0.055367075 0.021127729 0.16020474 0.0038071263 -0.07423407 0.036456138 0.09444004 0.0874446 -0.066717036 -0.15768929 0.053710938 0.040526517 0.05795538 -0.06938699 0.094942465 -0.14043345 -0.020917583 -0.022197617 -0.13556524 -0.25231478 0.06240686 0.16486326 0.17431012 0.17302662 0.00711975 -0.02645211 0.017005855 0.18948288 0.02862413 0.13229209 0.022830224 -0.1104822 -0.058839392 -0.013431175 0.14616853 0.045291033 0.0763441 0.23942162 -0.03267015 -0.025475914 -0.06843869 -0.20169474 0.1383218 0.21096933 -0.06302117 0.18955074 -0.0100908205 -0.0125629455 -0.065389946 -0.090115696 -0.029990193 -0.17387657 -0.11115 -0.052605245 -0.27484164 0.063569546 -0.030501252 0.0110758 -0.015997915 -0.050927363 -0.12016443 -0.16034092 0.07204114 0.20200506 -0.08337947 0.003281555 0.063790165 0.013941259 0.0722898 -0.03409979 -0.019469934 0.029435402 -0.08317949 0.105322 0.041553877 0.0647086 -0.15013047 -0.094371185 -0.12625752 -0.058571626 -0.16276444 -0.044790376 0.008262619 0.074790694 -0.12181798 0.069013104 -0.074314654 0.06494673 -0.07222845 -0.091522686 0.17573474 0.008775506 -0.052163914 -0.08202321 -0.054491717 0.14919227 0.06961433 -0.012744793 -0.0433867 -0.11878058 0.11774393 0.06692901 -0.015911447 -0.07083871 0.15416943 0.21504621 -0.2157519 0.06843463 -0.18586472 -0.16621497 -0.0062803305 -0.0764492 -0.10782865 -0.02191972 0.064769216 0.19607304 -0.11463015 -0.14795576 -0.13028304 -0.03610782 -0.18771872 0.018316714 0.03541114 -0.005531733 -0.037920214 0.018072994 0.14533597 0.2030827 0.15764102 0.049492564 -0.03019602 0.09547332 -0.16031902 -0.00880513 -0.05506885 -0.1032768 0.06411248 -0.069066964 0.023312591 -0.02123202 0.064296074 0.0012698547 0.12970924 0.029543137 0.09283114 0.11380387 -0.02376639 0.10213555 0.019686911 0.002744313 0.09037698
3 -0.030285176 -0.08794407 -0.026476005 -0.04587765 0.0032088351 -0.0042587654 0.087999396 0.09013513 0.09171342 -0.08256394 0.06320753 0.04309841 -0.04337702 -0.2342184 0.05109346 -0.18289495 0.07706698 -0.11298878 -0.03575242 -0.039244574 -0.05859392 0.039617345 -0.0072111343 0.09956897 0.12748468 -0.07598645 -0.0752385 -0.049654372 0.037689697 0.040336188 -0.027252987 0.036103368 -0.17399222 0.027254757 -0.017563319 -0.1752596 0.051214725 0.0036348805 0.018309677 -0.03956461 -0.10300453 -0.14060323 0.099383555 0.19587255 -0.15445296 -0.013160746 0.031219063 -0.16456915 -0.007931868 0.04376873 -0.063796885 0.071058184 -0.08240858 0.116555884 -0.10868909 -0.05573075 -0.033992928 0.04196039 -0.020356078 0.06974721 -0.009775427 -0.0650386 -0.03303046 0.16543956 -0.043954544 -0.033593934 0.12393052 0.088025756 -0.079299085 -0.18594676 -0.007301443 0.07233107 -0.0006133622 0.027950948 0.09958261 -0.103157006 0.062214497 0.008659908 -0.0019454006 -0.11195022 -0.023619646 0.007757428 -0.103206575 -0.0015622746 -0.041125882 -0.0950362 0.011831338 0.04231761 0.0071042674 0.031979326 0.12527603 0.050661728 0.09985308 0.017536232 -0.18750468 0.0767754 -0.08397555 -0.1367812 0.11565034 0.08653262 -0.17162637 -0.02165874 -0.10779821 -0.08239947 -0.028295662 0.052519254 0.015434528 0.14486822 0.005742096 -0.0705001 0.03759493 0.08670428 0.08054337 -0.063111335 -0.14257483 0.049256366 0.03523838 0.055711355 -0.05892672 0.09090334 -0.13064629 -0.019449145 -0.020817617 -0.1216007 -0.23447837 0.05826729 0.14853545 0.1646351 0.15464221 0.004168285 -0.027775714 0.021602528 0.17600127 0.026855147 0.123607084 0.01971123 -0.10564726 -0.053577974 -0.016508404 0.13627405 0.047263764 0.0754685 0.2213299 -0.025199655 -0.024605682 -0.07049963 -0.18759659 0.12790185 0.1943556 -0.05916009 0.17508356 -0.006568737 -0.014448685 -0.059104204 -0.0867188 -0.024979698 -0.16277727 -0.09970998 -0.048151813 -0.25395897 0.06134381 -0.031641766 0.012836599 -0.017794894 -0.048587088 -0.11231862 -0.14647216 0.06899636 0.18648319 -0.08154099 0.0026723181 0.057910748 0.011950666 0.062438812 -0.030188171 -0.018994547 0.028042555 -0.07672969 0.10082162 0.035896003 0.05980058 -0.13549496 -0.09100445 -0.11696717 -0.056063972 -0.14984478 -0.043346822 0.0054229926 0.07663752 -0.11640001 0.06307714 -0.072422214 0.060813196 -0.06153469 -0.0836351 0.16344158 0.006804451 -0.04980116 -0.07421882 -0.056183852 0.13370755 0.062750645 -0.008540515 -0.037308358 -0.113031454 0.10691227 0.059678365 -0.011299566 -0.06798356 0.14432806 0.2026802 -0.20029081 0.06622959 -0.1736245 -0.1558245 -0.0050388845 -0.06789447 -0.10062694 -0.019188011 0.059366014 0.18133885 -0.105640836 -0.1386921 -0.122941256 -0.034234267 -0.17362237 0.018952314 0.03743284 -0.0051009683 -0.039611634 0.020243697 0.13744254 0.18460236 0.14955178 0.043523967 -0.028837156 0.09118512 -0.15119259 -0.010020347 -0.046276066 -0.09368087 0.058105715 -0.06218202 0.024443096 -0.018947575 0.059979018 0.00487566 0.12178079 0.026444303 0.08703652 0.10418557 -0.021601763 0.09465188 0.012585099 -0.0017563332 0.08445834
2 0.008222436 -0.10302975 -0.011146334 -0.03134038 -0.024007214 0.0152615225 0.09377718 0.15582953 0.045601487 -0.08024021 0.097627565 0.06236993 -0.024811847 -0.27572906 0.09543536 -0.23857069 0.08690134 -0.1331338 -0.010535969 -0.034959916 -0.07160212 0.004443742 -0.01436504 0.04342778 0.12098616 -0.07356074 -0.09657541 -0.05811133 0.057943013 0.061243165 -0.00068294373 -0.004378619 -0.18099347 0.052098572 -0.041190986 -0.17364022 0.121328235 0.022756176 0.052139517 -0.057569362 -0.11495198 -0.1317837 0.13543652 0.22418311 -0.1839196 0.0058045373 0.0044507906 -0.24248119 -0.015082407 0.052012138 -0.05805952 0.008572016 -0.07468251 0.15519987 -0.16398272 -0.06526031 -0.0400579 0.07559236 -0.0442087 0.062008645 0.0142138805 -0.07888836 -0.015616769 0.16266382 -0.016981615 -0.03520691 0.07889347 0.053924024 -0.14445768 -0.24112985 -0.03293961 0.075533606 0.0348626 0.03894632 0.12560958 -0.09131407 0.10051488 0.03039859 -0.01972423 -0.091916 -0.030075343 -0.047169928 -0.11430793 0.059114594 -0.010014325 -0.062256716 0.07170562 0.0055213864 0.065805525 0.003420472 0.14579889 0.091504484 0.084701575 -0.02752312 -0.24411175 0.099655345 -0.13255997 -0.21143688 0.11530172 0.06385841 -0.11344289 -0.081673205 -0.060579028 -0.07988287 -0.05870694 0.046089355 0.06108933 0.21377376 0.002089571 -0.0774373 0.014343882 0.12915184 0.10257612 -0.07402747 -0.20482816 0.0910017 0.050497014 0.039154567 -0.11066032 0.07719296 -0.15625943 -0.064161554 -0.009348692 -0.21745566 -0.27634978 0.077436484 0.2593176 0.15147868 0.24670388 0.020615121 0.008414388 -0.017101336 0.25623766 0.013580268 0.15668786 -0.0024812673 -0.08444212 -0.07617815 0.066431455 0.14817129 0.012971631 0.05164168 0.27373424 -0.078856096 0.013783312 -0.010430433 -0.24460909 0.14663015 0.28472584 -0.04552186 0.21349931 -0.019647097 0.033422936 -0.087214194 -0.042798847 -0.043131016 -0.18325582 -0.12941107 -0.061366163 -0.30464283 0.044114698 -0.015709633 0.005133058 0.02619063 -0.02648381 -0.11105989 -0.23878439 0.05800072 0.23149925 -0.02160572 -0.030439524 0.10663957 0.048644498 0.121622294 -0.05191221 -0.018636094 0.043781 -0.10027882 0.064069904 0.068182476 0.062363565 -0.18261702 -0.04735524 -0.12856615 -0.020836474 -0.20042388 -0.024228241 0.041690893 0.018651385 -0.07562314 0.09278298 -0.056011554 0.083254054 -0.12619592 -0.119249724 0.18938836 0.0051109265 -0.020486651 -0.09027349 0.025844594 0.21984524 0.09829952 -0.03400225 -0.06976338 -0.10334685 0.13805208 0.071146294 -0.0277708 -0.040348284 0.15926357 0.22724316 -0.24998209 0.06850594 -0.19887762 -0.20287664 -0.02394293 -0.13005264 -0.10256162 -0.08636244 0.09362081 0.2223893 -0.12107006 -0.11882855 -0.13561481 -0.036823858 -0.21569514 -0.021478746 -0.008958788 0.009550607 0.017805655 -0.036431894 0.13145414 0.24388856 0.1312461 0.07622309 -0.00435755 0.102876075 -0.15280825 0.03957447 -0.079841 -0.13763268 0.07683423 -0.10403186 0.02660645 -0.044787798 0.058450688 -0.022181677 0.13611506 -0.0035482352 0.10792026 0.1293863 -0.06448671 0.082170956 0.07627768 0.042596295 0.08719326
6 0.006402856 -0.0986828 -0.010160647 -0.028042823 -0.021897515 0.01483007 0.089924686 0.14826669 0.045671888 -0.07644817 0.09420503 0.058135558 -0.025607813 -0.26307127 0.09207257 -0.22628695 0.08348272 -0.12940632 -0.00934656 -0.034576554 -0.069373876 0.0032592432 -0.015478448 0.04102013 0.11859347 -0.07110891 -0.09074674 -0.057459563 0.054190718 0.05926534 -0.0020813714 -0.00434229 -0.17071779 0.047751285 -0.036970194 -0.16728263 0.115344495 0.024433047 0.047034472 -0.05612767 -0.111486435 -0.12654144 0.12996252 0.2133915 -0.17627001 0.0062674326 0.0067474507 -0.23219165 -0.013417723 0.051999975 -0.056126952 0.011572671 -0.07400094 0.14634402 -0.15303835 -0.063310705 -0.03949491 0.06948681 -0.03977436 0.05616666 0.016026886 -0.075198874 -0.0148298545 0.15721099 -0.015924806 -0.036682457 0.07529013 0.052940983 -0.1369411 -0.2306377 -0.029707823 0.072306916 0.030328706 0.039045338 0.121654704 -0.08903489 0.09587088 0.031196496 -0.019525917 -0.08719883 -0.029322438 -0.04207753 -0.10680859 0.056065574 -0.009507218 -0.06323176 0.06956942 0.0053645223 0.0601346 0.0048910407 0.1396378 0.08628086 0.08215296 -0.022802211 -0.23120151 0.095110215 -0.12497557 -0.2022807 0.11276049 0.059266325 -0.10934957 -0.077148035 -0.05936962 -0.074631065 -0.056731675 0.04699996 0.055688947 0.20373084 0.0043354924 -0.07496133 0.016580869 0.123126805 0.09683994 -0.06907793 -0.19355348 0.088544466 0.048379764 0.035952613 -0.10372342 0.07432797 -0.14832155 -0.06089259 -0.0084855845 -0.20706785 -0.26628792 0.073633514 0.24669038 0.14336297 0.23584 0.019947862 0.0050857086 -0.016705079 0.2429139 0.014229605 0.15184084 -0.0007093747 -0.08027253 -0.070099376 0.060854644 0.14229576 0.013766122 0.04911872 0.26213127 -0.07449162 0.011641856 -0.010485166 -0.2331468 0.13854861 0.27107227 -0.04599748 0.20088485 -0.016344972 0.031474065 -0.08434907 -0.038907662 -0.039278142 -0.17326812 -0.1219797 -0.058490723 -0.291083 0.043489724 -0.013321374 0.00489941 0.024576616 -0.027261127 -0.105330035 -0.22870554 0.05572856 0.22097132 -0.020724723 -0.028399216 0.10119066 0.046824362 0.11598369 -0.04823054 -0.019630339 0.039290424 -0.0969504 0.062082008 0.065205686 0.05992374 -0.1727806 -0.045035146 -0.12127749 -0.021222008 -0.19095056 -0.0220573 0.038735144 0.017948762 -0.07330088 0.08820044 -0.05521853 0.08178354 -0.11994974 -0.11179538 0.18212046 0.0038735867 -0.021020932 -0.08758657 0.024565138 0.20947278 0.091900155 -0.033421785 -0.06667551 -0.100231886 0.12866017 0.06929443 -0.024024973 -0.03774503 0.15123603 0.2156559 -0.23907436 0.067631535 -0.18860227 -0.19278201 -0.025126394 -0.12362731 -0.097318545 -0.08439287 0.09078559 0.21220118 -0.118531376 -0.112689525 -0.13086489 -0.036079165 -0.20397004 -0.01849356 -0.0051762727 0.00721442 0.016139762 -0.034048833 0.12508744 0.2326079 0.12554507 0.07146796 -0.003939228 0.09730089 -0.14579093 0.037023835 -0.07796181 -0.13351601 0.07625666 -0.097588144 0.023672406 -0.04287381 0.054662608 -0.0222023 0.12725455 -0.001924508 0.10166076 0.12240857 -0.060131278 0.07854718 0.07077867 0.04263823 0.08130054
9 -0.025477545 -0.08513174 -0.027407626 -0.043577258 0.0008717651 -0.0026992606 0.08316921 0.0913666 0.08812612 -0.07834449 0.062345646 0.045183655 -0.03827447 -0.22641595 0.05201674 -0.17755988 0.071809135 -0.10682301 -0.033017203 -0.03562349 -0.057093713 0.036349364 -0.0052565793 0.087959126 0.11901399 -0.07051789 -0.073902585 -0.051031157 0.03508735 0.03913415 -0.022855353 0.034484845 -0.16598713 0.024935232 -0.016037157 -0.16704571 0.054481793 0.0037413395 0.017455546 -0.038653452 -0.101176634 -0.13375942 0.097588845 0.18898357 -0.14996324 -0.011995545 0.026975533 -0.16222484 -0.007147945 0.03942737 -0.06332872 0.06491988 -0.07775567 0.11372215 -0.10467494 -0.05335751 -0.032836597 0.04167962 -0.020542936 0.0632632 -0.0058826013 -0.064115256 -0.031273376 0.1570649 -0.03926966 -0.031881243 0.11461604 0.080634795 -0.08111173 -0.17975627 -0.009008405 0.070409454 0.0044611716 0.025567507 0.09763316 -0.098038234 0.059113115 0.011941155 -0.0061214287 -0.10409219 -0.021516949 0.0020725068 -0.10023259 0.0016345375 -0.03860592 -0.08970344 0.015591977 0.03750968 0.010736308 0.02986645 0.12266871 0.049535267 0.09666202 0.015283531 -0.18157554 0.07184317 -0.08086569 -0.13699053 0.109007224 0.08178165 -0.16020419 -0.026570817 -0.0996266 -0.07746763 -0.02950778 0.048178308 0.01706047 0.1447096 0.0021399483 -0.068325415 0.03468817 0.08575823 0.07964124 -0.061867174 -0.14069282 0.047928922 0.03356594 0.05261278 -0.061850943 0.087078996 -0.1263366 -0.020892674 -0.019328782 -0.12170386 -0.22670731 0.058150314 0.14873101 0.1563798 0.15509965 0.006971229 -0.023083635 0.016340103 0.17247786 0.025125928 0.11955796 0.019761775 -0.10052677 -0.052659668 -0.011692322 0.13225527 0.042408865 0.0705668 0.21463068 -0.029608369 -0.020977873 -0.064140834 -0.18323456 0.1217852 0.19058253 -0.057180505 0.17066634 -0.005592469 -0.010754218 -0.060831115 -0.08070872 -0.027834944 -0.15593274 -0.099289514 -0.046121832 -0.24726036 0.056510516 -0.02606696 0.010658655 -0.014354926 -0.04510574 -0.10847039 -0.14433229 0.06621252 0.18117899 -0.07106312 0.0032349965 0.05670412 0.014934278 0.06315124 -0.029075304 -0.019213358 0.028508566 -0.07664872 0.09182026 0.03637566 0.056104295 -0.13444652 -0.083859995 -0.11068566 -0.04924007 -0.14379206 -0.04070958 0.008550146 0.06720954 -0.10683125 0.060018938 -0.06757701 0.058836788 -0.06232624 -0.08165506 0.15623474 0.0054069767 -0.044250187 -0.07312871 -0.048705235 0.13303696 0.06177772 -0.011227635 -0.039377842 -0.10488267 0.10366532 0.059615422 -0.014789992 -0.06101365 0.13953422 0.19454633 -0.19408241 0.06314323 -0.16727716 -0.15189008 -0.0055104312 -0.067420125 -0.09537063 -0.021867242 0.05907553 0.17608453 -0.0993749 -0.13094386 -0.11775613 -0.033544097 -0.1699647 0.017582394 0.03159352 -0.003228849 -0.03189748 0.01302155 0.13102268 0.1810803 0.14278233 0.044697706 -0.027580347 0.08522102 -0.14552353 -0.0045361887 -0.04623199 -0.09382897 0.058216844 -0.061326046 0.02237461 -0.020926522 0.057054944 0.0017301192 0.11627321 0.023767868 0.085234925 0.10243538 -0.023153888 0.08970547 0.016775446 0.003607289 0.07928913
0 0.0039886385 -0.08702519 -0.009538382 -0.028380748 -0.020396614 0.013214464 0.077317744 0.12728333 0.040880896 -0.06730396 0.08297577 0.05108049 -0.022017632 -0.22950323 0.08067631 -0.19845217 0.07494681 -0.112331256 -0.010561091 -0.02987612 -0.061108194 0.0034943563 -0.013161276 0.03913682 0.10135112 -0.061857868 -0.07926707 -0.050161693 0.04537626 0.04848515 -0.001599217 -0.0002808844 -0.15053038 0.04081541 -0.030892998 -0.14792694 0.10093025 0.020309057 0.043364123 -0.04856139 -0.09852828 -0.11336223 0.11073471 0.18898511 -0.15284814 0.0061679664 0.0050753066 -0.20181479 -0.014539003 0.044951297 -0.050438777 0.010163815 -0.064790145 0.12596878 -0.13510667 -0.054939993 -0.035977677 0.06288467 -0.03750585 0.051846642 0.012145568 -0.06834358 -0.013365092 0.13930501 -0.014720121 -0.03220389 0.06828795 0.04516964 -0.11892928 -0.19969574 -0.027921567 0.06485067 0.028291825 0.033641756 0.106164955 -0.07926122 0.08250099 0.025220519 -0.01667241 -0.077831626 -0.023193702 -0.037828963 -0.09269015 0.04901726 -0.012201483 -0.0539133 0.058446895 0.0054077622 0.052841038 0.0050010704 0.12086109 0.076084085 0.07212194 -0.021117767 -0.20234796 0.0832595 -0.11026632 -0.17394596 0.0995672 0.052526154 -0.09800128 -0.06680375 -0.051533088 -0.06444677 -0.04821769 0.041118093 0.050145913 0.17782664 0.0047816047 -0.063745506 0.012307433 0.10717891 0.08495048 -0.06275263 -0.17072132 0.073869914 0.0418528 0.03182175 -0.09102455 0.066418335 -0.13200253 -0.05150382 -0.010101728 -0.17887795 -0.23309374 0.06478938 0.21281277 0.1287793 0.2046753 0.019548519 0.0046581 -0.014129298 0.21265353 0.011553261 0.13096678 -0.0004041419 -0.06835015 -0.06092092 0.051975373 0.12624429 0.013137479 0.043263353 0.22734566 -0.06489894 0.010012204 -0.010812301 -0.20421228 0.122708075 0.23607758 -0.04060978 0.17877956 -0.015928824 0.025653163 -0.07405056 -0.03453578 -0.033581443 -0.15399306 -0.10808455 -0.05006769 -0.25572273 0.037487708 -0.015052531 0.0046314592 0.017999329 -0.024241129 -0.09312413 -0.1977277 0.05145504 0.19446777 -0.022320986 -0.022756143 0.0847354 0.039288063 0.100842275 -0.042124957 -0.015343472 0.037452146 -0.08349574 0.056942526 0.055404056 0.052092213 -0.15254942 -0.04312203 -0.10965933 -0.019849498 -0.16375473 -0.02027454 0.033907175 0.017972127 -0.06569629 0.076868795 -0.0485158 0.07212351 -0.10061002 -0.0989335 0.15991499 0.006039834 -0.019357739 -0.073765635 0.020217333 0.1822029 0.08281302 -0.027867349 -0.055464722 -0.088309266 0.11586117 0.061039407 -0.023821872 -0.034111332 0.13454975 0.18873043 -0.21023631 0.05875861 -0.1669594 -0.16803837 -0.020119552 -0.10764841 -0.0841998 -0.07286659 0.07931645 0.18682832 -0.103237145 -0.10020523 -0.116114646 -0.032196116 -0.18055303 -0.017841913 -0.005522742 0.0052118306 0.01041402 -0.027720131 0.109127186 0.20352347 0.11357812 0.06143773 -0.0019686318 0.08436542 -0.13056119 0.02973479 -0.06676898 -0.11622603 0.06504155 -0.08674674 0.022738518 -0.035450023 0.04740386 -0.01667797 0.1130476 0.0011496102 0.09089854 0.10723019 -0.050025627 0.06729025 0.062233135 0.034399252 0.071862966
