10 256
4 0.00132713 -0.11292171 -0.013698063 -0.025235442 0.006787617 -0.017353134 0.08150282 0.13631961 0.07236093 -0.08404943 0.10906205 0.073960654 -0.024301048 -0.2235076 0.09673786 -0.24248841 0.08293843 -0.15093379 0.017338045 0.0062357066 -0.03143316 0.014749451 -0.055969767 0.04725621 0.12365373 -0.053668685 -0.09183171 -0.03025655 0.054217968 0.028846595 -0.04385781 -0.018211054 -0.16123503 0.06337544 -0.040729877 -0.18284959 0.123404816 0.033050857 0.07931553 -0.031338442 -0.07314769 -0.14011267 0.10619321 0.22256741 -0.14996724 -0.005212433 -0.02117427 -0.2222299 -0.028557396 0.03378925 -0.05383487 0.006273403 -0.014968454 0.12912111 -0.16040482 -0.054032758 -0.022042723 0.06617218 -0.027663618 0.014157919 0.020031067 -0.12656334 0.011925491 0.15903413 -0.020013578 -0.008683337 0.07676465 0.04419195 -0.11896429 -0.23455302 -0.055998713 0.05514811 0.031837508 -0.015001536 0.10768526 -0.10288488 0.087218784 -0.00083604094 -0.043794453 -0.09491454 -0.026971463 -0.090416685 -0.11371948 0.061167378 -0.034759976 -0.07067045 0.10505735 0.016344426 0.10398446 0.0008500492 0.12672749 0.053583223 0.051300295 -0.032636315 -0.23353185 0.086704426 -0.16236614 -0.22443965 0.11874284 0.06455999 -0.12783197 -0.06334805 -0.040529583 -0.07728307 -0.0734373 0.03647535 0.06663674 0.17007332 -0.038771786 -0.079102896 -0.014391636 0.101335056 0.10330989 -0.065968394 -0.20994835 0.12014549 0.06976351 0.041358095 -0.091122665 0.06427497 -0.12985305 -0.037026748 -0.023345442 -0.22348826 -0.26416624 0.0614219 0.22775577 0.1602416 0.25346023 0.036486097 -0.0020789234 -0.03913165 0.21682039 0.0035979887 0.14430594 0.028061103 -0.04416432 -0.067200735 0.06662063 0.1412925 -0.0033054615 0.041312255 0.24878266 -0.056559768 -0.014564272 0.009225874 -0.24167415 0.15978995 0.25261965 -0.037612602 0.18350077 -0.059379417 0.018974854 -0.072452545 -0.03575299 -0.00737963 -0.13250647 -0.13013595 -0.08363992 -0.27663818 0.061252646 -0.008931893 -0.014204448 0.015037476 -0.0022809186 -0.07976495 -0.2197403 0.05500453 0.20293994 -0.009057722 -0.031968735 0.1042713 0.009672523 0.13703828 -0.038998105 -0.01635125 0.041902885 -0.06274335 0.09353903 0.07661166 0.030708387 -0.16766468 -0.039917465 -0.15272948 -0.02129491 -0.20924184 -0.033740662 0.03689825 0.024416799 -0.09433865 0.051335048 -0.046939973 0.048575196 -0.12713757 -0.15024927 0.19402133 0.029610531 -0.02685531 -0.10203452 0.051244874 0.21727246 0.106324315 -0.02038071 -0.06070779 -0.09719782 0.1522608 0.08305458 -0.023222148 -0.057742473 0.10287178 0.22134848 -0.2658339 0.039559 -0.15814193 -0.16171192 -0.050358664 -0.09092331 -0.05339085 -0.063452035 0.06975716 0.20418006 -0.10537318 -0.09670281 -0.11616359 0.025955496 -0.21249676 -0.037893448 -0.038473725 -0.0047064386 -0.013588432 -0.046395127 0.091130294 0.22596355 0.13938479 0.0449783 0.019913593 0.0896173 -0.14563465 0.04557027 -0.11725094 -0.10484242 0.06235761 -0.13253607 0.047356535 -0.062671535 0.07886744 -0.059099615 0.13288578 0.0043968377 0.11925506 0.12861538 -0.08229683 0.109709956 0.116485626 0.07832341 0.08073411
8 -0.00024891476 -0.11548046 -0.01398286 -0.026115464 0.0060505443 -0.016104463 0.08458076 0.13001376 0.073864244 -0.08181356 0.10474257 0.07230991 -0.028698636 -0.22019877 0.09619861 -0.23985122 0.082420774 -0.1483944 0.016469328 0.0057990453 -0.032108653 0.017516878 -0.05477348 0.04993046 0.12348279 -0.053050123 -0.089317374 -0.030120507 0.05058847 0.030200003 -0.044511277 -0.015023847 -0.1602375 0.063715555 -0.03873538 -0.18250884 0.11982001 0.030735714 0.07752665 -0.029371364 -0.07274395 -0.1382219 0.10068019 0.21953943 -0.1489629 -0.002996278 -0.019755488 -0.21625814 -0.027749242 0.035381943 -0.055986434 0.010282357 -0.013990434 0.12642227 -0.15679717 -0.054761015 -0.024105435 0.06300107 -0.02772192 0.014227162 0.014859093 -0.1252647 0.010800014 0.15952569 -0.022146838 -0.012100914 0.08302045 0.04420669 -0.1147558 -0.23202345 -0.05587933 0.05368746 0.026599078 -0.013591339 0.104898036 -0.102167875 0.081705846 -0.0038375012 -0.042173356 -0.09781175 -0.026690768 -0.0858431 -0.11378086 0.05788899 -0.038731538 -0.07017102 0.100899436 0.020392437 0.09921319 0.00019199049 0.12795687 0.050696798 0.05380773 -0.02925414 -0.23026933 0.08362357 -0.15855373 -0.22008485 0.11748962 0.06474719 -0.12815116 -0.06219254 -0.04755215 -0.08026188 -0.06890013 0.034139305 0.06621322 0.16322018 -0.038355555 -0.07930293 -0.01652989 0.10049209 0.10266993 -0.06641278 -0.20764296 0.11821281 0.06827133 0.040982846 -0.087778956 0.0650818 -0.13025795 -0.036964733 -0.020016752 -0.21578878 -0.258626 0.05847127 0.22044922 0.1583536 0.2477984 0.034414973 -0.0051235957 -0.03479251 0.21257803 0.0047464054 0.14182326 0.02688155 -0.046323657 -0.06445471 0.06180187 0.1379722 -0.0031827828 0.042121273 0.247832 -0.05362814 -0.017236972 0.0056618364 -0.23873802 0.15705232 0.2460349 -0.036796007 0.18299906 -0.058910877 0.017389301 -0.07365788 -0.03812089 -0.007039022 -0.13300376 -0.12633783 -0.083403945 -0.27459097 0.062560365 -0.01152029 -0.01553208 0.0125603685 -0.0017559011 -0.080476366 -0.21361674 0.056733094 0.19996731 -0.012852153 -0.033666193 0.10073612 0.010260932 0.13461098 -0.034568388 -0.015214619 0.043752942 -0.060809467 0.09440273 0.07263562 0.031796116 -0.16160814 -0.040513568 -0.14964175 -0.022735959 -0.20554961 -0.033261288 0.037571024 0.029856566 -0.09516113 0.04660217 -0.047151614 0.04976563 -0.12116429 -0.14882025 0.19049846 0.02785448 -0.029206183 -0.09853852 0.045346085 0.20938553 0.103872105 -0.016829832 -0.058128525 -0.099151894 0.14845188 0.0816552 -0.022043629 -0.05920882 0.1026038 0.21845967 -0.26260358 0.04175848 -0.15570071 -0.1583172 -0.04720628 -0.08806434 -0.051020227 -0.059693884 0.06663281 0.20286188 -0.10335635 -0.097626045 -0.114111304 0.025490694 -0.20799784 -0.033689752 -0.032705855 -0.0044003357 -0.016458776 -0.042822354 0.09171503 0.22449376 0.14124396 0.04167431 0.020338528 0.08722795 -0.14577018 0.044511706 -0.114302725 -0.10208758 0.0580659 -0.13007133 0.04430957 -0.060935736 0.078769386 -0.056686148 0.13442016 0.00692951 0.11861137 0.12900038 -0.08053307 0.10648745 0.113200605 0.0752133 0.079697765
5 -0.03843656 -0.13058212 -0.046974488 -0.045715585 0.044593435 -0.036863945 0.11841242 0.079812184 0.13931817 -0.117053665 0.10298888 0.072169006 -0.06979777 -0.24038658 0.07307065 -0.24559763 0.08194554 -0.17142633 -0.024038076 -0.008366757 -0.029569931 0.07032346 -0.06250291 0.14359517 0.16777118 -0.09399539 -0.08995573 -0.0503018 0.045264393 0.026098285 -0.07913442 0.015450786 -0.2076115 0.057884436 -0.014573278 -0.2326219 0.070535466 0.024893422 0.041409425 -0.027028887 -0.069002874 -0.17735252 0.09078166 0.23239335 -0.17593719 -0.022605684 0.0221705 -0.19300403 -0.021326173 0.03380237 -0.06999218 0.09416488 -0.037963793 0.10570094 -0.12200321 -0.07336955 -0.014353559 0.03905284 0.0010676644 0.030439386 -0.017115446 -0.123242795 -0.0047122715 0.2103637 -0.069929786 -0.018405609 0.16142541 0.09524847 -0.0704327 -0.2403843 -0.033604775 0.07120694 -0.019319644 -0.02067712 0.11132908 -0.14667019 0.061629377 -0.03149288 -0.032928575 -0.15466365 -0.045377295 -0.020901661 -0.1325285 0.0017388872 -0.07182571 -0.13720779 0.05638143 0.076371744 0.050059885 0.031871162 0.14986674 0.029775234 0.097560175 0.020156536 -0.23812681 0.0938725 -0.14778619 -0.18968843 0.16267557 0.122449994 -0.23384267 -0.012106769 -0.12272871 -0.1198942 -0.06574462 0.052972477 0.032613415 0.14211509 -0.037926108 -0.09427998 0.011552958 0.08561092 0.10388793 -0.08074301 -0.18798995 0.1073468 0.078353055 0.07202029 -0.03594124 0.10272296 -0.13858476 -0.00075425644 -0.029411795 -0.17915738 -0.29187843 0.06853911 0.15400651 0.22138435 0.2097853 0.009443457 -0.05585885 0.0070301658 0.18499435 0.0029083847 0.13340065 0.03906759 -0.11382705 -0.04793332 -0.019918306 0.15773949 0.03291929 0.09320114 0.2644929 0.003302257 -0.06723586 -0.083304204 -0.24458152 0.15843882 0.21391581 -0.05640519 0.18246886 -0.046407234 -0.034335125 -0.07098542 -0.11397428 0.018623779 -0.15036957 -0.13601369 -0.085876755 -0.300451 0.107063375 -0.04642092 -0.010502344 -0.029657485 -0.033326693 -0.117359385 -0.16551751 0.07499322 0.18900232 -0.098487094 -0.01785987 0.088415556 -0.026632288 0.10887763 -0.020093648 -0.018254787 0.0361616 -0.046730313 0.16300082 0.04681421 0.029948477 -0.1575358 -0.10295565 -0.16972536 -0.07635575 -0.2111768 -0.04674376 0.008084638 0.11162935 -0.15440653 0.029711334 -0.06921867 0.035054855 -0.07596425 -0.14781396 0.20269306 0.032813407 -0.0550342 -0.10828952 -0.04341534 0.18005632 0.08001669 0.010611771 -0.0276296 -0.13292263 0.14529946 0.08560806 -5.1348572e-05 -0.115670934 0.11751348 0.2628367 -0.27604213 0.07555554 -0.19015643 -0.16691215 -0.03488726 -0.043141805 -0.06907004 0.0055522826 0.063054286 0.2237645 -0.10675954 -0.15197395 -0.12153445 0.028918443 -0.22491221 0.011904116 0.014317776 -0.0316706 -0.085677944 0.02044212 0.12927927 0.21665469 0.1991395 0.02255751 -0.0075321486 0.115400136 -0.19251189 0.009500566 -0.10250242 -0.07561824 0.04620787 -0.114882715 0.066514224 -0.053986818 0.10387993 -0.024076467 0.15735558 0.035707656 0.1282834 0.136688 -0.05207547 0.15369539 0.06446566 0.034460925 0.087795556
7 -0.038916837 -0.12798989 -0.048079062 -0.046989948 0.043021344 -0.035570182 0.117354475 0.077667475 0.14173242 -0.11637133 0.098708674 0.06989866 -0.0694475 -0.24059018 0.07101499 -0.24020897 0.08234588 -0.16876522 -0.02698888 -0.0105690975 -0.02975112 0.06997523 -0.059816517 0.14673813 0.16887985 -0.09492328 -0.09002525 -0.050284833 0.043192923 0.024996622 -0.0776475 0.020020623 -0.20750605 0.05385856 -0.015067882 -0.23121546 0.06471668 0.021323444 0.038381338 -0.027838396 -0.071945086 -0.17642675 0.090393566 0.23131435 -0.17371133 -0.022467067 0.024789948 -0.18813615 -0.01895167 0.034735393 -0.071199186 0.09820322 -0.040742166 0.10639337 -0.120502025 -0.07110621 -0.014809127 0.0363732 0.0027317717 0.034754477 -0.017357543 -0.12020539 -0.0066051665 0.21019194 -0.070989154 -0.018319855 0.16332592 0.099307805 -0.067250535 -0.2371661 -0.03163611 0.07234317 -0.022040004 -0.018263688 0.11016826 -0.14537223 0.059865206 -0.030127373 -0.030173752 -0.15568204 -0.043956544 -0.015142866 -0.13136935 -1.17871095e-05 -0.07284617 -0.13899784 0.049813956 0.07736305 0.04411111 0.034706403 0.14954229 0.028502602 0.099911496 0.022116285 -0.23390613 0.09364531 -0.14152348 -0.1855231 0.15992944 0.1225334 -0.23591082 -0.008284145 -0.12662792 -0.11906676 -0.06292251 0.052385155 0.027807927 0.13888906 -0.033950586 -0.092818685 0.014994122 0.08520431 0.10105992 -0.080607496 -0.18414766 0.102700874 0.075530544 0.07136075 -0.035790328 0.104808725 -0.13806076 0.0024640593 -0.028504856 -0.17129518 -0.28921357 0.065913476 0.1499386 0.22177549 0.20246823 0.0086585665 -0.058322653 0.011485575 0.18252026 0.006534542 0.13355137 0.040920403 -0.11615208 -0.04876352 -0.02341358 0.15765916 0.03666551 0.0954883 0.26094368 0.0065933284 -0.06894919 -0.08652365 -0.23937379 0.15888983 0.21015707 -0.057971336 0.18189394 -0.04422333 -0.03656333 -0.070139356 -0.11554601 0.01640976 -0.1512931 -0.1337144 -0.083184265 -0.29810223 0.10597084 -0.046159945 -0.0071465643 -0.030607497 -0.03598134 -0.117336676 -0.16125779 0.07670564 0.18905404 -0.102902785 -0.014007506 0.085195936 -0.027325694 0.103383385 -0.019177498 -0.017332168 0.03356317 -0.04871571 0.16349632 0.04620742 0.03243436 -0.15568824 -0.10695006 -0.16777605 -0.078992136 -0.2064308 -0.048943743 0.0055962815 0.11542536 -0.15740174 0.031090766 -0.07230033 0.03577035 -0.07317637 -0.14218362 0.20224264 0.03251743 -0.05811784 -0.10650215 -0.04893494 0.17318505 0.07847159 0.0106485225 -0.02691266 -0.13515061 0.14251146 0.08460678 0.0017725416 -0.115970284 0.1198649 0.26098886 -0.2709964 0.075612806 -0.18928127 -0.16487414 -0.031426735 -0.042100117 -0.072150335 0.009544629 0.061494943 0.22059691 -0.10857693 -0.1548438 -0.12281028 0.02515785 -0.2223261 0.01519534 0.019341888 -0.030462848 -0.08633676 0.024345214 0.13142274 0.21430655 0.19915766 0.020739753 -0.010141644 0.11561794 -0.19107006 0.0038159438 -0.099328496 -0.07594619 0.046391986 -0.10901517 0.06417865 -0.04982859 0.101540074 -0.022549829 0.15660326 0.038836252 0.12622817 0.13230933 -0.047033615 0.15386875 0.05825962 0.03060504 0.088479325
1 -0.037386183 -0.11254829 -0.038544063 -0.041630745 0.03965869 -0.033827145 0.10095268 0.06729788 0.122880116 -0.100239165 0.08459277 0.05961551 -0.059636623 -0.20676455 0.058798753 -0.20852275 0.07163979 -0.14638379 -0.02074001 -0.0100033535 -0.025286742 0.06153134 -0.05143271 0.12700209 0.14512706 -0.080637954 -0.07487073 -0.040986583 0.03893025 0.02116127 -0.07024694 0.017348284 -0.17849551 0.048233986 -0.012508577 -0.2011504 0.054243766 0.018948702 0.034897953 -0.024998458 -0.06170741 -0.154351 0.07850189 0.19955698 -0.15075308 -0.021762738 0.020160949 -0.16166018 -0.015713751 0.031160852 -0.062124092 0.086082935 -0.036072817 0.09192571 -0.103952 -0.062048424 -0.0130273355 0.033825565 0.00017795271 0.029471522 -0.015006061 -0.105457745 -0.007661675 0.18086256 -0.062698506 -0.016004752 0.14152119 0.08552289 -0.05938045 -0.20328264 -0.026395662 0.059667494 -0.016546866 -0.016463393 0.09323762 -0.12733334 0.053173687 -0.028271625 -0.024885215 -0.13552721 -0.039128054 -0.015219547 -0.11293252 -0.0036757966 -0.06338788 -0.12091776 0.042997144 0.066713855 0.039619748 0.029660154 0.12796672 0.02465748 0.08564735 0.019867495 -0.20169951 0.07926924 -0.12321128 -0.15938517 0.14104606 0.10677477 -0.2050202 -0.0057884455 -0.10748225 -0.10323179 -0.052648112 0.04842983 0.026294798 0.12038132 -0.03148288 -0.08000269 0.011886569 0.07074966 0.08827023 -0.06666726 -0.15833126 0.08769586 0.06699027 0.06372624 -0.030374192 0.08827365 -0.11852838 0.0022589536 -0.02745568 -0.14745432 -0.24920249 0.05734419 0.12651585 0.19084892 0.17571215 0.0069344826 -0.04878796 0.0071593407 0.15347174 0.005269716 0.11309627 0.035841238 -0.09914578 -0.040784217 -0.023836136 0.13563012 0.030147757 0.07975034 0.22614065 0.003091374 -0.059627168 -0.07365274 -0.20578553 0.13682671 0.17897381 -0.05063853 0.15638834 -0.039673455 -0.03216316 -0.057727426 -0.10148624 0.014924115 -0.130612 -0.11577962 -0.0733331 -0.25656176 0.09245335 -0.040464655 -0.0089614885 -0.028515738 -0.031975716 -0.10257338 -0.1370792 0.06458161 0.16246392 -0.09005189 -0.011730676 0.07226673 -0.024827693 0.09007784 -0.018193888 -0.015936958 0.028929604 -0.039888725 0.1426302 0.03885179 0.029008923 -0.13414434 -0.0920872 -0.14627597 -0.069284104 -0.17965412 -0.041860454 0.0038062597 0.097485885 -0.13685283 0.026765611 -0.060684297 0.029776877 -0.0636445 -0.12407101 0.17394277 0.028499704 -0.051141452 -0.09308398 -0.044396717 0.15049316 0.06681562 0.009040758 -0.023341514 -0.115733184 0.12455889 0.07357308 -0.0008315863 -0.1012938 0.10227407 0.22328442 -0.23373537 0.06321337 -0.16309395 -0.14018054 -0.02838195 -0.03533718 -0.0631106 0.008952088 0.051648434 0.19056088 -0.09396507 -0.13441129 -0.10467369 0.022974242 -0.18987717 0.012897611 0.01617204 -0.028378962 -0.077140376 0.022695066 0.113732874 0.18477559 0.1715916 0.01981475 -0.009974273 0.09773019 -0.1649109 0.0025496914 -0.08656008 -0.06358775 0.04041111 -0.09571353 0.053951785 -0.043042585 0.0895331 -0.018461183 0.13394822 0.03398694 0.106758125 0.11741425 -0.040425085 0.13335139 0.050218605 0.025238158 0.0778389
3 -0.035982467 -0.09956807 -0.036362182 -0.03697539 0.037794214 -0.030157797 0.093886405 0.055883188 0.111059114 -0.09283052 0.077374734 0.05213956 -0.058940075 -0.18769851 0.05109784 -0.18740244 0.06515963 -0.13329364 -0.023030391 -0.009996751 -0.024658682 0.05937953 -0.047392737 0.1210873 0.13456464 -0.0760333 -0.0683033 -0.037875433 0.035924144 0.021373928 -0.06463978 0.015319619 -0.16454104 0.04427006 -0.00968186 -0.18358104 0.047563344 0.018430462 0.028159715 -0.019251678 -0.053464647 -0.14145193 0.069047965 0.18039262 -0.13687767 -0.019994188 0.02307724 -0.14467493 -0.01721612 0.027869534 -0.053311367 0.08020379 -0.03495977 0.08007108 -0.09086825 -0.05815812 -0.011845402 0.027622458 0.0023503366 0.028628068 -0.018157912 -0.09180473 -0.0070987917 0.16709603 -0.05781534 -0.016349938 0.13327038 0.080587514 -0.048109528 -0.18419744 -0.020936958 0.05647911 -0.020663992 -0.013922233 0.08579472 -0.116605535 0.046898983 -0.026552007 -0.020702073 -0.12389423 -0.03565137 -0.006690101 -0.1032105 -0.006591069 -0.057460137 -0.11033568 0.036053497 0.064226024 0.0298299 0.027779695 0.114837445 0.021348197 0.07855895 0.021342386 -0.18248837 0.073377855 -0.111209236 -0.1380555 0.1293626 0.09877413 -0.19115673 -0.0024809488 -0.10395397 -0.095105894 -0.04692187 0.04491631 0.01974674 0.10497193 -0.025961148 -0.07410066 0.0144450655 0.06326526 0.07903022 -0.061718628 -0.13932194 0.07972788 0.058783367 0.0593642 -0.020971844 0.08252706 -0.10738198 0.0016942663 -0.024452878 -0.13010378 -0.22599503 0.05250786 0.11016113 0.17547087 0.15307935 0.0031220436 -0.047899496 0.01263076 0.13928843 0.0042266394 0.10297297 0.02997639 -0.09347408 -0.035482857 -0.025172435 0.122798316 0.032239746 0.07713556 0.20396362 0.008731062 -0.05507706 -0.074003816 -0.1868791 0.122716516 0.16071123 -0.045869295 0.13994285 -0.03297894 -0.031807616 -0.05079493 -0.0950118 0.017227914 -0.119277515 -0.10123865 -0.06577238 -0.23090743 0.0864878 -0.040599324 -0.0055420846 -0.028324416 -0.030040383 -0.09350778 -0.12201979 0.060000136 0.1451645 -0.085914254 -0.012137419 0.065143585 -0.023543946 0.07733704 -0.014914629 -0.015174692 0.026757147 -0.03506987 0.13230656 0.03231524 0.025494473 -0.11722344 -0.08636891 -0.13195725 -0.064623594 -0.16207184 -0.0388656 0.0013110959 0.09590233 -0.12669289 0.023222199 -0.05797161 0.02730725 -0.052157484 -0.11122981 0.15749452 0.024391674 -0.047106028 -0.08229811 -0.04539598 0.13192755 0.05825964 0.011841981 -0.01766145 -0.10753853 0.10993404 0.063738406 0.0036633178 -0.09437961 0.09325079 0.2056298 -0.21169004 0.060801428 -0.14898592 -0.12890293 -0.02512269 -0.028991096 -0.05737372 0.009200603 0.046519894 0.1720367 -0.084090956 -0.12269855 -0.09622606 0.020441873 -0.1712575 0.013541941 0.019201549 -0.026012434 -0.074309714 0.024268491 0.105184294 0.163038 0.15816177 0.015332735 -0.009463558 0.09190029 -0.15159377 0.001030983 -0.073680006 -0.05490494 0.034618996 -0.08489312 0.052354407 -0.03860507 0.081464484 -0.012737211 0.12276726 0.029255623 0.09759148 0.10460225 -0.036533535 0.1206741 0.039922364 0.018461023 0.07054037
2 -0.001666238 -0.10588065 -0.016065722 -0.02634507 0.008512173 -0.0166208 0.07978906 0.11744175 0.07076344 -0.0789786 0.09608061 0.06730039 -0.026796078 -0.20554258 0.08515821 -0.22118631 0.07409301 -0.13697438 0.010612012 0.0028361785 -0.028659884 0.019868229 -0.048886236 0.05346464 0.11472267 -0.053551275 -0.08292455 -0.029909898 0.04820511 0.027207697 -0.041322827 -0.012395354 -0.1525332 0.058503762 -0.035259146 -0.16957065 0.10544256 0.026628723 0.06821321 -0.029307006 -0.06593125 -0.1286339 0.094420575 0.20146383 -0.14048709 -0.0057444707 -0.015228758 -0.19772643 -0.02337239 0.030868642 -0.051352244 0.014626688 -0.01584569 0.11620922 -0.14274038 -0.05152295 -0.019002372 0.058655474 -0.023992559 0.017341733 0.011680208 -0.11255309 0.007937296 0.1481664 -0.024908684 -0.008858578 0.07970122 0.04427017 -0.10445796 -0.21342884 -0.04899358 0.050889477 0.024069402 -0.012823153 0.09649497 -0.096184626 0.07583215 -0.0055084624 -0.037169877 -0.09415494 -0.02768859 -0.07405014 -0.106391914 0.04891369 -0.03508042 -0.06923585 0.08793974 0.021692576 0.08886735 0.0024348812 0.11931326 0.047896236 0.052879248 -0.025321882 -0.21354973 0.07927967 -0.14495336 -0.19984882 0.110909365 0.06605906 -0.1249021 -0.053393092 -0.046239763 -0.07756615 -0.0644142 0.032643933 0.059538882 0.15244341 -0.035532486 -0.07254381 -0.012693873 0.09148828 0.09438589 -0.062456094 -0.1893563 0.105878465 0.06455955 0.041025717 -0.07818744 0.06185663 -0.12017241 -0.031044502 -0.019884052 -0.19777825 -0.2402989 0.05672969 0.19927812 0.1509811 0.22513466 0.028510606 -0.006110237 -0.029759986 0.19415721 0.0022713023 0.12736897 0.023763634 -0.050522525 -0.059687354 0.051890682 0.12799342 -0.0013702242 0.042757045 0.228688 -0.04625061 -0.017977057 -0.0017814365 -0.21910362 0.14360413 0.22494777 -0.034098353 0.16870782 -0.052879132 0.01250586 -0.06657059 -0.043049663 -0.0065328986 -0.12470508 -0.11982612 -0.075705834 -0.25453088 0.0595299 -0.013788565 -0.013375442 0.009887225 -0.0047697066 -0.07857553 -0.19248803 0.05105684 0.18219307 -0.018946737 -0.029225962 0.09369344 0.0064486116 0.122083485 -0.03366738 -0.013380325 0.038954947 -0.054870676 0.090436414 0.065136075 0.028915308 -0.15176718 -0.04234515 -0.13918501 -0.025012052 -0.19021589 -0.03064283 0.032091692 0.031132933 -0.08962412 0.044793036 -0.042671762 0.042413305 -0.1101552 -0.13632128 0.17440394 0.026541693 -0.026153797 -0.09190194 0.03478344 0.19311665 0.093527414 -0.014747453 -0.051574312 -0.0910831 0.13783744 0.07453751 -0.020224836 -0.059042577 0.09669506 0.20496476 -0.24048086 0.04047047 -0.14877048 -0.14834361 -0.041064985 -0.07909387 -0.051629446 -0.048444763 0.062414538 0.18851216 -0.09406864 -0.095156714 -0.103803955 0.022379262 -0.19421196 -0.02829546 -0.029387152 -0.006101366 -0.018210912 -0.034191433 0.0881666 0.20566383 0.13183942 0.04028228 0.014192501 0.08438503 -0.13703248 0.03841699 -0.10328107 -0.09121639 0.052326865 -0.11819143 0.043749366 -0.0553355 0.07453402 -0.047756564 0.12512675 0.007045992 0.108900204 0.11921457 -0.071335 0.102832794 0.10038207 0.06390034 0.074522786
6 -0.0049840626 -0.110136196 -0.017567292 -0.025997248 0.011614027 -0.017709771 0.08424889 0.11791574 0.07806092 -0.08276868 0.09998773 0.0677673 -0.03167075 -0.21229737 0.08774418 -0.2264525 0.07679617 -0.14459972 0.0097746765 0.00096469774 -0.030499484 0.021844622 -0.052657753 0.058957666 0.123437054 -0.05805651 -0.08380231 -0.033948287 0.048118062 0.028716797 -0.045638815 -0.011611707 -0.15698865 0.057905857 -0.032583736 -0.17849843 0.10583228 0.03012872 0.065610945 -0.031336285 -0.06948343 -0.13494092 0.09734295 0.20722951 -0.14666727 -0.0059121707 -0.011021421 -0.2032629 -0.022753894 0.034262013 -0.054234263 0.022550287 -0.02028471 0.11657145 -0.14152312 -0.055081006 -0.020470701 0.056397323 -0.020770568 0.0153087275 0.013081892 -0.11562958 0.0076168454 0.15698333 -0.027583424 -0.012804625 0.085691094 0.049379174 -0.1044288 -0.22062413 -0.047601618 0.053414684 0.019377155 -0.0114708785 0.101520374 -0.103076205 0.076995976 -0.0046961643 -0.038606502 -0.099014595 -0.03009325 -0.069991864 -0.10785774 0.047448713 -0.037597835 -0.07840332 0.08972158 0.025072506 0.086348094 0.0056377393 0.124363035 0.04724922 0.05785451 -0.020077055 -0.21828231 0.08212087 -0.14712533 -0.2047749 0.1192227 0.06883953 -0.13450214 -0.051843546 -0.052747395 -0.08000945 -0.06695367 0.0376619 0.05702726 0.155574 -0.033989653 -0.07646625 -0.008794207 0.093369454 0.09605084 -0.06333346 -0.191942 0.11036484 0.06718148 0.042064495 -0.075929634 0.0660939 -0.12323218 -0.029964972 -0.020343801 -0.2014431 -0.25157034 0.05859437 0.20113456 0.15697825 0.23039702 0.028449351 -0.011856426 -0.029095214 0.19682248 0.0034683147 0.13308284 0.026649604 -0.054794848 -0.057755914 0.046949357 0.1335127 0.0016576691 0.046181913 0.2370981 -0.044086207 -0.02245547 -0.006545854 -0.2254932 0.14624375 0.2292992 -0.0386487 0.17048566 -0.051277023 0.010042847 -0.06969298 -0.045693904 -0.0033909073 -0.12738945 -0.12214171 -0.07794243 -0.26353943 0.064856015 -0.014150007 -0.013588554 0.007776876 -0.008442668 -0.0818639 -0.19675733 0.053770937 0.18692783 -0.023631278 -0.028811434 0.095279165 0.0053765047 0.124475926 -0.032502037 -0.015825607 0.037149955 -0.057052113 0.09726797 0.06590765 0.030026842 -0.15434903 -0.046241708 -0.14263614 -0.029670287 -0.19567303 -0.030864436 0.030620141 0.03603634 -0.09607089 0.044869404 -0.046731513 0.04550609 -0.11065998 -0.13816619 0.18145838 0.026485713 -0.029607983 -0.09648786 0.031670734 0.19708043 0.09309505 -0.014876064 -0.051650662 -0.09701008 0.13836616 0.07836977 -0.01709583 -0.06259552 0.09934155 0.21168268 -0.24869274 0.0457787 -0.15345474 -0.15219557 -0.04413119 -0.07881878 -0.05322722 -0.04899553 0.06569458 0.1950129 -0.10011296 -0.099614136 -0.108643115 0.022220608 -0.19865178 -0.024888273 -0.024465334 -0.00965709 -0.022899928 -0.031459898 0.09198726 0.21114689 0.13868776 0.039147977 0.013686153 0.0872315 -0.1431927 0.03721587 -0.10766971 -0.094930254 0.056321587 -0.11918957 0.04428187 -0.05680497 0.07665742 -0.048677824 0.12703957 0.0101552205 0.111148514 0.12191108 -0.07060178 0.10805559 0.098980054 0.06600358 0.07490448
0 -0.0059852395 -0.103592016 -0.017076185 -0.028055644 0.009582892 -0.016274553 0.07746689 0.108026944 0.07347055 -0.07796062 0.09439539 0.0637279 -0.029172642 -0.19797459 0.08234891 -0.21260038 0.073748596 -0.13449426 0.0067583984 0.0014422782 -0.028864358 0.020996584 -0.049061917 0.0583369 0.11296901 -0.05403154 -0.078491256 -0.031551957 0.043228596 0.02353534 -0.042348966 -0.0077850064 -0.14817041 0.05350967 -0.029263867 -0.16842176 0.09942877 0.027250463 0.06387318 -0.028647631 -0.06563427 -0.12878509 0.088129535 0.19621582 -0.13581811 -0.004794816 -0.011282382 -0.18913706 -0.024357466 0.031340502 -0.051713564 0.020546986 -0.018738115 0.107022636 -0.13397363 -0.051104937 -0.020401897 0.05504599 -0.022205645 0.017084055 0.010279962 -0.11071058 0.007006098 0.14853525 -0.026458135 -0.01185815 0.08231515 0.044821993 -0.09692638 -0.20456012 -0.04664421 0.051617827 0.020005034 -0.011388058 0.094778836 -0.097644776 0.070888594 -0.006548433 -0.0357689 -0.09403475 -0.025741257 -0.06678858 -0.10025719 0.044737063 -0.038796727 -0.07156131 0.081849456 0.024051275 0.08141433 0.005755926 0.11492316 0.045019757 0.05403015 -0.020378469 -0.20463069 0.07715152 -0.1390533 -0.18869875 0.11235691 0.065055706 -0.12789415 -0.04801962 -0.04859741 -0.074045494 -0.06149898 0.035061598 0.055013526 0.1452817 -0.030870635 -0.06967957 -0.010618561 0.08694336 0.09013761 -0.061735038 -0.18119793 0.09995708 0.062470503 0.03968941 -0.07134133 0.063112006 -0.11755088 -0.02646351 -0.021691026 -0.18675226 -0.23554276 0.05531557 0.18563603 0.15027407 0.21414226 0.02870342 -0.010687947 -0.026791126 0.18473561 0.0020567095 0.122650385 0.024845636 -0.049240176 -0.053804226 0.04329201 0.12660548 0.0025047716 0.043515887 0.21982893 -0.04096037 -0.020949004 -0.0075480193 -0.21148129 0.13842349 0.2138815 -0.03621985 0.1625879 -0.049785644 0.00769992 -0.06541345 -0.043071024 -0.0022573662 -0.12156094 -0.115741014 -0.07187485 -0.24760759 0.06005387 -0.016778601 -0.012294335 0.0040122853 -0.008013069 -0.077410735 -0.18212053 0.05286892 0.17600667 -0.02603419 -0.025193932 0.08573746 0.0033527901 0.116065785 -0.030496271 -0.012863549 0.037991766 -0.051929343 0.09351933 0.060151212 0.027541006 -0.14593957 -0.046779327 -0.1371733 -0.028827067 -0.18005699 -0.02978237 0.028809441 0.03587549 -0.09119882 0.041807115 -0.043776985 0.043019563 -0.09943626 -0.13069703 0.17039831 0.027538618 -0.028362999 -0.08735815 0.028891578 0.18373838 0.0897451 -0.012491396 -0.045426447 -0.09124691 0.13298799 0.07359133 -0.01874672 -0.059652258 0.09506551 0.19838174 -0.23397027 0.042372707 -0.14563815 -0.14204727 -0.03951634 -0.07342694 -0.048739176 -0.045115855 0.06148337 0.18370421 -0.09304062 -0.094589196 -0.10321701 0.020375248 -0.18824308 -0.025377216 -0.024348913 -0.010037946 -0.024954567 -0.027635843 0.08557605 0.19755815 0.13334124 0.03559431 0.014523087 0.08114764 -0.13694906 0.032466512 -0.09933974 -0.08814496 0.05085176 -0.11321004 0.043876763 -0.051270567 0.071351975 -0.042847987 0.12074235 0.0119705945 0.10616869 0.11416206 -0.06383795 0.09965696 0.09331936 0.058942948 0.07083625
9 -0.028057775 -0.09223815 -0.03367635 -0.0332802 0.030446833 -0.025695058 0.083126314 0.05980809 0.10001255 -0.08293844 0.07322453 0.05229893 -0.0484405 -0.17442945 0.051478643 -0.17544119 0.05872227 -0.120279394 -0.017478975 -0.005987996 -0.023875732 0.050407793 -0.041544273 0.09900214 0.11856829 -0.06483096 -0.06502292 -0.03674145 0.032231554 0.019851739 -0.05493526 0.013221498 -0.1487494 0.03980237 -0.009542173 -0.16655125 0.052286655 0.01723218 0.028681867 -0.018200438 -0.052692037 -0.12847745 0.06656377 0.16838127 -0.12650613 -0.01705783 0.0153813 -0.13945328 -0.016258318 0.02316268 -0.05129316 0.06618128 -0.029461112 0.077616714 -0.087035194 -0.052238513 -0.012187255 0.02866994 -0.0010172472 0.021992914 -0.011359123 -0.08787767 -0.005568753 0.1503971 -0.047679223 -0.014260848 0.11498588 0.0679754 -0.05218419 -0.17113696 -0.023003712 0.05236937 -0.0106981825 -0.014260167 0.08104758 -0.104769446 0.043766636 -0.019416796 -0.024068518 -0.108175404 -0.029937476 -0.016279327 -0.09597207 -2.1755743e-05 -0.051383443 -0.096676484 0.0400439 0.053094175 0.03461614 0.02334932 0.107352324 0.021444459 0.07104246 0.015344044 -0.17010364 0.06495045 -0.10388409 -0.13540722 0.115063526 0.086843796 -0.16709103 -0.010867473 -0.08812778 -0.0837864 -0.045431852 0.03830513 0.022475576 0.10391701 -0.027912207 -0.06847136 0.010179082 0.06174952 0.07581422 -0.05762045 -0.13444343 0.07457315 0.053244546 0.052679636 -0.028377783 0.07431727 -0.100206405 -0.0023993913 -0.022153035 -0.1269631 -0.20909636 0.049992397 0.111775495 0.15776445 0.15073144 0.008005328 -0.037562367 0.0047047413 0.13404533 0.003997949 0.097044565 0.02882206 -0.08102153 -0.035388052 -0.014825149 0.11467732 0.025148679 0.0664652 0.19007754 -0.0010470573 -0.04554634 -0.059674196 -0.17608462 0.113524064 0.15465565 -0.042228565 0.13307007 -0.031031616 -0.023618154 -0.05108408 -0.08110685 0.01027014 -0.109476 -0.09686148 -0.060860023 -0.2161446 0.075025566 -0.031030936 -0.0071441433 -0.02171094 -0.02446989 -0.08515668 -0.119334705 0.05523138 0.13811126 -0.06740566 -0.010648048 0.061257027 -0.016436184 0.07604259 -0.014726804 -0.014954933 0.02720973 -0.036489714 0.11400506 0.033469453 0.02270088 -0.113401644 -0.07341823 -0.12014882 -0.052093126 -0.14939302 -0.035214175 0.006148083 0.07783565 -0.10987407 0.021711776 -0.05095969 0.026675338 -0.053943865 -0.104713604 0.14507312 0.021454917 -0.039252903 -0.07753801 -0.0320111 0.12818973 0.05743918 0.0063511343 -0.02190679 -0.09429846 0.10375432 0.061518323 -0.0025707886 -0.079837814 0.08685231 0.18788353 -0.19756562 0.053111866 -0.13641378 -0.120790295 -0.024597803 -0.031418 -0.050820995 0.0014207278 0.044776674 0.16013986 -0.075811386 -0.10864223 -0.08905493 0.018177584 -0.161199 0.009147846 0.010635869 -0.020616313 -0.059170235 0.012252386 0.09454106 0.15564796 0.14317283 0.018085072 -0.0070810537 0.08055387 -0.1384657 0.007553853 -0.07070796 -0.056458604 0.035440568 -0.08139705 0.045882415 -0.038648643 0.07363171 -0.016931243 0.111995906 0.02431856 0.091800556 0.09921616 -0.037780695 0.107951365 0.044610165 0.024842892 0.06367355
